keyword	dim_0	dim_1	dim_2	dim_3	dim_4	dim_5	dim_6	dim_7	dim_8	dim_9	dim_10	dim_11	dim_12	dim_13	dim_14	dim_15	dim_16	dim_17	dim_18	dim_19	dim_20	dim_21	dim_22	dim_23	dim_24	dim_25	dim_26	dim_27	dim_28	dim_29	dim_30	dim_31	dim_32	dim_33	dim_34	dim_35	dim_36	dim_37	dim_38	dim_39	dim_40	dim_41	dim_42	dim_43	dim_44	dim_45	dim_46	dim_47	dim_48	dim_49	dim_50	dim_51	dim_52	dim_53	dim_54	dim_55	dim_56	dim_57	dim_58	dim_59	dim_60	dim_61	dim_62	dim_63	dim_64	dim_65	dim_66	dim_67	dim_68	dim_69	dim_70	dim_71	dim_72	dim_73	dim_74	dim_75	dim_76	dim_77	dim_78	dim_79	dim_80	dim_81	dim_82	dim_83	dim_84	dim_85	dim_86	dim_87	dim_88	dim_89	dim_90	dim_91	dim_92	dim_93	dim_94	dim_95	dim_96	dim_97	dim_98	dim_99	dim_100	dim_101	dim_102	dim_103	dim_104	dim_105	dim_106	dim_107	dim_108	dim_109	dim_110	dim_111	dim_112	dim_113	dim_114	dim_115	dim_116	dim_117	dim_118	dim_119	dim_120	dim_121	dim_122	dim_123	dim_124	dim_125	dim_126	dim_127	dim_128	dim_129	dim_130	dim_131	dim_132	dim_133	dim_134	dim_135	dim_136	dim_137	dim_138	dim_139	dim_140	dim_141	dim_142	dim_143	dim_144	dim_145	dim_146	dim_147	dim_148	dim_149	dim_150	dim_151	dim_152	dim_153	dim_154	dim_155	dim_156	dim_157	dim_158	dim_159	dim_160	dim_161	dim_162	dim_163	dim_164	dim_165	dim_166	dim_167	dim_168	dim_169	dim_170	dim_171	dim_172	dim_173	dim_174	dim_175	dim_176	dim_177	dim_178	dim_179	dim_180	dim_181	dim_182	dim_183	dim_184	dim_185	dim_186	dim_187	dim_188	dim_189	dim_190	dim_191	dim_192	dim_193	dim_194	dim_195	dim_196	dim_197	dim_198	dim_199	dim_200	dim_201	dim_202	dim_203	dim_204	dim_205	dim_206	dim_207	dim_208	dim_209	dim_210	dim_211	dim_212	dim_213	dim_214	dim_215	dim_216	dim_217	dim_218	dim_219	dim_220	dim_221	dim_222	dim_223	dim_224	dim_225	dim_226	dim_227	dim_228	dim_229	dim_230	dim_231	dim_232	dim_233	dim_234	dim_235	dim_236	dim_237	dim_238	dim_239	dim_240	dim_241	dim_242	dim_243	dim_244	dim_245	dim_246	dim_247	dim_248	dim_249	dim_250	dim_251	dim_252	dim_253	dim_254	dim_255	dim_256	dim_257	dim_258	dim_259	dim_260	dim_261	dim_262	dim_263	dim_264	dim_265	dim_266	dim_267	dim_268	dim_269	dim_270	dim_271	dim_272	dim_273	dim_274	dim_275	dim_276	dim_277	dim_278	dim_279	dim_280	dim_281	dim_282	dim_283	dim_284	dim_285	dim_286	dim_287	dim_288	dim_289	dim_290	dim_291	dim_292	dim_293	dim_294	dim_295	dim_296	dim_297	dim_298	dim_299	dim_300	dim_301	dim_302	dim_303	dim_304	dim_305	dim_306	dim_307	dim_308	dim_309	dim_310	dim_311	dim_312	dim_313	dim_314	dim_315	dim_316	dim_317	dim_318	dim_319	dim_320	dim_321	dim_322	dim_323	dim_324	dim_325	dim_326	dim_327	dim_328	dim_329	dim_330	dim_331	dim_332	dim_333	dim_334	dim_335	dim_336	dim_337	dim_338	dim_339	dim_340	dim_341	dim_342	dim_343	dim_344	dim_345	dim_346	dim_347	dim_348	dim_349	dim_350	dim_351	dim_352	dim_353	dim_354	dim_355	dim_356	dim_357	dim_358	dim_359	dim_360	dim_361	dim_362	dim_363	dim_364	dim_365	dim_366	dim_367	dim_368	dim_369	dim_370	dim_371	dim_372	dim_373	dim_374	dim_375	dim_376	dim_377	dim_378	dim_379	dim_380	dim_381	dim_382	dim_383	dim_384	dim_385	dim_386	dim_387	dim_388	dim_389	dim_390	dim_391	dim_392	dim_393	dim_394	dim_395	dim_396	dim_397	dim_398	dim_399	dim_400	dim_401	dim_402	dim_403	dim_404	dim_405	dim_406	dim_407	dim_408	dim_409	dim_410	dim_411	dim_412	dim_413	dim_414	dim_415	dim_416	dim_417	dim_418	dim_419	dim_420	dim_421	dim_422	dim_423	dim_424	dim_425	dim_426	dim_427	dim_428	dim_429	dim_430	dim_431	dim_432	dim_433	dim_434	dim_435	dim_436	dim_437	dim_438	dim_439	dim_440	dim_441	dim_442	dim_443	dim_444	dim_445	dim_446	dim_447	dim_448	dim_449	dim_450	dim_451	dim_452	dim_453	dim_454	dim_455	dim_456	dim_457	dim_458	dim_459	dim_460	dim_461	dim_462	dim_463	dim_464	dim_465	dim_466	dim_467	dim_468	dim_469	dim_470	dim_471	dim_472	dim_473	dim_474	dim_475	dim_476	dim_477	dim_478	dim_479	dim_480	dim_481	dim_482	dim_483	dim_484	dim_485	dim_486	dim_487	dim_488	dim_489	dim_490	dim_491	dim_492	dim_493	dim_494	dim_495	dim_496	dim_497	dim_498	dim_499	dim_500	dim_501	dim_502	dim_503	dim_504	dim_505	dim_506	dim_507	dim_508	dim_509	dim_510	dim_511	dim_512	dim_513	dim_514	dim_515	dim_516	dim_517	dim_518	dim_519	dim_520	dim_521	dim_522	dim_523	dim_524	dim_525	dim_526	dim_527	dim_528	dim_529	dim_530	dim_531	dim_532	dim_533	dim_534	dim_535	dim_536	dim_537	dim_538	dim_539	dim_540	dim_541	dim_542	dim_543	dim_544	dim_545	dim_546	dim_547	dim_548	dim_549	dim_550	dim_551	dim_552	dim_553	dim_554	dim_555	dim_556	dim_557	dim_558	dim_559	dim_560	dim_561	dim_562	dim_563	dim_564	dim_565	dim_566	dim_567	dim_568	dim_569	dim_570	dim_571	dim_572	dim_573	dim_574	dim_575	dim_576	dim_577	dim_578	dim_579	dim_580	dim_581	dim_582	dim_583	dim_584	dim_585	dim_586	dim_587	dim_588	dim_589	dim_590	dim_591	dim_592	dim_593	dim_594	dim_595	dim_596	dim_597	dim_598	dim_599	dim_600	dim_601	dim_602	dim_603	dim_604	dim_605	dim_606	dim_607	dim_608	dim_609	dim_610	dim_611	dim_612	dim_613	dim_614	dim_615	dim_616	dim_617	dim_618	dim_619	dim_620	dim_621	dim_622	dim_623	dim_624	dim_625	dim_626	dim_627	dim_628	dim_629	dim_630	dim_631	dim_632	dim_633	dim_634	dim_635	dim_636	dim_637	dim_638	dim_639	dim_640	dim_641	dim_642	dim_643	dim_644	dim_645	dim_646	dim_647	dim_648	dim_649	dim_650	dim_651	dim_652	dim_653	dim_654	dim_655	dim_656	dim_657	dim_658	dim_659	dim_660	dim_661	dim_662	dim_663	dim_664	dim_665	dim_666	dim_667	dim_668	dim_669	dim_670	dim_671	dim_672	dim_673	dim_674	dim_675	dim_676	dim_677	dim_678	dim_679	dim_680	dim_681	dim_682	dim_683	dim_684	dim_685	dim_686	dim_687	dim_688	dim_689	dim_690	dim_691	dim_692	dim_693	dim_694	dim_695	dim_696	dim_697	dim_698	dim_699	dim_700	dim_701	dim_702	dim_703	dim_704	dim_705	dim_706	dim_707	dim_708	dim_709	dim_710	dim_711	dim_712	dim_713	dim_714	dim_715	dim_716	dim_717	dim_718	dim_719	dim_720	dim_721	dim_722	dim_723	dim_724	dim_725	dim_726	dim_727	dim_728	dim_729	dim_730	dim_731	dim_732	dim_733	dim_734	dim_735	dim_736	dim_737	dim_738	dim_739	dim_740	dim_741	dim_742	dim_743	dim_744	dim_745	dim_746	dim_747	dim_748	dim_749	dim_750	dim_751	dim_752	dim_753	dim_754	dim_755	dim_756	dim_757	dim_758	dim_759	dim_760	dim_761	dim_762	dim_763	dim_764	dim_765	dim_766	dim_767
dejected	0.016071657	-0.015102462	0.08628382	-0.012663707	-0.0014192541	0.01232528	0.031448938	-0.008462007	0.00743846	0.021294039	-0.019064793	0.039171312	0.0633184	-0.0008028342	0.03923488	-0.081375	-0.028296595	-0.032592963	-0.062191814	0.032889288	0.0021420289	-0.01447332	0.005660375	-0.029035198	-0.061792545	0.011641611	0.01916081	0.004908168	-0.06100161	0.05831895	0.022609364	-0.014530536	0.0030610755	0.05101862	0.05616824	0.054126203	-0.042347968	0.009707225	-0.0220672	-0.10392801	-0.052701905	0.06573257	0.009905838	0.039761376	-0.040762592	0.021161625	0.06391328	0.011547102	-8.683022e-05	0.012777621	-0.0041460125	-0.032410093	-0.06334459	0.008813733	0.02981438	0.01042318	-0.04595395	-0.011023983	-0.00536558	0.05550565	-0.020840498	0.028982097	-0.058883715	0.006608865	0.0017312369	-0.01868667	0.01950562	-0.007997596	-0.07699525	-0.007624112	0.021702986	-0.025187641	0.008281115	-0.0107758455	-0.022747422	0.039049294	0.029700996	-0.029856268	0.026114777	-0.004414772	-0.0089065395	-0.008835869	0.043883044	0.07673163	0.030804673	-0.026703002	-0.00304202	-0.017906696	-0.03329579	0.016497463	-0.0015469044	0.022171332	-0.019456346	0.028264565	0.06753661	-0.025677115	-0.02837868	-0.023703435	0.09932137	0.016104903	-0.021930022	-0.0037999535	0.05951623	-0.03706208	0.053342123	0.022984331	-0.04643124	-0.050985288	0.022358315	0.013674207	-0.047853798	-0.019936606	0.027869748	0.004988569	0.047947623	0.01583803	-0.013750324	0.030948482	-0.0033440816	-0.04472418	-0.017476179	0.018073305	-0.09700729	0.061706915	0.04282547	0.039630048	-0.015007706	0.02630294	-0.027068488	0.010463483	0.0057916837	-0.06952834	0.003405883	-0.03183574	0.06580107	-0.008581209	0.018988505	0.017161382	-0.061892092	0.00979477	-0.0036149484	-0.026918	0.007327515	0.01748922	-0.0021934034	0.016416123	-0.026517605	0.03271822	0.020184549	0.039600313	-0.0763395	-0.036132693	0.024212902	0.0121194525	-0.0037144956	-0.0014161639	0.029600905	0.01275305	0.08614502	0.018410912	0.06714983	-0.06190005	0.0091063	0.02468267	-0.06485539	0.040084288	-0.044054396	-0.09456194	0.034814514	-0.035222057	0.032091226	0.04800186	-0.006741074	-0.088277034	-0.0068855034	0.012842297	-0.0127411205	-0.0067819054	-0.07370271	-0.039645683	0.0061574294	0.012020426	-0.007334763	-0.04025987	-0.05007673	0.047191348	0.009217207	0.058314104	0.03075389	0.0264868	-0.09494835	-0.018110793	-0.019834379	0.027541876	-0.0972808	0.030041227	-0.006043021	-0.022564882	-0.035624806	-0.003138688	0.06654017	0.06925918	-0.051788047	-0.0065026553	0.042798836	-0.06080627	-0.08668939	-0.02578852	-0.01003631	0.014727341	0.014606472	0.0016929242	-0.047674704	-0.013676112	0.012749952	0.0064118337	0.08382027	-0.04630825	0.01579808	-0.011932361	0.031046893	0.007010467	-0.056617755	0.04090655	-0.01806641	-0.04235878	-0.08899367	0.0050155637	-0.027347771	0.027581284	-0.03030788	0.00949488	-0.012219269	0.007998122	-0.02386876	0.06427244	0.00827215	0.011248779	0.048448	-0.0144176325	0.023507861	-0.033631463	-0.029546326	-0.00017976938	0.04749141	-0.008771021	0.04769185	0.07863266	-0.04874744	-0.041447315	0.012639346	-0.01927802	-0.038413923	-0.013633608	-0.07427881	-0.013802728	0.037840627	-0.021491304	-0.039034944	-0.023287194	0.011032177	0.009991637	-0.0033994573	0.024194513	-0.005270078	-0.024254803	0.01199893	0.039238706	0.07587108	-0.024539474	-0.013342432	-0.011603314	-0.03196422	0.0047266562	-0.06937428	0.007863869	-0.01968733	0.014182603	-0.008621339	0.05392051	0.052140042	0.012637061	0.01830798	0.023869094	0.058929153	-0.03985863	0.0062479423	0.03572873	-0.011181441	-0.042258665	0.044519052	0.010246583	-0.019573653	-0.045593344	0.01097221	-0.043318864	0.0063189315	0.021978268	0.03769943	-0.04229889	0.0068354	-0.021796295	-0.07309074	-0.0030062897	-0.004735181	0.020653185	0.016930092	0.015300118	-0.036416736	0.017381508	0.015527385	0.046178207	0.017571095	-0.0056247255	-0.031532858	-0.005880158	-0.16918549	-0.04399904	-0.03961942	-0.005772351	-0.017559297	0.020865235	-0.031427924	-0.07430392	0.044359162	0.029537795	-0.0023728407	0.03295693	0.069505826	0.029621674	0.04887206	-0.020408714	-0.049482025	-0.038193665	-0.023810212	0.054395158	-0.04496876	0.0033287378	0.012003643	0.0063421833	0.040122923	-0.022907939	0.03490207	-0.014847423	0.027824454	-0.046056397	0.0440088	-0.033367597	-0.03539511	0.036782037	0.013315006	0.0480403	0.022890085	-0.022448797	0.010469581	0.0105642425	0.07250125	0.011509895	0.07349132	-0.045265675	-0.0053194016	0.01521468	-0.011638182	0.057546943	0.015917718	0.014353601	-0.01090971	0.016061246	-0.017934691	0.015440295	0.013860728	-0.044397734	-0.009372125	-0.018742146	0.011874337	-0.05357381	-0.044074062	0.013733525	-0.036529563	-0.075231574	0.0043449965	-0.01990192	-0.08318522	0.016978731	-0.014335544	0.0012663932	-0.09647583	-0.011590899	0.0019209678	0.08648214	-0.0067741396	0.055610344	-0.016329156	0.05514036	-0.043630663	0.01601328	-0.03476051	0.050285753	-0.010652062	-0.0013589879	-0.06656977	0.0053159795	0.0067071067	-0.008005541	0.019971896	-0.013701419	0.019137278	-0.04204582	0.051370814	-0.018705526	0.03649487	-0.038431894	-0.0074073183	0.045671456	-0.024710447	-0.009344379	0.020251358	-0.0012588176	0.03260694	-0.025328213	-0.017649326	-0.00029666582	0.012658448	-0.02582439	-0.050328404	0.014011651	-0.013558948	-0.0013992668	0.009539432	-0.009156722	-0.009793835	0.059235323	-0.06965255	-0.031208197	-0.018196598	-0.023173735	-0.030639775	-0.006376983	0.01337354	-0.0014716027	-0.037466377	-0.02542866	-0.006551482	0.003958423	0.048000738	0.043665577	0.04669554	2.866069e-05	-0.008702332	-0.065571144	0.021989916	0.01909735	-0.029745387	0.01698358	0.008564763	0.0015600708	-0.054832388	0.033704266	0.02040364	-0.024569409	-0.049020525	0.0465216	0.10883639	0.029577726	0.09292934	-0.04507637	-0.07101349	0.013241175	0.01202072	0.026782997	0.007730112	0.013698008	0.035085537	0.006231417	-0.002725166	0.03066625	0.012319316	0.006698303	-0.07558665	-0.030034913	-0.04631351	0.05630966	-0.023501663	0.0023131543	-0.03042512	-0.016451277	-0.012813546	-0.0039731483	0.020453725	-0.02269559	0.016158277	-0.015884668	0.008347411	-0.048752528	-0.041337084	-0.06354771	0.042515684	0.019163238	-0.046256736	0.01752126	0.026108162	0.03429198	-0.0142846685	-0.06105984	-0.0074539413	0.0032839233	0.037440974	0.0029115712	0.011637783	-0.023992158	-0.0009176419	0.07206657	-0.00217683	0.011140355	-0.019135663	0.012645511	0.00916547	-0.0069779707	-0.022181053	-0.0022564256	-0.0037938934	-0.030825593	0.028736273	-0.061428964	0.014153755	0.00064106047	-0.064586796	0.06305562	0.013705618	-0.040860806	-0.020960832	0.050589513	-0.003992755	0.022423329	-0.04976407	0.07625276	0.021700371	0.038820706	-0.013839188	0.041773632	0.023195652	-0.015467261	0.05844024	-0.0043721376	0.009935706	-0.016651616	-0.0012071156	0.06748661	0.00081393315	0.047312763	-0.03254035	-0.00412191	0.03206077	-0.060660157	0.019435834	-0.007434177	0.0010281256	-0.0044991802	-0.049586896	-0.010570307	-0.0066737514	-0.011961582	0.026307251	0.020846438	0.025505917	-0.016224813	-0.024905719	0.022085523	-0.00014035536	-0.0139867235	-0.026374992	0.012638507	0.03348189	0.029873831	0.018016726	-0.004079711	-0.03983986	-0.019018542	0.06827592	0.009874703	0.0050036805	0.051270723	0.037824754	-0.030588306	0.024513675	-0.018231971	-0.024564493	-0.03392862	0.016235042	-0.033863828	0.019160807	-0.031923264	0.0027528096	-0.05322144	0.06750154	-0.027058959	-0.005050582	0.009332652	0.042832576	-0.016837869	-0.06717864	-0.036462706	0.036693953	0.02118181	0.005441558	-0.023521217	0.020944396	-0.046824962	0.06033203	-0.03335393	-0.05013264	0.011376653	-0.03583212	0.0030103088	-0.044072	0.0027200335	-0.06503064	0.023903577	0.00488885	-0.030018296	-0.025033772	0.014750191	-0.012764083	0.015357955	-0.051647283	-0.0015957252	-0.04102778	0.048123028	0.019994127	-0.0012358789	-0.014525932	0.011086065	0.0431311	0.020114794	-0.023913108	0.015385477	-0.0047359522	-0.012405013	-0.014323786	-0.018543849	-0.047787517	0.017350323	0.031150237	-0.008177319	-0.020611666	0.05170854	-0.023197556	0.009666362	0.009642388	-0.011502776	-0.020953348	0.03117961	0.040203653	0.006056963	-0.031183757	-0.0022941262	-0.012595708	-0.041558474	-0.024110155	-0.04154191	0.004492586	-0.051358823	0.023243312	0.058138315	0.023874901	0.053526837	0.009878478	0.05118388	0.010883428	-0.0295241	0.0153319	0.019995553	-0.0032311408	0.013240333	0.01902344	0.05553404	0.06809302	-0.051268823	-0.01764241	-0.0039557186	0.033399805	-0.022110423	-0.03503087	0.011989835	-0.001375869	0.010083952	0.024616107	-0.01698892	-0.0015623829	-0.030787004	0.018015133	-0.054958664	-0.026734652	-0.010983767	0.049390964	0.071365386	0.021031627	-0.02260549	-0.012042124	-0.0055583725	0.017086614	-0.068224005	-0.011770326	-0.027387206	0.07366387	-0.025501315	0.035038333	-0.0025430347	-0.03407391	0.025268411	0.009230645	0.020493029	0.009590287	0.010578873	0.015285193	0.05470597	0.07097969	-0.039632834	0.043320492	-0.011587958	0.014787047	-0.03896186	0.02080267	0.03650897	0.0071903425	0.0012780594	-0.028889893	-0.0029968778	-0.03150228	0.040026445	0.017265515	0.043697435	-0.079946615	0.042032357	-0.0012339882	-0.028228387	0.009641319	0.005872102	-0.0120439725	-0.017353434	-0.018179817	-0.02000779	-0.017816791	-0.008023257	0.0110639185	-0.025185058	-0.00068931415	-0.047619186	0.0044771694	-0.023993269	-0.13142309	0.006714445	0.04881665	0.018712098	0.03136013	-0.0038236354	-0.009367985	-0.033774007	-0.016905636	0.053347815	-0.01915316	0.041009225	-0.047198936	0.0072195027	-0.06289516	-0.02102684	0.027957125	-0.034169763
despairing	0.0321934	0.008951122	0.04877652	-0.031864244	-0.036487795	0.029563814	0.002585532	-0.03910956	0.036310118	0.030035183	0.029834537	0.077749215	0.061105847	0.026503904	0.048547283	-0.04934783	-0.042043198	2.8912285e-05	-0.027305588	0.026634261	-0.010874546	-0.0051526036	0.03803189	-0.03499827	-0.033140898	0.007874434	0.01103703	0.020835493	-0.028053237	0.01795695	0.00087485916	0.017947193	0.011901751	0.060367648	0.0027817932	0.019602353	-0.05349405	0.020642418	-0.01868425	-0.07397453	-0.026059095	0.060231864	-0.0016065843	0.017105691	-0.016860085	0.018137645	0.03815056	-0.034878988	0.011989839	0.029591244	-0.009682738	-0.03426947	-0.011353868	-0.0058468985	0.003511406	0.009407403	-0.043485228	-0.032002006	-0.022032544	0.07732538	-0.0067736623	0.032589253	-0.034080744	0.033867933	0.048413474	-0.044942282	-0.0027081305	0.02861334	-0.054038823	0.006180482	0.031551562	0.035968583	-0.018602889	0.0110336	0.017701833	0.058694143	0.04149914	0.007326748	-0.010330009	-0.012647486	-0.025036894	0.015602574	0.07089948	0.11176397	0.10411293	-0.029165564	-0.0059422697	-0.030371306	-0.012617862	0.029381134	0.01835787	0.023269536	-0.035804134	0.057881594	0.07583566	0.012891773	-0.015967159	-0.0025551142	0.079206586	0.011762041	0.028754225	-0.05108646	0.036127467	-0.08734323	0.04137357	0.04764484	-0.019998739	-0.016032936	0.0054974	-0.0004875259	-0.0408745	-0.002003122	0.032565705	0.0011640164	0.039909154	0.012213911	-0.017423626	0.025473118	0.010987519	0.012341098	-0.019533088	-0.0034324685	-0.096053064	0.07201972	0.0077514607	0.020397775	-0.004701974	0.03394516	-0.01001165	-0.05260834	-0.00030543577	-0.052266303	0.013509192	-0.0010267976	0.010862907	0.0068961643	0.032166388	0.005556914	-0.06978548	-0.017149948	-0.0064355778	-0.058211036	0.011004016	0.0324022	0.010411374	-0.0018122894	0.0053132647	0.018726716	0.07870396	0.052975923	-0.063763216	-0.038899817	0.03911443	-0.011648819	0.024852963	0.03057195	0.08398808	-0.0020649163	0.08231448	0.0049411645	0.06938206	-0.054008428	0.046010688	0.031156046	-0.05018504	0.009001723	-0.0343647	-0.041463003	-0.03686102	-0.0040984424	-0.012115435	0.031063154	0.005186408	-0.120358124	-0.049401827	0.013319614	0.0094127385	-0.018787444	-0.09993904	-0.008105657	0.038812514	0.05962883	-0.028498875	-0.048883524	-0.053655535	0.021962041	0.026502402	0.038087174	0.0006984625	0.030425182	-0.07363233	-0.024448683	-0.01335053	0.001821049	-0.10034157	0.019574618	-0.0013285545	-0.022532506	0.013053762	-0.060124382	0.039229963	0.04914182	-0.04316976	0.013905572	0.020712715	-0.022782248	-0.06896764	-0.019147767	0.029850572	0.020010665	-0.01855752	-0.0066566314	-0.02599888	0.011915055	0.0021110328	0.038527884	0.08822075	-0.03367035	0.015846565	-0.04320426	0.061521765	0.009575095	-0.01921242	0.009527206	-0.03198172	-0.022415664	-0.08717263	-0.013863037	-0.008272078	0.06990421	-0.0022323618	0.050798744	-0.015715446	-0.0051020887	-0.0016417892	0.059566334	-0.010650362	0.03843242	0.02509594	-0.02310703	0.008638499	-0.03364027	-0.0021135355	0.016877009	0.073746376	0.04070255	0.0806931	0.033929113	-0.044222202	-0.059137255	-0.032227565	-0.02642959	-0.05823748	-0.049897462	-0.076837644	-0.0503679	0.032588117	-0.0009199333	-0.0059258104	-0.056789435	0.046917748	-0.008561614	0.010138662	-0.025781292	-0.0032980263	-0.05450151	-0.004416496	0.023737023	0.053600557	-0.025016993	0.021275824	-0.008223859	-0.08099604	0.0012409091	-0.062893376	0.02420158	-0.010623283	0.014864857	-0.03021913	0.009719309	0.04651757	-0.0038790093	-0.048251055	-0.0004980601	0.045484036	-0.042587057	-0.009892747	0.06527445	-0.008326277	-0.011520187	0.04504526	0.047942474	0.019037599	-0.05899873	-0.023264108	-0.036876205	0.018163087	-0.03115756	0.02513879	-0.026436318	0.004438548	-0.019883	-0.05665961	0.0068273502	-0.009998213	0.02777773	0.023258558	0.003679495	-0.048354402	0.0118550705	0.009148391	0.05985134	0.0049742307	-0.0030907248	-0.0650834	-0.02420281	-0.08078727	-0.061990175	0.001604684	-0.0133725	-0.019453637	-0.008287805	-0.02230797	0.0098334225	0.03662001	0.0003398356	-0.00042422375	-0.008417177	0.05901157	0.033510555	0.03619896	-0.0015640276	0.0048810933	-0.015382531	-0.036249798	0.05037922	-0.053948548	0.002722043	0.018017601	0.018331693	0.063807085	0.021393532	0.024202783	-0.015508208	-0.01846516	-0.06422924	0.0013575295	-0.048124168	-0.008700073	0.0111190425	0.03287633	0.061494	0.028165437	-0.02787405	-0.036971286	-0.0042155837	0.04037858	-0.0081346035	0.051740192	-0.031092301	-0.03774153	-0.03483743	-0.024536993	0.032785453	0.024235534	-0.015588973	0.026346078	0.031988885	-0.026337853	0.021368355	-0.0027664977	-0.018637469	-0.023238044	-0.033678003	-0.02106618	-0.041430186	-0.047522515	0.01947793	-0.011517088	-0.08852623	0.016832644	0.01291709	-0.07493167	0.0118485885	-0.030444814	0.032801736	-0.10050048	0.01089855	0.037909355	0.07277146	-0.008499478	0.014669979	-0.019410275	0.046254266	-0.034504473	0.014240757	-0.027905334	0.035176974	-0.010435045	0.017073229	-0.0131827	0.00047243675	0.030389106	-8.857979e-05	-0.0108555565	-0.028498802	0.033314988	-0.019812405	0.055680748	0.004246182	-0.01739133	-0.011511657	-0.015076392	0.02729257	-0.048995893	-0.011137007	0.0051506567	-0.0013426905	-0.00079826504	0.01161745	0.013343399	0.004564094	0.025850547	-0.035585508	-0.019271864	-0.010029476	-0.044088483	0.013940386	0.036470935	-0.0199954	0.023061045	0.035716947	-0.07698095	-0.043813623	-0.0063193347	-0.02318688	-0.028532978	-0.017966228	-0.008713687	0.024907349	-0.019080795	-0.039217457	0.010086176	0.008969945	0.025392804	0.009112414	0.08031726	0.016704993	-0.043254543	-0.06914681	0.014937213	0.008337047	0.020832075	0.003302172	-0.025296368	0.01397868	-0.04469349	-0.0086630415	0.012645562	-0.028872386	-0.015531436	0.013003791	0.07762247	0.05871787	0.06760372	-0.004627831	-0.06467431	0.040035862	-0.009561961	0.051177308	-0.039874952	0.009192589	0.046287935	0.016023003	-0.00734753	0.08380372	0.022767816	0.02696747	-0.057380177	-0.02227814	-0.023486812	0.055097073	-0.01305011	0.0068935975	-0.02167836	0.009990657	-0.06085053	0.014988112	0.013965669	0.008826289	-0.00070067536	-0.04920489	-0.0069277557	-0.05329006	-0.02581428	-0.063071184	0.03899463	-0.020942613	-0.024773816	-0.009018325	0.025175031	0.0716248	-0.0074766767	-0.07672081	-0.004737965	0.011563066	0.0030898356	-0.004615104	0.059576243	0.0018968674	-0.0062621194	0.053440157	0.0028262055	-0.011795883	-0.050625052	-0.038698092	0.018766267	0.024958877	-0.021181662	0.014147861	-0.0051248	-0.0009947884	0.08466849	-0.053718355	-0.0034406572	0.0008338764	-0.01607455	0.09206318	0.054240324	-0.009989326	-0.013693704	0.050293133	0.013608464	0.030307265	-0.024643553	0.022965375	0.019470742	0.05026874	-0.030112017	0.009257469	0.048453115	-0.023263322	0.024104713	0.0049967864	0.013858362	-0.029752072	0.0111806905	0.03753268	0.0042468207	0.02098325	0.0076737036	-0.05849223	0.03374036	-0.04332814	0.01663353	-0.029178638	0.07457315	0.005103672	-0.031580355	0.015823385	0.010318861	-0.049790423	0.039060637	0.025982495	0.033710323	-0.062310953	-0.019691879	0.0020863882	0.031574056	-0.016270984	-0.010595828	0.030112464	0.031800773	-0.007303312	0.010274919	-0.019366233	-0.03533919	-0.0135457255	0.019048072	-0.031046716	0.03012745	0.046875015	0.020045679	-0.0037735088	0.027912935	-0.03271879	-0.027075468	-0.028763348	-0.009144127	-0.005643974	0.027092865	-0.02442616	0.03238523	-0.03802547	0.040052988	-0.024654107	-0.015207401	-0.0070687504	0.056007925	-0.025504867	-0.0086363135	0.009860677	0.039963886	0.053980697	-0.036375035	-0.0052109454	0.0339316	-0.03302515	0.0003365754	-0.04337792	-0.029172404	0.046553068	-0.026519885	0.0064773546	-0.04814102	0.022120945	-0.024673747	0.00810615	0.04023723	0.029596921	-0.0047190133	0.048083086	-0.008544082	-0.0133970715	-0.028006341	0.017605372	-0.019168857	0.0108267255	0.011811141	0.012358392	-0.04527393	0.010740873	0.040067695	0.006035763	0.0040279394	0.033447698	-0.03258358	0.0003951001	-0.0012443038	0.034540255	-0.024294838	0.050473437	0.03553352	0.0026742269	0.008541329	0.030167442	-0.018118903	-0.0051931986	0.040219624	0.016866071	-0.035377137	0.0661663	0.05201065	-0.00929323	-0.011201106	-0.00437015	0.0085356105	-0.01621308	-0.020026896	-0.058519695	-0.019018343	-0.037022293	0.041524325	0.021082988	-0.006398469	-0.013656854	0.019516751	0.06783078	-0.0080243675	0.021535821	0.021749988	0.0078041246	0.020195886	-0.008357653	0.049638502	0.010246404	0.04063865	-0.0051596253	0.029487053	-0.02020974	0.014835355	-0.026826106	0.011285869	-0.01543272	-0.007348101	0.020229338	-0.0006343516	-0.011365598	0.01872594	-0.051864628	0.011441788	-0.06679874	-0.030685082	-0.03224189	0.0052096425	0.075162955	-0.021760615	-0.038757343	-0.0053962	0.010134723	0.025100261	-0.06791112	-0.005696122	-0.06708116	0.046051625	-0.02360111	0.015878867	-0.035734106	-0.0798172	0.025705952	-0.05686226	0.029148018	0.00883325	0.018960645	0.0027196587	0.078406535	0.012836182	-0.032394458	0.036503173	-0.0185178	0.035300143	-0.03390125	-0.02764797	0.06069287	0.023804247	-0.003892551	-0.035473984	0.021580882	-0.03390531	0.026327161	0.027716925	0.05767429	-0.052452687	0.02320407	0.022845402	-0.08739908	0.055058077	0.01313449	0.01772662	0.021406379	-0.016150074	-0.043586303	-0.036256332	-0.020995742	0.0012058798	-7.33818e-05	-0.025821138	-0.024982907	0.026182018	-0.037977003	-0.11795125	0.0032665816	0.050280403	0.01013702	0.05300285	-0.022472328	-0.006869237	-0.019745033	0.018783847	0.062277433	-0.0452874	0.000551204	-0.027627818	0.011682254	-0.08623056	-0.04246846	0.06222393	-0.036911093
despondent	0.045179036	-0.0045005577	0.053579554	-0.020866096	-0.011018971	0.003215264	0.027766874	-0.014588135	0.035020664	0.03835663	-0.0013278879	0.06018099	0.061258588	0.018501692	0.050942797	-0.04572493	-0.0572941	-0.019967604	-0.018727135	0.03847822	0.008990688	-0.0136915445	0.012073973	-0.029252542	-0.05054161	0.014014895	0.027340757	-0.026140379	-0.04105501	0.042678073	-0.01945583	-0.016615607	0.00758729	0.0556606	-0.0072852615	0.014210295	-0.042632863	0.010350491	-0.020020002	-0.100904785	-0.026482338	0.05967424	0.0018541799	0.020890163	-0.027639259	0.027099665	0.049595963	-0.0036221512	-0.0036488904	0.008264397	0.0076424144	-0.028313302	-0.02419137	0.011627359	0.019107634	-0.0014018323	-0.060955413	-0.026172267	-0.015592518	0.06253576	-0.001137406	0.030389138	-0.02754704	0.019495867	0.035350833	-0.02597902	0.04805807	-0.01515841	-0.06492925	0.012987327	0.028584296	0.010853584	-0.030333392	0.01520396	-0.014663308	0.0733334	0.026322277	-0.014329789	0.009010943	0.018045789	-0.027961276	-0.022067428	0.063623674	0.095052004	0.04838633	0.011440676	0.009000308	-0.020511368	-0.0346351	0.022560293	0.005614533	0.025017476	-0.015209573	0.050571498	0.048238143	-0.040029902	-0.022403099	-0.014565659	0.07871756	0.013704873	-0.015563	-0.005669762	0.072246194	-0.056589723	0.061195493	0.046501417	-0.025580177	-0.040099517	0.038422417	-0.01420457	-0.04517176	-0.006836741	0.020849915	-0.006566972	0.04963477	0.040118836	-0.0013572113	0.026551835	-0.007547919	-0.011879332	-0.021825721	0.017552014	-0.0816436	0.08145524	0.06318202	0.020639827	-0.02062758	0.023847824	-0.027199686	-0.013232229	0.019796632	-0.06540709	0.014586273	0.004623086	0.059768807	0.012581579	0.0217096	0.0032229258	-0.07103486	-0.0014308427	0.009057839	-0.033802748	0.017820967	0.028862711	0.010548875	-0.010564037	0.0023109121	0.009804416	0.028947404	0.04506918	-0.050963797	-0.009833669	0.038485195	-0.0123361405	0.01868852	0.045137595	0.079362504	0.020299204	0.08351038	-0.004503624	0.056836993	-0.054623015	0.059167225	0.03405668	-0.04892815	0.029062793	-0.06627389	-0.057455417	-0.013634457	-0.044653688	0.029667793	0.02377971	-0.03162898	-0.111834586	-0.058695987	0.01902104	-0.0054329257	-0.03211765	-0.08358631	-0.041787576	0.003951611	0.050170723	-0.016519373	-0.0744127	-0.0717401	0.046388574	0.03486584	0.03465907	0.010884057	-0.013779817	-0.07898608	-0.0073159537	-0.014486908	0.013576935	-0.11703303	0.026892079	0.014717524	-0.018584939	-0.014699885	-0.015353303	0.06422687	0.07640595	-0.0312509	0.017955337	0.0057938593	-0.03679796	-0.060290385	-0.045867957	0.032873224	0.016700098	-0.0029256237	0.011543501	-0.036388926	0.0046599125	0.014407862	0.005204138	0.091812514	-0.060249794	0.026742784	-0.034207243	0.07451058	0.012923026	-0.02707358	-0.0030348692	-0.025744604	-0.045389917	-0.08646323	-0.012502853	-0.00949601	0.030029796	-0.04062411	0.021148443	-0.015680552	0.009452522	0.007052097	0.06988169	0.02584345	0.026539844	0.023437943	-0.020616237	0.0113103045	-0.035585567	-0.014260159	0.008953149	0.08463545	-0.007960472	0.06292778	0.06674561	-0.038704064	-0.059049815	0.015551311	-0.0012085878	-0.060157396	-0.04242277	-0.07369355	-0.050497055	0.0048355227	-0.017053895	-0.008473072	-0.032030895	0.028614335	-0.0036904726	-0.014277282	0.024259102	-0.00219848	-0.05042406	0.0036942556	0.03442331	0.08814829	-0.03944239	-0.0040800176	-0.0038181446	-0.059680127	0.0371622	-0.07523499	0.0075180167	-0.0091105485	0.016126392	-0.05124994	0.015792515	0.051927857	-0.018836154	-0.023487309	0.00496347	0.026023844	-0.02241548	-0.012623191	0.10203246	-0.009084793	-0.0259558	0.04956954	0.022001378	0.007097482	-0.041732185	0.02134364	-0.026161522	0.0038618988	0.0035673487	0.01579167	-0.026243392	0.018074002	-0.030808097	-0.05027829	0.0005355925	-0.00888629	0.025230525	0.030341413	0.010824038	-0.025999645	0.023003966	0.0027585553	0.047602095	0.010260631	0.0031457178	-0.050525557	-0.015374969	-0.1333098	-0.022259653	0.020071875	-0.030282747	-0.034379147	0.0012617678	-0.0030519948	-0.008699897	0.0031746675	0.01740045	0.017683793	-0.018204765	0.030065333	0.037940953	0.032277767	-0.030011788	0.0065879505	-0.025484614	-0.02608086	0.04342051	-0.046935294	0.018041989	-0.0060068658	-0.0025905282	0.05196988	-0.030353231	0.038781606	-0.02642752	0.021287136	-0.053784147	0.043886736	-0.058133263	5.5617344e-05	0.0075238426	0.03224379	0.04313293	0.029418949	-0.013402517	-0.011962928	0.045498814	0.038340036	-0.00560541	0.05421469	-0.030452536	-0.022647522	-0.0154394815	-0.020057617	0.046772677	0.054960154	0.009831084	0.012727725	0.035948336	-0.016226642	0.02003791	0.015549335	-0.017679444	-0.009970332	-0.011404328	-0.008909964	-0.030740572	-0.041962158	0.013418156	-0.015849892	-0.06999396	0.019801335	-0.01044358	-0.08639343	0.03484525	-0.014055339	0.029063722	-0.11697531	-0.004656779	0.0192513	0.07563497	-0.025334682	0.023256922	-0.024676142	0.07033776	-0.006890415	0.03446923	-0.02497232	0.04798563	-0.016247893	0.020579826	-0.047555324	0.015576335	0.015823036	0.002847688	-0.012010381	-0.032507423	0.04984719	-0.028175088	0.061454784	0.0036170583	0.0091354195	-0.012137766	-0.006514211	0.06307496	-0.030531598	-0.02329257	0.02706111	-0.014062397	0.020726854	-0.022431945	-0.0007932483	0.009320106	0.018562231	-0.030432515	-0.035203185	-0.007619846	-0.02464654	-0.012007457	0.03435271	-0.0033062154	0.029614367	0.05543672	-0.0827082	-0.027216084	0.0030971142	-0.028019516	-0.040503427	0.0017781723	0.0040894095	0.029600054	-0.027441192	-0.03558425	-0.0029959865	0.0023031405	0.04225522	0.040611997	0.06332558	0.015707161	-0.02922447	-0.060542367	0.016011612	0.007879473	0.0048991772	0.016195845	-0.0494905	-0.006656991	-0.031544715	0.01808169	0.015801841	-0.026783697	-0.03611156	0.0155929895	0.09446961	0.04438429	0.08225261	-0.021520361	-0.06260489	0.012460433	-0.00084375724	0.03668906	-0.030313585	0.020032281	0.051511187	0.025980383	-0.003228768	0.048106827	0.020175504	0.031103622	-0.07748309	-0.032384746	-0.03694123	0.053970955	-0.005080007	-0.0017271849	-0.026726237	-0.0017515405	-0.0044536884	0.021593424	0.029510356	0.025541551	-0.013983174	-0.045774717	0.0041413787	-0.037453048	-0.011927447	-0.06060596	0.03976675	-0.003971723	-0.015345536	-0.0016969814	0.031327024	0.059026353	-0.017843552	-0.06493323	0.0004031993	0.024480216	0.022054637	0.009694894	0.024909215	-0.020296197	-0.0041356888	0.04319834	0.013910226	-0.019527048	-0.057458766	-0.0044324184	0.02376253	-0.0007127314	-0.021945313	0.015562761	0.009850891	0.016729344	0.073399566	-0.059781186	-0.011214663	0.009888375	-0.043587178	0.06101427	0.035153713	-0.06420267	-0.0364774	0.063745335	-0.008426073	0.016155988	-0.049577523	0.033493802	0.016683957	0.04957263	-0.009264679	0.018893732	-0.0070996955	-0.0067665237	0.035723615	0.0011283318	0.022399632	-0.047493204	0.0012044378	0.039532483	0.018720957	0.050728906	-0.0017615136	-0.018371707	0.006018339	-0.040456615	0.0046271984	0.004041231	0.05190283	-0.008058498	-0.04258858	-0.009462865	-0.032272886	-0.035240676	0.032250267	0.02906188	0.030004874	0.007936695	-0.034241427	0.029745746	0.02456797	-0.042423397	-0.026965972	0.018588703	0.030071834	0.008765466	0.019952705	-0.011294477	-0.05014238	-0.046648704	0.02141653	-0.016575452	-0.0006527574	0.052166604	0.021680744	-0.028561974	0.010247091	-0.03166706	-0.030107535	-0.043798763	-0.003924828	-0.028385106	0.01422132	-0.026960948	0.012224158	-0.025351726	0.02159101	-0.00895265	-0.020825101	-0.01686562	0.048322685	-0.014309461	-0.008956857	-0.0007258875	0.034427706	0.040032428	-0.025687583	-0.0051777656	0.034829102	-0.0341169	0.021219162	-0.04216777	-0.0301077	0.026117818	-0.03762028	0.006753016	-0.04593721	0.008569137	-0.04846128	0.018951258	0.02628895	0.029086411	-0.010874526	0.024848351	-0.0035054602	-0.031091062	-0.045076285	0.021324871	-0.032635365	0.039581154	-0.004277289	-0.0062301224	-0.042472504	-0.020853098	0.033120763	0.026701692	-0.011900843	0.043348674	-0.011905771	0.024540408	-0.029289318	0.0007425151	-0.04195283	0.0051542968	0.02019944	0.013509457	0.011167917	0.029886004	-0.04575127	-0.04018299	0.028962387	-0.0024556236	-0.042424038	0.020894254	0.018071784	0.0048397747	-0.04940602	0.00051561836	-0.0077672605	-0.021299351	-0.034573253	-0.0411074	-0.044671	-0.045478392	0.036786355	0.0038127054	0.0013885489	0.0067663128	0.028846305	0.032927323	0.004066126	0.0069228215	0.024317803	-0.017725186	0.007915026	0.007620811	0.042001285	0.03470065	0.051209655	-0.0027327419	0.015790183	-0.023805829	0.015047947	-0.025486475	0.006834088	-0.0018173715	-0.036353625	0.013242317	0.016697144	-0.012687084	0.024805252	-0.05092859	-0.01508194	-0.0740026	-0.01394237	-0.021322163	0.031611186	0.06539446	0.015543264	-0.023758251	-0.004139873	0.0016814958	0.02596163	-0.07776729	-0.018773252	-0.055546932	0.07234547	-0.003238629	0.043910824	-0.05447116	-0.07537649	0.031226609	-0.036661625	0.034234762	0.02577414	0.019612681	0.016087541	0.06320279	0.067028604	-0.028097073	0.054844577	-0.033883665	0.03501389	-0.031089772	-0.00048118556	0.037709743	0.04334536	-0.017849566	-0.035247095	0.024249984	-0.053947482	0.021694055	0.022898903	0.04428427	-0.06551018	0.005716521	-0.008243725	-0.07176779	0.042565376	0.0039398912	0.017366374	0.0029156485	-0.0067697014	-0.053604767	-0.06710763	-0.032722764	0.00689039	-0.0014871644	0.0010939436	-0.031205622	0.024679337	-0.02717404	-0.11468196	0.03646472	0.055159677	0.032445632	0.03161794	-0.011377864	0.012222755	-0.038191855	0.0030469631	0.07741269	-0.044465337	0.010216362	-0.019263346	0.0027006732	-0.054779414	-0.05082907	0.04202498	-0.040345494
listless	0.020466747	0.012529479	-0.012533995	0.018525133	0.03330066	0.026463402	0.035254385	0.026797347	0.047943942	0.0109494375	0.017244698	0.020105448	0.01540864	0.037289083	0.030398736	-0.066235885	-0.024308283	-0.0019516301	-0.02234829	-0.0013013814	0.027601836	0.06291466	0.0678567	0.012834436	-0.07805955	-0.03792874	0.05713129	0.015922945	-0.04520461	0.025578897	0.01392949	-0.00076636206	0.019619294	0.04606479	0.044434085	0.0005958638	-0.08184518	0.07862515	-0.0036671867	-0.06753613	-0.047301862	0.06894441	0.04063743	-0.02014414	-0.027068894	0.04894828	0.073522806	-0.006573065	0.012746934	0.04588224	0.0026097845	-0.033627857	-0.056982737	0.004157846	-0.0636109	-0.06724113	-0.057415556	0.061036583	-0.0020600727	0.008234504	0.01017704	0.034386754	-0.0026055172	-0.0024977454	-0.02414161	-0.034977082	0.003432795	0.0018428068	-0.020585092	0.04878713	0.014913678	0.015508297	-0.051064875	-0.046534177	-0.036145836	0.01043521	0.015782712	-0.028113855	-0.023934396	0.085675485	-0.038268145	0.0343775	0.053128146	0.095731005	0.0664718	0.033215914	0.024091305	-0.07280204	-0.046692453	0.013402022	0.08354196	0.025412401	-0.041855596	0.032417182	0.05349667	-0.0065661254	-0.055915963	-0.043532975	0.08049909	0.0017303387	0.0027610708	-0.024267342	0.042484436	-0.082889475	0.047501512	-0.024735143	-0.027578909	-0.010708748	-0.019212386	-0.018589439	-0.02235168	-0.04212787	-0.029076459	0.0328477	-0.0042965924	0.07019565	-0.023120446	0.031480975	-0.0022689027	-0.024020625	-0.01574076	0.04168373	-0.08789029	0.027575878	0.030307733	0.05049277	-0.055465434	0.01228849	-0.0686604	-0.033735298	-0.042269554	-0.063465826	0.041208256	-0.011708278	-0.0054828883	-7.069796e-05	-0.0125316065	-0.012545182	0.0066166734	-0.013195805	0.017344607	-0.036562715	0.006861131	0.00049404893	0.033225045	0.034695692	-0.038318682	0.069743924	0.04965469	0.04959388	-0.071286954	-0.009700114	0.02262737	-0.026901854	0.012944987	0.04553958	0.003987997	-0.026188644	0.063491136	-0.029814329	0.013215806	-0.06921644	0.024139147	0.052961506	-0.045387406	-0.002392052	-0.050072126	-0.08793602	0.031640284	-0.022810923	-0.0037944939	-0.043610424	-0.028371042	-0.08571429	-0.049656615	-0.026894435	-0.014061643	-0.028063593	-0.0649511	-0.009530669	0.061377987	0.032490093	-0.013566046	-0.040909193	-0.02685081	0.07694171	0.024703884	-0.024584224	0.057905827	0.010813575	-0.00560427	-0.015515979	-0.031078676	0.010831239	-0.015883187	0.038721375	-0.006112625	-0.03477624	0.01461757	-0.033974547	0.048789106	0.028061964	-0.021450322	0.042027522	0.015615195	-0.025438141	-0.0255071	-0.060392577	0.05574215	0.035871387	0.0013039892	-0.049831714	-0.03890618	-0.042309266	0.038844217	0.0067037204	0.013199147	-0.03352825	0.04243098	-0.051179457	0.039306592	0.0351459	0.0059987004	-0.028136542	-0.025467817	0.026048573	-0.057856005	0.0435389	0.0011696012	0.050992798	0.005793738	0.06282689	-0.03733478	-0.039459705	-0.05194473	-0.0032347941	0.021481931	0.036232267	0.02330355	0.027545495	0.032403313	-0.041127793	0.015168553	-0.054340854	0.015255986	0.062134244	0.048341736	0.056605306	-0.059407044	-0.027316647	-0.03731829	0.02058025	-0.023378987	-0.01779651	-0.04522175	0.0016298562	0.008569953	0.012268592	0.010398707	-0.026548704	0.002786175	-0.06067867	0.0054897754	-0.043854844	-0.05304435	-0.0011429159	-0.0052924864	0.045729414	0.056009475	0.011024467	0.0104111675	0.020316487	-0.012787505	-0.01850122	-0.04567208	-0.0017288763	-0.0009832572	0.023707673	-0.06672759	-0.04632096	0.015941678	-0.025543116	0.015564613	0.014493236	-0.014890961	-0.048060045	-0.019813305	0.040546764	0.0013213973	0.005831326	0.03936787	0.033783287	0.009470277	0.044378135	0.0029563555	-0.008209839	0.029153543	0.023944268	-0.0016000217	-0.023123529	0.035866532	0.006370559	-0.02457923	0.067754194	0.03482989	0.025190987	0.028907903	-0.013524349	-0.011854908	0.052224435	-7.231949e-05	-0.0011291628	0.0049385517	0.00010025475	-0.07290018	0.0041362243	-0.0912509	-0.015255411	-0.018696468	-0.011528279	0.01514035	-0.010229215	-0.016419634	-0.017488701	0.03690159	-0.0007392073	0.056475893	0.0054549263	0.015036257	-0.003136852	0.025938228	0.009580614	0.026153635	-0.04220115	-0.009664936	0.017804485	-0.042845353	-0.0023554654	0.015222542	0.006296932	0.035573233	-0.039943937	0.057438	-0.011899432	0.00132302	0.006726237	0.0667765	-0.046358284	0.024178198	-0.0024858224	0.050688326	0.08012015	0.035019368	-0.032737225	-0.057139684	0.056850836	0.03671258	0.020696655	-0.006882415	-0.039430223	-0.0046659913	-0.030144086	-0.039118033	0.039670758	0.027100312	0.018365564	0.035435606	0.027735107	0.019469433	0.0036549165	-0.010543027	0.046781793	-0.02246572	-0.0006558363	0.0034080618	-0.009340934	-0.033906344	0.009615889	-0.03415692	-0.073307216	-0.013455274	-0.053587895	-0.010428857	0.01016114	0.017228542	0.0651965	-0.047667507	0.033925354	-0.006809075	-0.033613175	0.005949797	-0.02050782	-0.04732185	0.06448766	6.7684364e-06	0.01967245	-0.035258703	0.046102047	-0.060150623	0.017463814	-0.019245852	-0.067735955	0.08590474	-0.030587949	0.018380899	0.035972983	0.0045800707	0.000603385	0.028306428	0.011645745	-0.00039951346	0.050225843	0.02150437	-0.0046630832	-0.03817526	0.07760888	0.04802736	-0.01324073	0.030403977	-0.0060952906	-0.023397828	-0.015170639	0.03801496	-0.010590686	-0.033711318	-0.052148916	-0.004303486	-0.015420173	0.018561726	0.0320513	0.006512558	0.081505805	-0.074360795	0.015158622	-0.021836087	-0.017608583	0.016696002	-0.014389677	-0.0131093785	0.044658333	0.0066713532	-0.061021555	0.027722701	-0.012114271	-0.021934021	0.09504794	0.035509985	-0.032664333	-0.031502586	-0.12402709	0.0143978335	0.0172725	0.0052527664	0.0067927083	-0.03916382	-0.048435967	-0.008932637	0.02049083	-0.024365332	-0.0675036	-0.010840536	-0.011934977	0.033719134	0.06356684	0.025203284	0.07064301	-0.040054698	-0.0069276993	-0.046150494	0.009808608	-0.0009722025	0.007450509	0.015565415	0.032968357	-0.04162274	0.026689524	0.026779616	0.028693317	-0.054188974	-0.031415515	-0.022347994	0.057479292	0.014011312	0.02834629	0.0235081	-0.0020831455	-0.04365753	0.023565128	0.0034811762	0.0003367504	-0.012491774	0.021604097	0.013561623	-0.001672096	0.011769024	-0.029724555	0.0014224721	-0.014446363	-0.00087270694	0.012526413	0.05218892	-0.014933325	0.017174985	-0.0353489	-0.0012386359	0.003488872	-0.032784298	-0.02459472	0.029773949	-0.012998278	0.053088766	0.032160938	-0.0031023237	0.013401256	-0.0096827205	0.045611106	-0.032890104	-0.011302284	-0.0057120537	-0.028011497	-0.08269743	0.011019104	0.042794213	-0.08413142	-0.008243666	-0.04337425	0.035563223	0.014576534	0.009153286	-0.014648114	0.008900411	0.064101905	0.030690573	0.0028347056	0.03947198	0.037376344	0.057509735	-0.0065806117	0.026125936	-0.031135662	-0.012126556	0.01965105	0.0030844773	-0.013112141	0.02199262	0.014922742	0.043708574	0.030261505	-0.030030278	0.03149316	-0.02472195	-0.013885285	0.0012223037	-0.024867162	0.032182153	-0.043621212	0.06268059	-0.011638358	0.0055617294	0.004757241	-0.009086594	-0.044069562	0.026157692	-0.009316629	0.0400882	-0.02112204	-0.026513936	0.03453922	-0.0012643972	-0.007223941	-0.02029956	0.04224255	0.02409779	0.027824957	-0.005722841	0.024008373	-0.09036498	0.0038216116	0.009545205	0.029238144	-0.04769489	0.020685634	0.0074759843	-0.013331315	-0.055337194	0.010810651	0.018771961	-0.0111295795	0.025188468	-0.004934284	0.038490716	0.035769485	-0.042727463	0.031622786	0.015174995	-0.037548713	-0.009210196	-0.00018681567	0.029481784	0.059909802	-0.04682134	0.021620218	0.047542535	0.03054809	-0.020398548	-0.01353036	0.0028207875	-0.09061764	0.06486424	-0.053521793	0.05570228	0.05580348	-0.029109688	-0.071701996	-0.03700123	-0.01823175	-0.04033189	-0.030871468	0.010960244	0.0448286	0.014076785	0.013492551	0.00083278894	-0.04491801	-0.0063102487	0.014415484	-0.075461216	0.054040693	-0.02043479	0.0010828334	-0.045432243	-0.032923553	-0.0074453945	-0.001837811	-0.0081912875	0.01116508	-0.019505987	0.028171213	-0.014933362	0.017853936	0.022325495	0.06199097	0.060040656	0.025199383	-0.0031023622	0.038901012	-0.053251736	-0.04052027	-0.007842654	0.021054463	-0.021874186	0.06011839	-0.017414544	0.0077219917	-0.026667165	-0.012236983	0.005916569	-0.048849303	-0.009418564	0.02175268	-0.080066964	-0.019826792	0.033285256	0.00076363486	0.032897677	-0.0140086645	-0.014249564	0.016919468	-0.0051512895	-0.027381063	-0.006771034	-0.05939354	0.040610675	0.05477076	-0.0095651485	-0.0016480123	0.012445844	-0.018011067	-0.01152976	0.00545226	-0.030924482	-0.025392033	0.025161913	0.0054448266	-0.01615891	-0.0203995	0.029348435	-0.0010610606	-0.015278161	-0.006472107	-0.008207301	-0.069905154	0.034945913	0.0015522038	-0.018238818	0.034485035	0.027280565	0.01947027	-0.04809631	-0.025060344	0.027689926	-0.051661164	-0.0407191	-0.045795266	0.055712953	0.013045241	0.01262038	0.020080281	-0.024945144	0.023111658	-0.019481167	0.044975165	0.02585952	0.044819035	0.012777641	0.009998752	0.03127417	-0.052846834	0.029493304	0.0058399434	0.024301322	-0.04485711	-0.0014789046	0.01918784	-0.01118766	-0.056032587	-0.09586713	0.020835778	-0.038237076	0.03971579	0.036284804	0.017834553	-0.02848668	-0.013587448	-0.041289143	-0.023019705	0.011262783	-0.026121914	0.03752508	0.016839363	-0.019859817	-0.039893005	0.004326924	-0.012693943	0.0036667644	-0.008606022	-0.021327697	-0.003390817	-0.0351051	0.014457944	-0.0849374	0.0385929	-0.003214594	0.0004801679	0.042362973	0.036435988	0.01708382	-0.05081568	0.0070748073	0.05972559	-0.041616194	0.086575866	-0.0016874467	0.07914268	-0.0056187524	0.009341981	0.033902224	-0.05934712
apathetic	-0.03932845	-0.008691393	0.006452806	-0.020477872	-0.0017464859	0.06147594	0.0046140226	-0.0007935427	0.024081381	0.008870958	-0.0030941102	0.033556193	0.08820794	0.036226057	-0.0052877306	-0.034075756	-0.00080461055	-0.0011415974	-0.022989374	-0.007586358	0.044650488	-0.016986262	0.05661758	-0.007784348	-0.06410046	-0.016341181	0.044387896	-0.025790341	-0.03430741	-0.00065602275	0.046442572	-0.016002929	0.011259666	0.05840127	0.044097453	0.016272966	-0.021410797	0.043723565	0.02339075	-0.07673263	-0.075003676	0.110084064	0.00012528282	0.006187095	-0.05478409	-0.003969539	0.0353964	-0.036283944	0.0015254851	0.027586462	0.025232485	0.03539973	-0.044314288	-0.055287454	0.022176081	0.032054532	-0.02138181	0.018505245	-0.0042483774	0.04209472	-0.015500805	0.026325587	0.00097225036	-0.0067571905	0.007135424	-0.029856572	-0.00183812	-0.011858255	0.011223465	0.07905384	-0.014777949	-0.0685476	-0.032354873	-0.03536099	-0.0053637777	0.026469942	-0.011265203	-0.039166696	0.0046379725	0.028194064	-0.063397475	-0.016674882	0.08220413	0.040441837	0.02851205	-0.00870359	0.0241712	0.0051912833	-0.037908547	-0.05122381	0.0038526757	-0.0034477666	0.0154014295	0.027608594	0.068509035	0.023877425	-0.028236242	-0.080942765	0.08360537	-0.041640602	0.03755983	-0.00986879	0.023514975	-0.02543766	0.033095933	-0.014256093	0.018801505	-0.014104914	0.052767467	0.012180134	-0.030457089	-0.05567432	0.06326271	0.023312993	0.03659673	0.023686215	-0.045965873	0.081636384	0.002223644	-0.048182607	-0.045560673	0.045742463	-0.09116852	0.039670147	0.048971377	-0.0036094608	-0.029133376	0.00020934198	-0.05744316	-0.014971245	-0.011631695	-0.07218843	0.013783442	-0.049011048	0.006805777	0.005970684	0.027195258	-0.075672254	0.0013982012	-0.020620458	0.004515058	-0.0131617	0.040775277	0.013130256	0.054183748	0.012902297	-0.013069024	0.042595766	-0.003030711	0.047247604	-0.07472095	0.006321675	-0.017398853	0.006187745	0.036627848	0.022139344	-0.00032503624	-0.028191824	0.058214854	-0.045689277	0.019923605	-0.062078163	0.005181704	-0.007900152	-0.013664513	-0.0034302184	0.038744327	-0.061115026	0.03155581	-0.056210306	0.004325368	0.017052805	-0.00029288212	-0.12398384	0.004120344	-0.027813144	-0.0139774075	-0.046748567	-0.040483374	-0.03185535	0.040250454	-0.002356235	-0.06017289	-0.040629372	-0.046673212	0.04878111	0.015824141	0.07005357	0.07319838	-0.031526726	-0.021809343	-0.02355943	-0.0065869447	0.035976328	-0.03747761	0.0056292065	0.019202607	-0.034254417	0.025584076	-0.013969822	-0.0067364452	0.03741458	-0.020437455	0.020084461	-0.020636575	0.012817294	-0.012486881	-0.038057774	0.021359924	0.0059435787	-0.02400116	0.011949227	-0.00515556	-0.0061529935	-0.05938298	0.018048557	0.09626493	-0.029768104	0.012771019	-0.042156406	0.04967497	0.016928768	0.07665345	-0.03476733	-0.03319999	-0.0023790305	-0.10295455	0.007895124	-0.030559296	0.005960229	-0.02210459	0.040058903	-0.024936305	0.009531264	0.03090799	0.003341336	0.015110599	0.0033446548	0.07383282	0.0018365968	0.033865288	-0.04063055	-0.026963787	-0.021882663	0.036328353	0.07544268	0.032396175	0.07664566	0.0262741	-0.030338716	-0.053379174	-0.02205266	-0.027596923	-0.03056085	-0.09224118	-0.061908137	0.01659949	-0.022578925	0.014146756	-0.06288751	-0.00842503	-0.01573179	0.036237925	-0.044714205	-0.06605563	-0.043526266	-0.0010373007	0.052917413	0.051361162	-0.050261423	-0.0006056094	0.04416526	-0.047238283	-0.01593064	-0.05853417	0.025319483	-0.021047333	0.08916489	-0.041294403	-0.03072293	0.040293917	-0.012171641	-0.008368833	-0.009877828	0.036737733	-0.06693255	-0.04458658	0.022647407	0.009873164	-0.0075719007	0.0021743858	0.009139223	-0.0073570963	-0.027615575	0.015498788	-0.009047847	-0.006524449	0.046842325	0.03119127	-0.017733177	0.03418246	-0.02855395	-0.112259835	-0.013510913	-0.04559213	0.012967183	0.005103487	0.0100248605	-0.029569076	0.0325885	0.013887874	-0.014234767	0.017165009	-0.029060394	-0.09416757	0.0055518625	-0.090743266	-0.019116176	-0.02095294	0.015843684	-0.0073525454	0.010137206	-0.03153912	0.02694749	0.04320072	0.01092945	0.01639365	0.006972679	-0.026772484	0.01625905	0.018464826	-0.0012871593	-0.03457704	-0.090106234	-0.012407214	0.030929934	-0.026490416	0.02081317	0.03976095	0.048084807	0.076699995	0.028955605	-0.02320031	0.0034608697	-0.013279007	-0.047287945	0.04933644	-0.04159559	0.0047389576	-0.015452813	0.009176666	0.06846302	-0.0048372056	-0.004869986	-0.06353208	-0.023637952	0.015637225	0.02204079	-0.0020084234	0.0048694285	-0.022867104	-0.006025516	-0.0009444547	0.08795098	0.025195148	0.028833581	-0.042717285	0.06650803	-0.00048820899	0.008666523	0.022328582	-0.016429562	-0.008766944	-0.045841187	0.001759186	-0.032250717	-0.0522223	0.01422166	-0.010365181	-0.04394273	-0.021696951	-0.046331502	-0.04982071	0.035697587	-0.0040457663	-0.028118368	-0.050592158	-0.029333534	0.0025095956	0.030636026	-0.009417917	0.033386853	-0.036577508	0.09658684	-0.010535708	0.02485488	-0.04639715	-0.012562496	-0.03151312	0.070345595	-0.017582359	-0.0012577759	0.037977677	-0.023841124	0.0016890579	0.034227796	0.03984013	0.059329707	0.052172128	-0.0417261	-0.007759727	0.01966916	-0.057399523	0.012198777	-0.02399677	0.012605002	0.0644322	-0.016518677	0.088329345	-0.00028742224	0.06249386	-0.0038448395	0.012279313	-0.016584413	-0.040127717	-0.025035046	-0.010195514	-0.027088068	-0.0025151693	0.025866902	-0.0019693398	0.036361184	-0.057603177	-0.015445849	-0.015763668	0.0007820193	0.027140148	-0.01861813	0.024670428	0.015539899	0.028889298	0.030658478	0.03933902	0.018388206	-0.0027747268	0.019432267	0.031959325	-0.0044420883	-0.028346995	-0.03902879	7.43366e-05	0.029861178	-0.013024966	0.06167724	-0.0048644613	0.011117796	-0.02783664	0.007250618	-0.032463733	-0.022438236	-0.024924062	0.027074544	0.0108540645	0.044316147	0.052049458	-0.020792117	-0.019353734	0.030819148	-0.042551216	0.019956755	-0.004102843	0.026066383	-0.0032688575	0.020717045	0.01810706	0.020263271	0.036947757	-0.008881231	-0.035453252	0.013898999	-0.0026802935	0.032183334	0.009206919	-0.00970335	-0.01627462	-0.0018803903	-0.025786912	0.00427005	0.036924392	-0.028652823	0.035592414	0.01727666	0.05217547	-0.057833362	-0.00048499077	-0.006249024	0.05546817	0.022123933	0.055903867	0.0052856053	0.05242034	-0.02636005	0.028054709	-0.05101588	0.0021364822	-0.014283659	-0.031756543	0.02897647	0.017874006	-0.04915724	0.072735325	-0.009007005	0.0025427889	0.036923915	-0.014679769	0.07723723	-0.0016406137	-0.010033684	-0.018537391	0.015123898	-0.06614748	-0.0058401986	0.026322683	-0.04382195	0.018465482	-0.0005456593	0.0065398235	-0.005691141	0.013868555	-0.013805161	-0.062177807	0.073235326	-0.0075912443	0.011819847	0.0122387735	0.033974152	-0.004702696	0.04412878	-0.0017277733	0.039097264	-0.018193362	-0.028640492	0.055019006	0.019497674	0.01008256	-0.02264757	0.022936467	0.049429066	-0.027544908	0.061339688	-0.026530838	-0.05802533	-0.015273114	-0.031620093	0.050239045	0.006166231	0.03839616	-0.005706965	-0.03905663	0.0059236437	-0.04088981	-0.049613122	0.03560422	-0.01697519	0.0021822276	0.020998517	0.017389534	0.018284224	-0.008861629	0.012986954	-0.0023473038	0.04622485	0.009358196	0.027087549	-0.014271775	0.027650926	-0.06551367	0.029222604	0.008260643	-0.01687387	-0.02163164	0.011935404	0.019879563	-0.042733427	-0.044739258	-0.019003665	0.035414018	-0.003722734	0.01083592	0.024680879	-0.0070457207	0.001436812	0.02193969	-0.05094102	0.03878883	-0.002960914	0.001851064	0.030882966	0.034097496	-0.03356915	0.0034845571	-0.0037909052	0.015009815	0.032664154	-0.06917314	-0.000998606	-0.041033853	-0.07362753	0.014309142	-0.017703436	0.024090873	0.051006954	-0.0013256884	-0.03646282	-0.089170665	-0.01248222	-0.019075248	0.0072393822	0.005760823	0.016696766	-0.036171544	0.013892387	-0.009234456	-0.02885963	-0.010271615	0.017700149	-0.023838826	0.04609321	-0.003459456	-0.03829881	0.029271118	0.028825069	0.025420243	-0.042582363	0.04412366	0.004414315	5.6801215e-05	-0.020810738	-0.030635882	0.008940606	-0.0005399691	0.031384442	0.047107965	-0.009090513	-0.06064269	0.06834493	-0.04412768	-0.021968497	0.0013852535	0.052759465	-0.08450938	0.05025473	0.012050544	0.0050278218	-0.015063891	-0.02608121	-0.02718436	-0.020867014	0.0036598626	0.011406386	-0.0067970552	-0.05653182	0.032829326	0.011888525	0.053776536	-0.016695246	-0.024677634	0.0032922977	0.017169014	-0.009358846	-0.0045536696	-0.011367864	0.006356505	0.056558616	-0.021595359	0.024498953	0.00662981	-0.031906858	-0.017023291	-0.07582639	0.029938102	-0.070449054	0.024938846	0.027510244	-0.03325075	0.010536334	0.0024601312	-0.0075021475	-0.013496159	0.017192174	-0.035287987	-0.054240942	0.0018462433	-0.005488989	-0.0136062065	0.06401933	0.014337607	0.0042812964	0.013255091	-0.03543693	-0.015924422	-0.07068166	-0.046198137	-0.10167091	0.027459456	-0.018509591	0.06504972	0.00997004	-0.05186002	0.034501906	-0.05563289	0.05894317	-0.008567186	-0.018788833	0.0014749337	0.02551892	0.059770115	-0.028988091	0.041923717	-0.0642738	0.023771554	-0.04485527	-0.014199465	0.048623305	0.004585224	0.0025021897	-0.064536124	0.0110810185	-0.016484102	0.06683671	0.04298788	-0.029875837	-0.04828244	0.045160778	-0.00915664	0.0003865767	-0.0021448028	-0.035621777	-0.017091332	0.05697093	0.0021629434	0.021844223	-0.038617667	-0.0053834417	-0.022723071	-0.005531728	-0.0090426	-0.041566294	-0.076027624	-0.008898396	-0.032693736	0.039831202	-0.006918457	-0.025180003	0.035777405	-0.0071121436	0.0016946734	-0.04083478	-0.006150032	0.097863644	-0.03981124	0.06520934	0.006252785	0.056388	-0.017809313	-0.018778699	0.0242749	-0.011416087
numb	-0.033689108	-0.041504778	-0.0155575	0.06241645	0.033747822	0.028462015	0.04152284	0.013396554	0.020697962	0.0071773487	-0.038536493	0.057835612	0.059620697	0.076883726	-0.024686666	-0.06008848	-0.011484521	-0.048335798	-0.069956355	0.036090035	0.05833001	0.019042287	0.06418292	-0.04506374	-0.0695507	0.001276233	-0.010106386	-0.017673958	-0.014691042	-0.018574324	0.046622276	-0.03329553	0.042035393	0.09381569	0.06777769	-0.029472556	-0.018293666	0.017164772	-0.040920757	-0.095503055	-0.029442102	0.049304817	0.0024339822	0.0009089868	-0.05317811	0.012914443	0.058089133	0.006175158	0.012045514	0.02482607	-0.003385895	0.018604206	-0.08573267	0.009021415	-0.07223187	-0.015671847	-0.030040087	-0.012846436	-0.013774758	0.05360047	-0.030766219	0.039708447	-0.045391735	0.008736354	0.003141782	-0.04304136	-0.032425363	-0.002411628	-0.015787873	0.024524441	-0.050964955	-0.032011017	-0.05184396	-0.037350617	-0.018059712	0.013259462	-0.051306672	-0.0049191425	-0.015214202	0.019228049	-0.040903877	-0.011555099	0.064186774	0.042210344	0.067818835	0.031746525	0.049670324	0.008880039	-0.047870047	-0.012859566	0.10488867	0.013335916	-0.015040889	0.0096507445	0.019796975	0.0379074	-0.055281553	-0.011781128	0.10475972	0.046979513	0.03582126	-0.021310491	-0.00052657106	-0.0289346	0.024094053	-0.019472096	0.020511482	-0.0039063185	-0.0034788598	-0.02548286	-0.012508088	-0.0008112044	0.02611961	0.024406552	0.029174887	-0.007924118	0.014893534	0.031906586	-0.04989182	-0.022730475	-0.064157344	0.014572566	-0.018044198	0.061496526	0.037394732	0.0339279	-0.030519517	-0.0033646238	-0.019016998	-0.03272865	0.073695436	-0.04785993	0.019759018	-0.025521697	0.037883475	0.026457885	0.017773611	0.020511853	0.013819866	0.007422635	0.023612581	-0.028293801	0.04338853	0.07724803	0.0056638676	0.007370298	-0.05562915	0.060663674	0.006911799	0.054674614	-0.023064673	0.017312707	-0.012878928	0.038488675	0.016294844	0.011856926	0.0037220607	-0.015852263	0.02224531	0.016441444	0.05220253	-0.04082561	-0.02881626	0.012389311	-0.010525614	-0.0141119575	0.0072213067	-0.08383792	0.04266148	-0.0035087792	0.02947019	-0.060756583	0.011929429	-0.09976767	-0.014410074	-0.012412897	-0.050961807	-0.06292653	-0.0461365	0.012527378	0.015200787	0.024139555	-0.00963946	0.0058106016	-0.09147838	0.0766816	0.017252544	0.01081613	0.048545852	0.0114707	-0.03664174	-0.003331865	-0.060489718	0.05279931	-0.0024569912	0.013223711	0.009165636	-0.02382397	-0.03163325	-0.020801632	0.010312037	0.031636573	-0.0049209176	0.008339647	-0.011765207	-0.014560782	-0.062134527	-0.03526203	0.021576503	-0.04379408	0.033228673	-0.023613002	0.01162537	0.012781859	0.0057843253	-0.02244586	0.060916085	0.004131016	0.09721558	-0.04543234	0.016809667	-0.0075012	0.10603464	0.0037687367	0.0031433222	-0.00981092	-0.07470999	0.0035331135	-0.062903725	-0.018466095	-0.02380488	0.020333754	-0.032722853	-0.0066365437	0.028834652	-0.0012522883	-0.029266508	0.03994813	0.047813687	0.024467936	0.04891467	-0.0036174469	0.024670975	0.07100484	0.023309788	-2.1503003e-05	0.014702512	0.04426439	-0.030548694	-0.010127483	0.02067121	-0.01042301	-0.009724624	-0.030037979	-0.07507833	-0.04697182	0.007882115	-0.010006418	-0.04966258	-0.024699092	-0.024312103	0.0069261244	0.0017419979	-0.003470715	-0.062582366	-0.06250064	0.031882368	0.036142007	0.08389383	-0.04633999	0.030692568	0.023326593	0.0024712768	-0.028908271	-0.03199233	-0.0057603456	-0.034067642	0.040378757	-0.0030292473	-0.02536116	-0.011720129	-0.035571728	0.01086028	-0.008121889	0.046704262	-0.033207845	-0.03677767	0.056107882	-0.04328244	-0.0046126624	-0.026625339	0.035220884	-0.012617547	0.044913754	0.029592965	-0.003790439	0.01941315	0.021284461	0.02775366	-0.004126433	0.09227065	0.0326462	-0.034226585	-0.01558963	-0.034230486	0.024764016	0.014801895	0.00894371	-0.013809539	0.015851418	-0.009946813	-0.012469822	-0.06945794	-0.042850267	-0.06092277	-0.042103346	-0.121949136	0.001419916	0.012721531	-0.0230618	-0.01910457	0.025757862	-0.01084877	0.018437864	0.060859274	-0.022863869	0.029241601	-0.0058800713	0.021608355	0.026264418	0.06293329	-0.02023102	-0.041890677	-0.05823051	-0.019758645	0.04047332	-0.05199867	0.018808652	0.031423617	0.025163012	0.03841995	-0.014918952	-0.019827154	-0.057450972	0.029161181	-0.08371251	0.072148986	-0.032246925	-0.0019627488	-0.00472618	-0.005119942	0.015115988	-0.031430483	0.050450284	-0.020450655	-0.009750123	0.030336	0.023018844	-0.001329481	-0.002781167	0.010856002	0.02367471	0.012018632	0.03761243	-0.0032511442	0.03106681	0.03199911	0.06912453	-0.011044292	-0.012527854	0.05565061	0.010809186	-0.07261556	0.016139928	-0.041448653	-0.029613309	-0.07392389	0.020123586	-0.009056886	-0.07705163	-0.008256201	-0.036214497	-0.03584508	0.017934367	0.027633833	0.02263273	-0.04139555	0.011652712	-0.012861532	0.046961166	0.024128554	0.029268334	0.02854725	0.043956526	0.009050366	0.04297438	-0.053540647	0.0066513717	-0.03664857	-0.008238992	-0.011643775	0.016708398	0.0697168	-0.030385986	-0.016055288	0.027749212	0.008333897	0.020434868	0.04718714	0.004890798	0.018502435	0.0077532665	-0.02968611	-0.0047374456	0.011902184	0.04015008	-0.017843833	0.0058341143	0.062362056	0.019898528	-0.06521056	0.017895088	0.046601877	-0.010607924	-0.053392712	-0.03190245	-0.00275916	-0.062770225	0.048836246	0.0156040685	-0.02071438	0.08898457	-0.054152712	0.0063708676	0.014045742	0.014650614	0.0103514455	-0.041921332	0.012932581	0.026832368	-0.01189686	-0.0063049686	0.0075101056	0.00982471	-0.018225448	0.023700252	0.006761925	-0.018392833	-0.010811843	-0.034230888	-0.042064033	0.026144894	0.0056191823	-0.010497519	-0.055117857	0.0210261	0.025537701	0.05558263	-0.047956776	-0.049719755	-0.029099679	0.033037398	0.05583832	0.009599432	0.0291824	-0.021819482	-0.005898376	-0.0047127986	-0.03015928	-0.017779676	-0.0085485345	0.03960186	0.009738017	-0.020390378	-0.0062077437	0.0056231134	-0.008781058	0.030060524	0.008629511	0.021173926	-0.008749889	0.033579703	-0.024180967	0.024959637	0.05108762	0.016040044	-0.039246995	0.026538868	0.00697017	-0.027062777	3.9161154e-05	0.06971597	0.028774796	-0.049468346	-0.011923706	-0.021695288	0.060748246	-0.01080204	0.024354039	-0.021255676	0.014624663	-0.032082845	-0.023996586	-0.020039994	0.035079107	-0.0020011992	0.018422427	-0.038675297	0.008817261	0.0024450033	0.062193446	0.021299921	0.017112618	0.014450791	-0.0050926986	0.10273258	-0.027869273	0.042005092	-0.010223838	-0.044862565	-0.029511131	-0.012660618	-0.005459554	-0.014615271	0.036486764	-0.021558631	-0.0001539657	-0.025345258	0.014108263	-0.024981488	-0.040423878	0.06796499	-0.0038635943	-0.00990256	0.036413066	0.0030968601	0.017084215	-0.013665351	0.01961852	0.010614419	-0.016240448	-0.010579749	0.058344934	0.034529477	0.0034849753	0.012013075	0.06673419	0.03398062	-0.021167174	0.06577287	-0.011618744	-0.004741765	-0.059043314	-0.002713291	0.007822731	-0.0223832	0.046555508	-0.038730707	-0.0134929735	-0.002081898	0.003169229	-0.038760316	0.049984533	-0.018219454	0.03504949	0.027910357	-0.01765754	0.025164623	0.01620968	0.01125532	-0.013425118	0.0030255532	0.057961933	0.0020448198	-0.011383117	0.037581574	-0.07015215	0.009748081	-0.017725907	0.009145566	-0.01756773	0.047960885	0.01401372	-0.015212909	-0.033710625	-0.010170146	0.05079308	-0.04113243	0.034760777	-0.039127935	-0.01570115	0.0080958195	0.007375714	-0.05755494	0.06368158	-0.024738777	0.017100226	0.03229414	0.059136987	-0.0038994483	0.008866135	0.020066237	0.03572117	0.007010009	-0.06275023	0.036914732	-0.0048990804	-0.04993236	0.014572175	-0.040325828	0.026627338	0.02923739	-0.07054223	-0.012026332	-0.027929818	-0.0330361	-0.036427923	-0.01111813	0.033537038	0.02055188	0.003884798	0.024213424	0.033646412	0.0018001567	-0.094482824	-0.026253248	-0.05557258	0.025274996	-0.07499418	0.040369593	-0.009482059	0.020629086	0.022953875	-0.034732368	-0.028616967	-0.02169702	-0.019050375	-0.04175869	-0.029680422	-0.049528874	0.0061589587	0.0032290719	0.051512554	0.011156482	-0.0054701315	0.06820331	0.02005659	0.0023112977	0.019139074	0.007384445	-0.0908196	0.0075648637	-0.090949014	-0.014416437	-0.018695818	-0.023112876	-0.03456957	-0.022876257	-0.026290331	-0.019886756	0.0033718525	-0.077565365	-0.0013813651	0.021426557	0.042815946	-0.014948279	0.005956229	0.037353605	0.02563387	-0.018398352	-0.041396797	-0.055084545	-0.0013779254	0.029005479	-0.007976374	0.049385235	0.05048622	-0.03543636	-0.0041027763	0.021778217	0.061482754	-0.05343343	-0.0015346765	0.005780847	0.016002975	0.0145434495	0.04683367	0.009995815	-0.076667756	-0.008737476	-0.008494142	-0.03940061	-0.022840332	0.0650464	-0.0330029	0.07933752	0.028537652	-0.01748639	-0.040528987	-0.04510589	0.0074391356	-0.030925376	0.015183335	-0.048105605	0.05503367	0.01022143	0.014969139	0.015351343	0.010065352	0.03403972	0.0025564567	-0.031515043	-0.018650278	-0.007403555	0.021571511	-0.012717967	0.013559509	-0.084384	-0.04473889	0.014962433	0.06644108	-0.048649993	-0.021976443	0.08619666	-0.013478631	0.0048700823	-0.033448674	-0.0010615166	-0.024606347	0.03047351	0.018805513	-0.009982293	-0.022421887	0.021673078	0.007828797	0.016571643	0.043452784	-0.031699087	0.01816176	0.028620414	-0.033646468	-0.008585056	0.0065886346	-0.01314226	-0.00983862	-0.017014084	-0.007263729	-0.011192495	-0.047975253	-0.026377708	0.007572705	0.055479817	0.066101745	0.033236884	0.08599673	0.0052383943	0.0041687647	-0.045790806	0.0029780075	0.056394517	-0.010093114	0.04823258	-0.025104467	0.06329039	-0.014053699	-0.0007014744	0.033237718	-0.03853588
drained	0.024095815	0.0027789955	-0.0033209082	0.005035503	-0.020442685	0.035890546	0.050954785	0.0016904974	0.045389455	0.010843252	-0.021982502	0.07927007	0.056840006	0.0059688673	0.011165977	-0.053246897	0.022430701	-0.05435299	-0.092608154	0.024927016	0.058229387	-0.034300584	0.0061205947	-0.03577026	-0.060916953	-0.039225124	-0.0030413044	-0.022205655	-0.04409568	0.04933298	0.003887174	-0.03251791	0.043620948	0.07298052	0.017887423	-0.0063766507	-0.04188275	-0.013880406	-0.094276786	-0.10219051	-0.073142044	0.05403037	-0.00017712891	0.0031872555	-0.057168514	0.10227476	0.04754478	0.023718659	0.02019578	0.00813994	0.0052545434	0.040182717	-0.048030276	0.009849909	-0.003070089	-0.006896573	-0.00024424706	0.01794135	0.021816794	0.040830344	-0.009866668	0.0019503934	-0.0096856365	-0.018021138	-0.0018764747	0.0030333018	0.0068377955	-0.0281547	-0.0036506471	-0.050658338	-0.014942469	-0.029662216	0.0013242763	-0.023150649	-0.007128381	-0.004356604	0.040759612	-0.0028325592	0.017564287	-0.044860605	-0.042882163	-0.008331913	0.038908586	0.10318622	0.04244412	0.02248831	0.057071935	0.0064547444	-0.05415817	0.023159979	0.115197726	0.002899539	-0.025138706	0.038107466	0.06146567	-0.023772418	-0.023539912	-0.027531752	0.031681444	0.030752547	-0.008981277	-0.0041954755	0.032982014	-0.07411088	-0.01375094	-0.004054537	0.0032792906	-0.007304992	-0.008569878	0.016062496	0.013549485	-0.018307826	0.031905096	0.0050196634	-0.0056533515	0.019582251	0.04625294	0.02004319	-0.02835588	-0.012866394	-0.016607285	-0.03558657	-0.0753159	0.032559775	0.046911903	0.018107677	-0.031718265	-0.051613566	0.01079289	0.0015563681	-0.0040901387	-0.054383375	0.008742657	0.050867155	0.03792327	0.050723564	0.034738608	0.03998546	0.022358991	1.9229086e-05	-0.0036971092	-0.040542554	-0.017371034	0.054596435	0.025799409	0.06159877	-0.07024744	0.046350684	0.007063386	0.034674156	-0.059049107	-0.041527975	-0.041900717	0.0024039075	0.026630703	-0.032220606	0.04573019	-0.023139764	0.09742885	0.023406751	-0.012703275	-0.053490937	0.04245489	-0.011398825	-0.0165107	-0.02465037	0.06970613	-0.0436545	0.031290643	0.012516837	-0.009438924	-0.016848687	-0.062051125	-0.10668766	-0.04228763	0.0053346036	-0.011642647	-0.0030294922	-0.02510794	-0.02544717	0.016062675	-0.0013167473	0.03335177	-0.0271368	-0.05643216	0.06995669	0.018486306	0.05474532	0.06214253	0.037148107	-0.054554798	-0.04639982	-0.007979503	0.0021456399	-0.05047191	-0.0028530438	0.000706246	-0.050952684	-0.0041087517	-0.041555528	0.042266384	0.009010699	-0.028750703	-0.012452082	0.015608606	-0.013599341	-0.05206004	-0.026984727	0.00036337908	0.012931569	0.019594837	0.0033778404	-0.038796254	-0.021893844	0.030360853	-0.015029084	0.067064665	-0.04205311	0.013859168	0.050691802	0.016692625	-0.012175512	0.058512047	0.01845731	-0.00269481	0.0055941455	-0.09349487	0.045563098	-0.028340703	-0.022614665	-0.05561645	0.056592118	0.018656397	-0.03622923	-0.0051090927	0.044446845	0.015269395	0.01630878	0.049307104	-0.010392435	0.0060308464	-0.0108998	0.039507598	0.019834993	0.023819834	-0.0076801204	0.02220336	0.023534508	-0.03772877	-0.03067675	-0.03223154	-0.05521801	-0.046838686	-0.01355401	-0.08072012	0.007913122	-0.0038967768	-0.056585085	-0.011928356	-0.024704246	0.022594942	-0.013276248	-0.051709205	-0.035989802	-0.023225034	0.0032074037	0.0059659085	0.00382536	0.02508674	-0.027023021	0.0069336444	0.04884972	-0.03928245	0.013380715	-0.071155354	0.027891442	-0.037350252	0.028808095	0.01580407	0.004698305	0.034845725	0.007260253	-0.029969068	0.0034971924	0.014145157	-0.004997245	0.005554765	0.0326676	-0.018455433	-0.027630454	0.05092854	-0.03107869	-0.00704225	0.009016104	0.053312775	0.0032223621	0.0099331	-0.029542502	0.005741632	0.021499397	0.03673787	0.018729016	-0.0045899707	0.0002642456	-0.04085424	0.025731327	-0.055483222	-0.026608672	-0.040844996	-0.0012095128	0.0268677	0.036083877	0.0022709009	-0.020291513	-0.01918062	-0.014424881	-0.1462765	-0.056335073	-0.00749324	-0.038401425	-0.032389008	0.004789085	-0.057842877	0.0072715767	0.023609025	0.0055969283	0.0665625	-0.019379003	0.06897886	0.029665645	0.054108012	-0.009896143	-0.048561033	-0.027075054	-0.003976416	-0.020176416	-0.019812722	0.01233685	-0.005041759	0.031472374	0.047197253	0.005229181	0.059621576	-0.013244805	-0.043316435	-0.022856763	0.09749046	-0.03806069	0.0109058	0.012311083	0.009979618	0.043343205	-0.035723176	0.031231603	-0.024570033	-0.010568377	0.048605986	0.01447097	0.0083776545	-0.0063786884	0.015433709	0.00971095	-0.025346098	0.027668854	0.032199636	0.026259085	0.057234082	0.032323837	-0.072694354	0.031471394	0.056415588	0.023215588	-0.058013488	0.012335514	-0.025903443	-0.06589639	-0.051269416	0.050397202	-0.013400458	-0.06818586	-0.03980863	-0.054958932	-0.049401782	0.02294014	-0.014567038	0.011863312	-0.0342292	0.050874673	0.005902881	0.04537411	-0.022829823	-0.00019690437	0.015958507	0.06910877	-0.045768023	0.015360684	0.010211369	0.034013823	-0.039495174	-0.0372451	-0.009759186	0.006723248	0.044008844	-0.054828	-0.036710575	-0.007874139	0.02969103	-0.0051235002	0.011268226	0.002228443	0.025353167	-0.014036107	0.030247614	-0.009481108	-0.0716435	0.008802794	0.042965714	-0.0030199012	-0.01694828	-0.021814005	-0.024531662	0.02255199	0.03541278	0.0027507648	-0.016859766	-0.024798367	0.030288946	0.033858743	0.03236231	-0.018610852	-0.03545208	0.06646976	-0.083519824	-0.007957912	-0.0022681318	0.002587448	-0.0064381408	-0.045966115	0.016071046	0.046050835	-0.0099579	0.01534805	0.013681332	0.015240091	-0.0051023136	-0.026103962	0.07283926	-0.06890349	-0.050092474	-0.085340746	-0.0017709817	0.009843073	0.016812373	-0.008652057	-0.04777159	-0.03198502	-0.06406277	0.004447523	-0.0032803644	-0.01728919	-0.04729847	0.032346386	0.07953158	0.06567935	0.045280967	-0.018188259	0.005444526	0.02306653	0.016118284	0.037938863	0.039566293	0.046508912	-0.00996618	-0.049714502	-0.042604756	0.03132725	0.018187733	0.0003377641	0.007452368	0.0065577603	-0.025666611	0.054039594	0.011878487	0.044384737	0.044690724	-0.028189052	-0.013884174	-0.017950548	-0.027321061	-0.020165706	-0.0105204685	0.03612131	0.0037075519	-0.042251162	0.016101649	-0.05878676	-0.008752274	-0.052334618	-0.031543177	0.023383548	0.040013187	0.034884017	-0.0068863574	-0.05295697	-0.025195047	-0.004837393	-0.009188756	0.008323252	-0.010354093	0.0071204863	0.013660803	0.042947996	0.025911428	-0.009622347	0.0146629065	0.028612224	-0.016571954	0.012962349	-0.052387588	-0.0023815143	0.005728279	-0.032924127	0.07481395	-0.07089067	0.033898223	-0.05009504	-0.013040232	-0.009696732	0.08219819	-0.038530093	-0.040557142	-0.0029440806	0.022243535	-0.008000433	-0.038711343	0.056773484	0.05090837	0.024221962	0.0113747325	-0.011655993	0.033977166	-0.03206087	0.008175072	0.020239135	0.043292318	0.008479109	0.040217787	0.03276414	-0.03416797	0.08120308	-0.061324097	0.0019190789	-0.07230677	0.016348103	0.03772777	-0.031790886	0.08025114	0.025491111	-0.05322626	-0.0013801424	-0.011541503	-0.043324813	0.064129695	0.051932223	0.038006894	-0.046171177	0.008486588	0.0039770305	-0.042934712	-0.035431735	0.002774968	0.0024052155	0.042657953	-0.008879584	0.07034971	-0.0022987577	-0.033193167	0.018767085	0.04645158	-0.0014976611	-0.0013546136	0.020709412	-0.005258856	-0.026164701	0.028892646	0.037358474	0.011968849	-0.037759356	0.0217292	-0.028708367	-0.013927187	0.029842181	0.037724487	-0.01953356	0.04896215	0.010674304	-0.007822846	-0.026133476	0.046705417	-0.022463983	-0.0086799245	0.023190763	0.05591712	0.03449526	-0.025902392	-0.0042954697	0.00014295976	-0.0131555535	0.05735679	0.025127124	0.00045181173	0.049829282	-0.032473978	0.009280153	-0.027275166	0.006897574	-0.07848193	0.018844614	-0.0014165026	0.026650164	-0.04208825	-0.04206378	0.0029523436	-0.03833068	-0.03509293	-0.047074642	-0.06319648	0.03453389	-0.012434289	0.02158398	-0.016874138	0.035199344	-0.0038744113	-0.028105736	0.0050260015	-0.02249465	-0.009721553	0.0039661233	0.0015688089	0.015936838	0.012838007	0.030528514	0.02561231	-0.05030825	-0.01602314	-0.014648888	0.013758474	0.03620133	-0.00855296	-0.03402694	-0.04277288	0.050158862	-0.09395014	-0.010674003	-0.041749332	-0.031306114	-0.008064862	-0.03913004	0.010556025	-0.044012923	0.0068435613	-0.040221576	-0.0028061683	0.01848011	-0.004657819	0.05079644	0.015311707	0.024586786	-0.02288424	0.005075387	-0.022600135	-0.013211896	-0.002497491	0.042462286	0.0035588832	0.013406214	0.0056865723	0.004290447	-0.029943177	-0.013761027	0.012991734	0.019520516	-0.08339679	-0.0496545	-0.013503062	0.0017475702	0.030003034	-0.027715184	-0.062344864	-0.011588558	0.036026634	0.00018560822	-0.016110515	-0.0076610376	-0.0034737745	0.0433878	-0.010237605	-0.032389984	-0.006227434	-0.033368703	-0.005912496	0.00057975034	-0.03440002	-0.024695555	0.03314887	0.0062496406	0.042260095	0.027055455	-0.037404876	0.059102166	-0.026383942	0.02152256	0.0134065095	0.062890686	-0.0008320988	0.054415334	0.058820922	-0.06788306	0.012467142	0.002196634	-0.022195563	-0.005888374	-0.015721029	0.070247605	0.09234304	-0.015693946	-0.021839216	-0.0052033784	-0.061508596	0.035409503	0.011839308	0.011368101	-0.015022567	0.0243885	0.008946379	-0.017427599	0.0016534278	0.0086070895	0.06417763	0.01183423	0.01416644	-0.02959199	0.00087297446	-0.06345373	-0.043705896	-0.045740325	-0.0063537853	-0.025295123	-0.011851164	-0.017237727	-0.0758902	-0.012508134	0.018215716	-0.026953641	0.047347613	0.0060615856	0.012546739	-0.04008792	-0.03291119	0.059264246	-0.039067063	0.091354094	-0.029708024	-0.0048715165	-0.05073881	-0.006038645	-0.0010760901	-0.007834538
exhausted	0.042776093	-0.02488355	-0.019778296	-0.007282558	-0.01674423	0.068613134	0.038437888	0.0128333885	0.006925613	0.004608038	-0.020497149	0.090075836	0.06523092	0.024049612	0.02315219	-0.06850074	-0.0357366	-0.0782498	-0.047218222	0.001259228	-0.017761428	-0.01417291	0.03017588	-0.052340575	-0.021429488	0.016620725	0.023680156	0.02685031	-0.023319619	0.034016002	0.018730694	-0.040050972	0.051074203	0.07255814	0.062097166	0.008952213	-0.019610932	0.059846316	-0.029400457	-0.11117971	-0.064462565	0.06463432	0.016250106	0.025530163	-0.044794343	0.062252164	0.047383323	-0.016598253	-0.00024717546	0.017222483	0.047090143	0.0034808991	-0.04418622	-0.037895005	-0.011393488	0.022227295	0.012642527	0.010310923	0.037747182	0.05063611	0.0044799955	0.03106615	-0.017048966	0.0013260564	0.0074043754	-0.047175	0.012342472	0.010359483	-0.031031191	0.0092060175	-0.025616487	0.034513164	-0.041181326	-0.041346576	-0.040053293	0.020227948	0.015192214	0.041263655	0.012976814	0.026188543	-0.006577778	0.03665987	0.05131928	0.123648874	0.09046103	0.050134912	0.036142588	0.03588883	-0.098014064	0.08599983	0.07862632	0.04846709	0.018691592	0.047107562	0.023725916	-0.016900746	-0.02247243	-0.04091626	-0.018868688	0.01670245	0.023172537	-8.000486e-05	-0.009130636	-0.070884325	0.016655618	-0.008698544	-0.025361843	-0.037608106	0.017941821	0.046600506	-0.00465849	-0.06788164	0.012424024	0.022504967	0.02620022	-0.0038181497	-0.0569156	0.021775987	0.0107959565	0.010076296	-0.01385421	-0.010384958	-0.09349255	0.049527824	0.00022178402	0.02779371	-0.0069426373	0.043278903	0.017525107	0.046358205	-0.03028091	-0.062273014	0.041582692	0.009561644	0.013757882	-0.0111484965	0.0815646	0.021491637	-0.0007860714	0.0004807504	0.02275778	-0.047847774	0.011953441	-0.0076023717	0.005573971	0.025981009	0.023623813	0.025377078	0.046731178	0.03009445	-0.058191966	-0.03055396	0.008410715	-0.012032512	-0.005764597	-0.045335133	0.02155061	-0.035374887	0.067069136	0.025369342	0.019307435	-0.087251514	0.03854346	0.017797327	-0.00903738	-0.03455555	-0.0043767733	-0.021175766	0.0141534135	-0.0024578073	-0.022322517	-0.0022150227	-0.024721667	-0.13523631	-0.051662926	-0.0101662455	0.028471965	-0.028137198	-0.025510125	3.0669144e-05	0.03303071	0.07260166	0.0122896135	-0.07663207	-0.02856219	0.04190145	0.0052563045	0.036173522	0.043119207	-0.033579253	-0.035838537	-0.0075627556	-0.008023964	-0.039973773	-0.02325342	0.05417955	0.038953606	0.004459084	-0.00985537	-0.005849308	0.050156474	0.04727046	-0.047871575	0.010679657	0.0124690235	-0.01748386	-0.040007044	-0.044112556	0.011372214	0.004828586	-0.011356862	-0.061143707	-0.028576339	-0.044315636	0.011678088	0.02060726	0.023298014	-0.03517771	0.03602796	-0.007832016	0.014353599	-0.018947095	0.049144886	0.058437154	0.020982621	0.01299052	-0.10124773	0.004051551	-0.035262555	0.030120699	0.033526707	0.049662616	-0.04520842	-0.054444723	-0.013682742	0.028401345	0.015248914	0.028160043	0.0727394	-0.02246383	0.0059498795	-0.0706057	0.05444593	0.0064598247	0.032322112	-0.0052143554	0.03277872	0.027167067	-0.018179325	-0.04532082	0.014133842	-0.027626976	0.018005496	-4.217944e-05	-0.008936241	-0.05851152	-0.037756704	-0.0068368455	-0.011003186	-0.056603357	0.05605232	-0.023925958	-0.00805242	-0.05974374	-0.04666349	-0.03911312	-0.0059388974	0.006232051	0.10833608	0.023221826	0.0045260713	-0.007014674	-0.042529803	0.022524633	-0.037430976	0.055538118	0.004228949	0.024674408	-0.04696001	5.4514083e-05	0.011791995	-0.022428576	0.0011973213	0.04105959	0.035385363	-0.032086708	0.012191603	0.034234338	-0.056347754	0.012426269	0.07578414	0.01067063	0.005112631	-0.007218769	0.0384716	-0.01002935	0.040949747	0.024617124	0.011607679	-0.013533291	-0.0051394696	0.021427294	-0.01959629	0.0540278	-0.049198143	0.040592074	-0.0025997267	-0.061108142	-0.031323504	0.0023058665	-0.022401277	0.0035714281	-0.008940733	-0.010651776	-0.03529728	-0.01986233	-0.06529371	-0.018864384	-0.018516304	0.014764548	-0.033634763	0.04281485	-0.036709283	-0.001882081	-0.0023801844	-0.00053744984	0.037552577	-0.023119468	0.056161046	-0.015013084	0.021319807	-0.006482984	-0.015612047	0.008196347	0.021264456	0.00017450642	-0.054885633	0.01832555	0.06486723	0.0493736	0.019344475	-0.029985258	0.021583788	-0.0054488755	0.023790088	0.016672334	0.006627513	-0.055492017	0.021400217	-0.023692748	0.04513845	0.004206191	-0.019025926	-0.03802829	-0.009978812	0.011972334	0.023740834	-0.007491811	-0.011898732	-0.009917466	0.024765087	-0.0080174	-0.021413963	0.07687938	0.0015450248	0.019494385	0.017467158	0.00028631772	-0.026151791	0.00396593	0.0036113563	0.024910735	-0.021632347	-0.0014672586	-0.003802185	-0.06470315	-0.065990925	0.042954385	-0.008286449	-0.06686771	0.012300174	-0.025953606	-0.019255938	-0.017440856	-0.0153279165	0.019573297	-0.06799057	0.025618473	0.033654436	0.04003304	-0.00894984	0.022658778	0.0040635956	0.07789806	-0.044375025	0.06471174	-0.011062385	0.026171833	-0.061217494	0.016005835	-0.022219671	0.012174571	0.04697544	-0.025489692	0.02252977	-0.0007286177	0.024954043	-0.00062686426	0.022672776	-0.017169414	-0.0045404853	-0.008637633	0.0041607423	0.012769904	-0.07972563	0.0798617	0.0569977	0.0009329843	-0.010276582	0.059129328	-0.029320205	-0.046473257	0.010924857	-0.010761392	-0.049261425	-0.026768684	-0.014754761	-0.018223485	0.020535868	0.006819696	-0.0355406	0.019889263	-0.050833516	-0.027796209	-0.05531951	-0.032197803	-0.04692593	-0.031800054	0.0017672802	0.04448943	-0.019138051	-0.061656058	0.008064513	0.016229508	-0.009026285	0.05944231	0.051726498	-0.04340692	0.009223137	-0.01853647	0.014182594	0.03379863	0.022292092	-0.019180274	-0.045152474	-0.007665021	-0.04281092	-0.042650953	-0.014402632	-0.02402532	-0.037806682	0.017394831	0.07023741	0.053894516	0.07228602	-0.022850575	0.020164805	-0.0036949671	-0.034126397	0.0020841619	0.033491474	0.048151188	-0.008421619	0.029492883	0.021593599	0.008777458	-0.002692726	-0.009797394	-0.08073565	-0.039832313	-0.011099738	0.038053658	0.010399548	0.023299031	0.0018077275	0.008127628	-0.058858566	0.027391868	0.014026655	-0.004682344	-0.013716435	-0.022269644	0.017056648	-0.056969613	0.021559158	-0.004766257	0.0039517535	-0.015684862	-0.02857696	0.03232222	0.016783573	0.035818502	-0.009318791	-0.06399379	-0.0223482	0.021412347	-0.014716132	0.007336143	0.002992946	-0.045064263	0.042924974	0.04529028	0.026768358	-0.033037446	0.001989624	0.004662005	-0.024106508	0.0023641172	-0.04240037	0.0034118593	-0.027401999	-0.0154253505	0.08746262	-0.010906248	0.009115322	0.0018243298	-0.020200124	-0.013729205	0.032997664	-0.0049576918	-0.026058475	0.08552489	0.048538204	0.01583177	0.0008614286	0.07077211	0.048153713	-0.00042885068	0.010529566	0.0039918264	0.062376793	-0.008342559	0.034153227	0.053898107	0.025038805	0.002570794	0.025152514	0.03037859	0.0431661	0.069012605	-0.04295445	0.048709817	0.0015864382	-0.015670935	0.020332215	-0.00651795	0.05369135	0.010362743	0.00632156	-0.007357235	-0.0073302016	-0.07646088	0.04452668	0.044534437	0.04442614	-0.03458796	-0.044009976	0.005693638	0.01912152	0.013132027	0.014357523	-0.007870721	0.036612548	0.0023444744	0.017545996	-0.02833106	-0.07744315	0.009562134	0.045190908	0.004784976	-0.038373314	0.02306602	0.020127317	-0.05454726	-0.01858662	-0.0003078806	0.050054792	-0.009192829	0.039403994	-0.059075702	-0.015348752	0.024178157	0.049256723	-0.01866726	0.06520721	-0.029136665	0.0064640455	-0.03272881	0.04149031	-0.007790478	-0.059783902	-0.010840761	0.05722963	0.04972863	-0.008965957	0.008399905	-0.0057199793	-0.05716541	0.043920364	0.011607837	-0.0036142108	0.07023622	-0.019833848	-0.010327687	-0.023852512	0.0020226808	-0.01848982	-0.03993522	0.035578262	0.011491985	-0.021116134	0.009294538	-0.017800927	0.0023916487	-0.022380743	0.040666707	0.0028668675	0.06988518	0.018740848	0.041873775	-0.019905787	-0.0019344788	0.00800471	-0.007855491	-0.031318456	0.049979985	-0.05271282	-0.04624818	-0.038436666	0.011198547	-0.010905397	0.025711663	0.05924841	0.00073792925	-0.009388773	0.019059548	-0.025481185	-0.008158131	0.00043762554	-0.008353547	-0.026416682	0.06271858	-0.011703069	-0.0103843985	0.03975934	-0.01333131	-0.005495054	-0.008005996	-0.054027826	-0.049448688	-0.05797821	-0.012052319	0.0020857945	0.037328005	0.033826295	0.0076692794	-0.014370807	0.024215756	0.022865219	-0.0023839867	-0.021020189	-0.0041785766	0.037629265	0.033382338	-0.02154398	0.055563446	-0.0012521673	-0.025947267	-0.0294499	0.028070448	-0.02868863	-0.006105873	0.015671583	-0.00040413567	-0.05842696	-0.004969759	0.038181406	-0.00014536532	-0.021503536	-0.00557458	0.017576318	-0.024403568	0.01666898	-0.014138616	0.012461751	0.036625087	-0.018159617	0.01295144	-0.00853892	-0.06158808	0.0040593515	-0.0010840433	-0.015190517	-0.0709137	0.066457964	-0.037603494	-0.0069179707	0.019149065	-0.04204857	0.00019194713	-0.026123818	0.039882388	0.029686192	0.009993465	-0.0032482222	0.030594707	0.023475219	-0.057844173	0.0040426273	-0.025761621	0.02602224	-0.05344964	-0.009814208	-0.010974992	0.018350782	-0.007891156	-0.07420721	-0.010174424	0.007218303	0.050831284	0.10469289	0.031395525	-0.025681427	-0.022184767	0.014616893	-0.04207707	0.02895665	-0.041447002	0.06854338	0.06368113	-0.009010972	-0.020723954	-0.012959864	-0.067494184	-0.04342445	0.020491686	-0.06416614	-0.004754713	-0.014847963	-0.006083226	-0.052173115	0.02318307	0.03724393	-0.019056713	0.031584032	0.025296655	0.019122602	-0.071116075	0.030852027	0.055945266	-0.035458058	0.09871668	-0.072620295	-0.010080225	-0.051431026	-0.017267726	0.053632174	-0.05853034
overwhelmed	0.07367338	-0.030837936	0.024654163	-0.014461589	0.0021656724	0.06961007	0.04478286	0.054418277	0.02820455	0.0073430394	0.00568941	0.058202546	0.06847508	-0.019323058	0.04201355	-0.07443273	-0.00057240063	-0.045998264	-0.0088915825	0.012002578	0.03100015	0.009757238	0.003971346	-0.010778212	-0.054289084	0.04711416	0.0088349525	0.038208798	-0.048653923	-0.060313396	0.07353943	-0.046681553	0.037054624	0.01401719	0.057387993	-0.01109249	-0.044700358	0.007221586	-0.04607197	-0.10418609	-0.060644306	0.037751984	-0.0021785223	-0.018135255	-0.025690636	0.00090551574	0.015687618	-0.0074538095	0.037236977	0.019969454	-0.02000059	0.022791283	-0.020625914	-0.019368596	-0.011017567	0.0031783474	-0.049275864	0.009419764	0.0423984	0.043302614	0.004461292	0.015613363	-0.011379369	0.013071979	0.03997987	-0.006076211	0.024507705	0.0052081845	-0.048838533	0.030500486	0.003245139	0.06359055	-0.083190545	-0.019812416	-0.049931422	0.010979032	0.01779379	-0.004825015	-0.05437944	0.021046419	-0.020303592	-0.0072435183	0.050474428	0.05727925	0.041125566	0.013100331	-0.0077864323	0.034520496	-0.03333306	0.038477767	0.099721186	0.021651972	0.028757796	0.027341183	-0.019207263	-0.049150318	-0.059737664	-0.010993898	0.0074743573	0.017769758	0.012064505	-0.0020475616	-0.011108747	-0.11223221	0.02177368	-0.014343754	0.002083415	-0.046930447	0.0021247137	0.008172502	-0.027892115	-0.0147985695	0.03788283	0.035392188	0.05788301	-0.0007385252	0.0024314357	5.018235e-05	-0.0031714654	-0.0005837118	0.006064776	0.026476344	-0.0772376	0.089909725	0.03707947	0.0124643715	0.015303432	0.037697166	0.008601783	0.046114158	0.027243553	-0.028029151	0.010041404	0.02805298	0.007245611	-0.068097696	0.06772283	-0.030509617	0.03884974	0.012731203	0.021602325	-0.052355245	0.022448188	0.004191459	0.033486627	-0.022542218	0.041520726	0.030537572	0.0012670241	0.048552535	-0.056782167	-0.03735167	-0.0448279	0.0101634385	-0.033560403	-0.048168086	0.03745403	-0.013892574	0.066777036	0.0056671132	-0.017972898	-0.07562163	0.025826849	0.024268724	-0.020176237	-0.028375132	-0.020294355	-0.061208908	0.040506165	0.0261327	0.01651033	0.024461314	-0.026274363	-0.08482183	-0.01625587	-0.0162926	-0.019898338	-0.0084937615	-0.08653991	-0.01064978	0.023299314	0.06405714	-0.009035925	-0.024197267	-0.023445485	0.019425143	-0.013484855	0.044980273	0.054485235	-0.025850095	0.023374453	0.026850587	-0.019682085	-0.0158691	-0.03820049	0.009266842	-0.028293217	0.0037464618	-0.018110039	-0.038916353	0.038451158	0.018995551	-0.1029261	0.01244572	0.011747007	0.023471106	-0.030536178	-0.08925236	0.050388664	0.013736336	0.020921487	-0.040455107	-0.019117912	0.0071871644	0.06475911	-0.019600848	0.046071626	-0.01073458	0.0061218427	0.009318287	0.011630822	-0.04950277	0.008139549	0.019413121	-0.005481336	-0.021775136	-0.14467351	0.02850384	-0.0094337	0.014527052	0.014824229	0.039027747	-0.06393346	-0.024074344	0.05212913	-0.010816573	0.012477457	0.03499177	0.103060484	0.025329247	0.029253079	0.025920644	0.016698234	-0.006639079	0.060164284	-0.021341894	0.020232778	0.027240988	-0.0059482567	-0.04397513	0.022637572	-0.024411252	0.02571891	0.021451307	-0.056072935	0.0028145409	-0.057564635	-0.033522207	-0.02559559	-0.035230257	0.03814143	-0.04238849	-0.029953752	-0.04986759	-0.05947301	-0.06372742	-0.0597603	0.0052587567	0.051917892	0.020253042	0.03348414	0.0024754156	-0.04374346	0.001340736	-0.023230623	0.037419412	0.015523396	0.0019748604	-0.027791237	0.038931146	0.0024581528	-0.039641127	0.013844252	0.0070467363	0.033913236	-0.0414338	-0.010810336	0.01184269	-0.073696	-0.021745706	0.06862298	0.030888906	0.020049514	-0.014121639	0.017192252	-0.0036264127	0.04394654	0.01076873	0.008032077	-0.013726311	-0.016957749	0.0116861835	-0.09369432	0.050433535	-0.026863402	0.026581567	-0.009432164	-0.009166824	-0.018870013	0.008959567	0.0024861887	-0.0136895655	-0.027101709	-0.02349254	-0.057218164	0.0066261394	-0.07952347	-0.005046252	0.017150529	0.0125997	-0.015842224	0.016193911	-0.0626282	-0.005290055	-0.011394393	0.025366012	0.024559293	-0.00063775794	0.056764383	0.002537475	0.04802933	-0.018390149	0.00986717	0.040411025	-0.009428494	-0.018483326	0.010348244	0.07437878	0.042622473	0.041724224	0.034400646	0.010557277	0.04411289	-0.044661414	0.006933042	0.02783885	0.023270363	-0.027329264	0.021819055	-0.03756142	0.06645447	-0.011157967	0.001483493	-0.07368456	0.022743557	0.0058711623	0.030999266	-0.027693294	-0.015199544	-0.016578093	0.026688876	0.050589815	-0.0023395931	0.046170663	0.008072879	0.038770586	0.0053728945	0.053007398	-0.020301525	-0.010313481	-0.026543343	0.054843426	0.0145921195	0.012632959	0.04836633	-0.05617839	-0.07112528	0.02285152	0.042705905	-0.070446566	-0.0101613235	-0.041296195	-0.046763003	0.060425784	-0.02655166	0.041817166	-0.091727704	0.035077456	0.024081314	0.034852684	0.031588044	0.008809538	-0.010318413	0.07343995	0.014141109	0.0066547645	-0.044469334	0.01315009	-0.05448669	0.024557265	0.003745272	0.018872684	0.058131825	-0.05445752	0.008363005	-0.017561886	0.029930556	-0.029129993	0.04972416	-0.0033754844	-0.024474444	0.003900104	-0.040725138	0.024348423	-0.089041464	0.032948747	0.048689328	0.04384228	0.03272759	0.028227739	-0.025821123	-0.020744357	-0.005222974	0.038722347	-0.07323169	-0.03537944	-0.0052796747	-0.026700754	0.024760209	0.025113437	-0.0080456	0.037342798	-0.058839966	-0.007088807	-0.0004209562	-0.005772553	-0.025532963	-0.020269861	0.019730022	0.0092470525	-0.057582017	-0.05016555	-0.03793229	0.037028693	-0.004816873	0.073201254	0.019529717	-0.011086975	0.00232452	-0.0031995447	-0.023667246	-0.010905617	-0.010418975	-0.015185035	-0.02176456	0.01639759	-0.056090027	-0.037274163	-0.012842466	-0.008709478	-0.035019808	0.0030964648	0.05918988	0.018762905	0.043770373	-0.0052730874	0.022741964	0.0068657734	-0.0069273976	0.030886851	0.037349455	0.032309078	0.0047538592	-0.008280503	-0.0044282856	0.018942382	-0.031647433	-0.017331902	-0.03966972	-0.019346906	0.018626671	-0.021950616	0.027811836	0.024888013	0.0014131501	0.00097224093	-0.10689617	0.024743784	0.016531024	0.036960043	-0.008494293	-0.013787724	0.02189181	0.0012679886	-0.0008717885	-0.00712532	0.041439462	0.010553264	-0.053606387	-0.00093959353	0.06674708	0.02637787	-0.004042143	-0.08800631	-0.018397056	-0.03014804	0.015594338	0.016406097	-0.009890167	-0.040625233	0.07701856	0.07737674	-0.029249214	-0.06771717	-0.013848302	0.018808702	-0.04655903	0.024516527	-0.03739291	0.021468176	-0.027993262	-0.031374976	0.09345238	-0.013661447	0.004692001	0.0006639317	-0.037158914	0.004168606	0.024831884	0.028903874	0.039535664	0.079788625	0.025447888	-0.001396482	-0.008941463	0.00860749	0.044263624	-0.01315917	0.036959436	0.0056368844	0.03338561	-0.016013857	0.040278953	0.018356651	0.028237881	-0.030447314	0.018762626	0.04961889	0.03316239	0.06998468	-0.054915324	0.06904797	-0.0054213703	-0.05832223	-0.007380454	0.0005833972	0.032415528	0.0005122257	0.004316747	0.0063689183	0.051147107	-0.11422857	0.046712205	-0.014545184	0.04626673	-0.007155796	-0.0036623436	0.03112194	-0.016255073	-0.00013144707	0.0024991762	-0.0031649421	0.03579821	-0.036860645	-0.011052152	-0.019686269	0.021832084	-0.01676391	0.009334421	-0.023918213	-0.014398355	0.008463605	-0.013507014	0.00245013	-0.0061506145	-0.034212362	0.05956104	-0.034053177	0.020441012	-0.06555275	0.006839858	-0.001482476	0.02203217	-0.015609432	0.06515406	0.009764457	-0.0054806997	0.0071821627	0.045893133	0.018517572	0.015209516	-0.043345485	0.04950801	0.0181661	-0.027646145	-0.011750232	0.021519868	-0.05390979	0.029569509	-0.0035241726	-0.01960634	0.05721256	-0.00040475922	-0.033192568	-0.06982076	-0.00049269415	-0.10131323	-0.03293082	0.012198335	0.009773428	-0.018868247	0.023041828	-0.016709955	0.011328944	-0.06407917	0.013325538	0.0041405414	0.039627448	0.00041677707	0.050526343	-0.03661161	0.029051838	0.02124248	0.008643805	-0.06215772	-0.01389882	-0.05420047	-0.056519765	-0.03676881	-0.043896865	-0.050371494	-0.008961499	-0.025019372	0.029734964	0.021639345	-0.024248818	-0.03987238	0.030353863	0.025218595	-0.013552696	-0.05025778	0.0047370535	-0.0020709338	0.019713428	0.027317684	0.0191891	0.0067809257	-0.015981667	0.015204461	0.012903285	0.015659984	-0.018738963	0.03291969	0.015674492	-0.0010870205	0.030625354	-0.047702324	0.010825088	0.026946982	-0.06548525	0.01731934	-0.038307108	0.00062757736	-0.023070145	0.0060205767	0.049965456	0.008187288	-0.032080438	-0.033310127	0.03004328	-0.008199081	-0.033341087	0.0006897608	-0.025445804	-0.015917089	-0.03700232	0.008335916	-0.03397844	0.018882172	-0.028097821	0.009049887	-0.0035545854	0.036873493	0.0054791784	0.022534812	0.04888389	-0.016128635	0.0055923755	0.010166673	-0.07000097	-0.018509906	0.02209378	-0.022332981	-0.017598	0.06130182	0.021063935	0.020248607	0.01869378	-0.01301238	0.004447094	-0.01813303	-0.014626156	0.038265385	0.014121197	-0.042624842	0.014572693	0.005534598	-0.054869656	-0.0015160558	-0.03934179	0.021180931	-0.060995035	-0.030085	0.047204856	-0.0011915194	-0.00023482808	-0.037695087	0.006909009	-0.01688189	0.063211344	0.05119937	0.014394972	-0.019694913	0.017081765	-0.027254524	-0.048811663	0.05404387	0.012803049	0.037868842	0.053801496	-0.022409393	-0.041249365	0.039920494	-0.0442597	-0.015534732	0.045650203	-0.028595516	0.016367106	-0.022873897	-0.009008954	-0.09410418	0.025868805	0.036632888	-0.036807217	0.024440303	-0.028670283	0.010517559	-0.060709886	0.049134683	0.054474354	-0.036000185	0.06827241	-0.03318226	-0.0051000607	-0.028023781	0.021465685	0.03876792	-0.0023715901
