keyword	dim_0	dim_1	dim_2	dim_3	dim_4	dim_5	dim_6	dim_7	dim_8	dim_9	dim_10	dim_11	dim_12	dim_13	dim_14	dim_15	dim_16	dim_17	dim_18	dim_19	dim_20	dim_21	dim_22	dim_23	dim_24	dim_25	dim_26	dim_27	dim_28	dim_29	dim_30	dim_31	dim_32	dim_33	dim_34	dim_35	dim_36	dim_37	dim_38	dim_39	dim_40	dim_41	dim_42	dim_43	dim_44	dim_45	dim_46	dim_47	dim_48	dim_49	dim_50	dim_51	dim_52	dim_53	dim_54	dim_55	dim_56	dim_57	dim_58	dim_59	dim_60	dim_61	dim_62	dim_63	dim_64	dim_65	dim_66	dim_67	dim_68	dim_69	dim_70	dim_71	dim_72	dim_73	dim_74	dim_75	dim_76	dim_77	dim_78	dim_79	dim_80	dim_81	dim_82	dim_83	dim_84	dim_85	dim_86	dim_87	dim_88	dim_89	dim_90	dim_91	dim_92	dim_93	dim_94	dim_95	dim_96	dim_97	dim_98	dim_99	dim_100	dim_101	dim_102	dim_103	dim_104	dim_105	dim_106	dim_107	dim_108	dim_109	dim_110	dim_111	dim_112	dim_113	dim_114	dim_115	dim_116	dim_117	dim_118	dim_119	dim_120	dim_121	dim_122	dim_123	dim_124	dim_125	dim_126	dim_127	dim_128	dim_129	dim_130	dim_131	dim_132	dim_133	dim_134	dim_135	dim_136	dim_137	dim_138	dim_139	dim_140	dim_141	dim_142	dim_143	dim_144	dim_145	dim_146	dim_147	dim_148	dim_149	dim_150	dim_151	dim_152	dim_153	dim_154	dim_155	dim_156	dim_157	dim_158	dim_159	dim_160	dim_161	dim_162	dim_163	dim_164	dim_165	dim_166	dim_167	dim_168	dim_169	dim_170	dim_171	dim_172	dim_173	dim_174	dim_175	dim_176	dim_177	dim_178	dim_179	dim_180	dim_181	dim_182	dim_183	dim_184	dim_185	dim_186	dim_187	dim_188	dim_189	dim_190	dim_191	dim_192	dim_193	dim_194	dim_195	dim_196	dim_197	dim_198	dim_199	dim_200	dim_201	dim_202	dim_203	dim_204	dim_205	dim_206	dim_207	dim_208	dim_209	dim_210	dim_211	dim_212	dim_213	dim_214	dim_215	dim_216	dim_217	dim_218	dim_219	dim_220	dim_221	dim_222	dim_223	dim_224	dim_225	dim_226	dim_227	dim_228	dim_229	dim_230	dim_231	dim_232	dim_233	dim_234	dim_235	dim_236	dim_237	dim_238	dim_239	dim_240	dim_241	dim_242	dim_243	dim_244	dim_245	dim_246	dim_247	dim_248	dim_249	dim_250	dim_251	dim_252	dim_253	dim_254	dim_255	dim_256	dim_257	dim_258	dim_259	dim_260	dim_261	dim_262	dim_263	dim_264	dim_265	dim_266	dim_267	dim_268	dim_269	dim_270	dim_271	dim_272	dim_273	dim_274	dim_275	dim_276	dim_277	dim_278	dim_279	dim_280	dim_281	dim_282	dim_283	dim_284	dim_285	dim_286	dim_287	dim_288	dim_289	dim_290	dim_291	dim_292	dim_293	dim_294	dim_295	dim_296	dim_297	dim_298	dim_299	dim_300	dim_301	dim_302	dim_303	dim_304	dim_305	dim_306	dim_307	dim_308	dim_309	dim_310	dim_311	dim_312	dim_313	dim_314	dim_315	dim_316	dim_317	dim_318	dim_319	dim_320	dim_321	dim_322	dim_323	dim_324	dim_325	dim_326	dim_327	dim_328	dim_329	dim_330	dim_331	dim_332	dim_333	dim_334	dim_335	dim_336	dim_337	dim_338	dim_339	dim_340	dim_341	dim_342	dim_343	dim_344	dim_345	dim_346	dim_347	dim_348	dim_349	dim_350	dim_351	dim_352	dim_353	dim_354	dim_355	dim_356	dim_357	dim_358	dim_359	dim_360	dim_361	dim_362	dim_363	dim_364	dim_365	dim_366	dim_367	dim_368	dim_369	dim_370	dim_371	dim_372	dim_373	dim_374	dim_375	dim_376	dim_377	dim_378	dim_379	dim_380	dim_381	dim_382	dim_383	dim_384	dim_385	dim_386	dim_387	dim_388	dim_389	dim_390	dim_391	dim_392	dim_393	dim_394	dim_395	dim_396	dim_397	dim_398	dim_399	dim_400	dim_401	dim_402	dim_403	dim_404	dim_405	dim_406	dim_407	dim_408	dim_409	dim_410	dim_411	dim_412	dim_413	dim_414	dim_415	dim_416	dim_417	dim_418	dim_419	dim_420	dim_421	dim_422	dim_423	dim_424	dim_425	dim_426	dim_427	dim_428	dim_429	dim_430	dim_431	dim_432	dim_433	dim_434	dim_435	dim_436	dim_437	dim_438	dim_439	dim_440	dim_441	dim_442	dim_443	dim_444	dim_445	dim_446	dim_447	dim_448	dim_449	dim_450	dim_451	dim_452	dim_453	dim_454	dim_455	dim_456	dim_457	dim_458	dim_459	dim_460	dim_461	dim_462	dim_463	dim_464	dim_465	dim_466	dim_467	dim_468	dim_469	dim_470	dim_471	dim_472	dim_473	dim_474	dim_475	dim_476	dim_477	dim_478	dim_479	dim_480	dim_481	dim_482	dim_483	dim_484	dim_485	dim_486	dim_487	dim_488	dim_489	dim_490	dim_491	dim_492	dim_493	dim_494	dim_495	dim_496	dim_497	dim_498	dim_499	dim_500	dim_501	dim_502	dim_503	dim_504	dim_505	dim_506	dim_507	dim_508	dim_509	dim_510	dim_511	dim_512	dim_513	dim_514	dim_515	dim_516	dim_517	dim_518	dim_519	dim_520	dim_521	dim_522	dim_523	dim_524	dim_525	dim_526	dim_527	dim_528	dim_529	dim_530	dim_531	dim_532	dim_533	dim_534	dim_535	dim_536	dim_537	dim_538	dim_539	dim_540	dim_541	dim_542	dim_543	dim_544	dim_545	dim_546	dim_547	dim_548	dim_549	dim_550	dim_551	dim_552	dim_553	dim_554	dim_555	dim_556	dim_557	dim_558	dim_559	dim_560	dim_561	dim_562	dim_563	dim_564	dim_565	dim_566	dim_567	dim_568	dim_569	dim_570	dim_571	dim_572	dim_573	dim_574	dim_575	dim_576	dim_577	dim_578	dim_579	dim_580	dim_581	dim_582	dim_583	dim_584	dim_585	dim_586	dim_587	dim_588	dim_589	dim_590	dim_591	dim_592	dim_593	dim_594	dim_595	dim_596	dim_597	dim_598	dim_599	dim_600	dim_601	dim_602	dim_603	dim_604	dim_605	dim_606	dim_607	dim_608	dim_609	dim_610	dim_611	dim_612	dim_613	dim_614	dim_615	dim_616	dim_617	dim_618	dim_619	dim_620	dim_621	dim_622	dim_623	dim_624	dim_625	dim_626	dim_627	dim_628	dim_629	dim_630	dim_631	dim_632	dim_633	dim_634	dim_635	dim_636	dim_637	dim_638	dim_639	dim_640	dim_641	dim_642	dim_643	dim_644	dim_645	dim_646	dim_647	dim_648	dim_649	dim_650	dim_651	dim_652	dim_653	dim_654	dim_655	dim_656	dim_657	dim_658	dim_659	dim_660	dim_661	dim_662	dim_663	dim_664	dim_665	dim_666	dim_667	dim_668	dim_669	dim_670	dim_671	dim_672	dim_673	dim_674	dim_675	dim_676	dim_677	dim_678	dim_679	dim_680	dim_681	dim_682	dim_683	dim_684	dim_685	dim_686	dim_687	dim_688	dim_689	dim_690	dim_691	dim_692	dim_693	dim_694	dim_695	dim_696	dim_697	dim_698	dim_699	dim_700	dim_701	dim_702	dim_703	dim_704	dim_705	dim_706	dim_707	dim_708	dim_709	dim_710	dim_711	dim_712	dim_713	dim_714	dim_715	dim_716	dim_717	dim_718	dim_719	dim_720	dim_721	dim_722	dim_723	dim_724	dim_725	dim_726	dim_727	dim_728	dim_729	dim_730	dim_731	dim_732	dim_733	dim_734	dim_735	dim_736	dim_737	dim_738	dim_739	dim_740	dim_741	dim_742	dim_743	dim_744	dim_745	dim_746	dim_747	dim_748	dim_749	dim_750	dim_751	dim_752	dim_753	dim_754	dim_755	dim_756	dim_757	dim_758	dim_759	dim_760	dim_761	dim_762	dim_763	dim_764	dim_765	dim_766	dim_767
Joyful	-0.0077370605	0.026950322	0.017448211	-0.019171106	0.04345731	0.05009384	0.0049231504	0.014965282	0.076841205	0.035192944	-0.03146383	-0.0055690925	0.018456781	0.025274917	0.030647445	-0.060245275	-0.02438452	0.013997023	-0.028956003	-0.021889206	0.093742914	0.0059896503	0.07310714	-0.046473853	-0.052521735	-0.012586678	-0.001808227	0.020116182	0.030963378	-0.0027585595	-0.018693505	0.01655233	0.09543657	-0.056992635	0.03828065	0.023345895	-0.03636764	0.066187754	0.03673775	-0.031983394	-0.056600615	0.008286374	0.009329826	-0.039714172	-0.01866113	-0.02109327	0.02246269	0.013004446	-0.005982818	0.053825278	0.025552254	-0.017226025	-0.051092077	0.051005717	-0.051242437	-0.017465452	-0.028857626	-0.0265906	0.025644183	0.06252106	0.013000959	-0.03898104	0.015380058	-0.04422531	0.05053999	0.0039368924	-0.051646993	0.0253456	-0.08088549	-0.027439827	-0.025989462	-0.0041743456	-0.030882934	-0.0010142281	0.017794533	0.0056197615	-0.01479477	-0.037283473	0.00055570365	0.008310621	-0.019076133	0.007878595	0.055044338	0.027282838	0.038131297	-0.015172865	-0.0017397752	-0.05366353	-0.029137908	-0.014374973	0.003620439	0.044520695	-0.014120346	0.0018167946	0.029242452	-0.020065662	-0.05806006	0.01730057	-0.00435576	0.06093805	0.015498504	-0.017852051	0.018558633	-0.058624234	0.044400897	-0.013230884	-0.0007408463	0.019499958	-0.018283233	-0.013610798	-0.037799366	-0.044680793	0.024903147	-0.041729555	0.041552383	0.02690851	0.016827961	0.052970085	-0.0024498801	-0.045442004	0.0051260963	-0.019517051	-0.095808215	0.07943899	0.04220437	0.04798101	-0.023816163	-0.003937944	-0.0017569668	-0.035329934	0.07383421	-0.10012421	0.05152693	0.0055400133	0.007170087	-0.080606274	0.0485432	-0.017874815	0.01681916	-0.015447714	0.02661669	0.042598877	0.032591876	0.027668413	-0.061205845	0.01717435	-0.061858702	0.03496069	-0.006032696	0.019609192	-0.012179562	-0.016405992	0.009987933	-0.04181444	-0.015459527	0.024903854	-0.0044110417	-0.005628093	0.07620726	-0.06887961	0.042338114	-0.071031936	-0.0047992547	0.053444523	-0.029637448	0.0017191482	0.035371054	-0.011651295	-0.017652329	-0.021157892	0.0037399211	0.00018725712	-0.050829425	-0.026459308	-0.03217339	0.025044752	-0.01928626	-0.028549815	-0.046244785	0.017291164	0.05707344	0.0043355683	-0.016819417	-0.06808058	-0.04947444	0.0101812985	-0.002245308	0.002912431	0.012390239	0.019562036	-0.015686626	0.019960435	0.017078567	-0.00439062	-0.00656103	0.02537888	0.029291248	-0.06431108	-0.015174924	-0.08291318	0.0013087803	0.0118857175	-0.011573705	0.03715388	-0.059137143	-0.0047997353	-0.07795441	-0.077757284	-0.045491513	-0.044409577	-0.0053858934	0.019166442	-0.037886497	-0.0022617679	-0.013347901	-0.011844098	0.08126362	-0.04435505	0.02823095	-0.060105067	0.13297443	-0.07993803	0.015422941	0.0036954398	0.001378736	0.035176523	-0.099283	0.008186397	-0.0073181144	0.0030266042	-0.05720825	0.045096777	-0.008153611	0.02209395	0.025194306	-0.020304162	0.07175074	0.05921799	-0.021837054	-0.022453694	-0.006314663	0.040280413	0.03997683	-0.024019925	0.011127174	-0.021438727	0.020878898	0.050633956	0.041849673	-0.035575546	-0.013080114	-0.013451218	-0.049916748	0.0139445355	-0.07568302	-0.004957772	-0.004528683	-0.03114809	0.009553468	-0.033379696	0.018351223	-0.010801451	-0.04092015	-0.04201583	-0.004771515	-0.061703634	-0.010835574	0.032857038	0.031557877	-0.045074623	0.01138845	0.005364543	-0.016549166	-0.013199525	-0.03737822	0.027548982	0.03266099	0.01634918	0.01606344	-0.0062506995	0.013957933	0.03492879	-0.034756545	-0.015567904	-0.03469023	-0.0556244	0.023573512	-0.026833061	-0.03127806	-0.010398577	0.020817108	-0.009563015	0.028867269	-0.0142441895	0.01755971	-0.032146722	-0.013051504	0.048396513	0.013441294	0.00548218	-0.050066892	0.044433452	-0.041592643	0.046167627	-0.033404805	-0.01529177	-0.007999019	0.01286854	-0.079828404	0.06725738	0.019947253	-0.011691516	-0.045482285	-0.04109795	-0.059738353	-0.0639271	-0.109352894	-0.040165626	0.015036514	0.03564373	-0.011668897	-0.039587006	-0.018517755	-0.03558974	0.09983871	-0.039037585	0.0012635912	0.043590296	0.05140842	-0.0046620383	-0.0027162442	-0.0075886613	-0.0042500957	-3.810297e-05	0.029907474	0.058089208	-0.044833284	0.04248511	0.0043928153	-0.0016790292	0.054850783	0.026007395	0.076409906	0.04990042	0.0028834108	-0.03597055	-0.0029823857	0.011111578	-0.027264297	-0.066793755	0.008300856	0.041420467	-0.004490188	0.009857137	0.0068142656	0.084549434	0.040686198	-0.040863458	0.035559483	-0.031866744	0.021004118	-0.010215728	-0.035065316	-0.002100124	-0.026738757	0.014438125	-0.0065063625	0.018027984	-0.008689705	0.0010186868	0.009327879	-0.011790666	-0.00073354715	-0.049317595	-0.015341537	-0.060751166	0.008467377	0.015976407	0.020892404	-0.06858075	-0.02285064	0.0037034294	-0.034981538	0.04057191	-0.048386287	0.031457588	-0.0638321	0.0036286176	0.018592168	0.01873803	-0.034469724	0.06182999	-0.0042262673	0.079508655	0.012959296	0.016861185	-0.03226305	0.048450824	-0.019421633	-0.015891133	0.008457848	0.003038244	0.06930845	-0.008747204	0.00038794603	-0.021225784	0.08308063	-0.028799914	0.024851104	-0.053309828	-0.015780093	0.027845161	-0.015439863	-0.02440254	0.014071373	-0.03817265	0.041458603	-0.013174772	0.022124283	0.02263308	-0.037208565	0.037635762	-0.028115125	0.013799897	-0.034471102	-0.046748053	0.01687847	0.014281294	0.0116950665	0.00995137	0.031358708	0.049987707	-0.000117177115	-0.023785837	0.05367313	0.04000509	0.018818785	0.025902864	-0.01294816	0.025487412	-0.043514404	0.0094968	0.0024136517	-0.010815887	-0.02816184	0.07234103	0.052399408	-0.044195257	-0.00533772	-0.035105374	-0.020877684	0.0018810983	-0.027258491	0.006968313	-0.012981776	0.012558268	-0.010898183	0.0025983176	-0.027811192	0.014714623	-0.07440009	-0.04681863	0.04722946	0.06213485	-0.023192609	0.008490143	-0.086158745	0.073903054	-0.029010324	0.019522445	0.010917025	0.0016664658	0.009557459	-0.005590909	-0.008554693	0.025160858	-0.021178452	0.037092187	-0.068467155	-0.0016129239	0.017103912	0.03586757	-0.024469605	0.026221998	0.01548849	0.0037533552	-0.038730346	0.07631437	-0.00054640666	0.010480922	0.054229237	0.0048804544	0.008363269	0.009115046	-0.028599983	-0.036927063	0.028818704	0.0074029653	0.02119598	0.024854926	0.027946642	0.014181418	-0.008083309	-0.026950393	-0.021838749	-0.029210018	-0.054985363	0.0074257045	0.01649775	0.04230829	-0.0071316687	0.0006208796	0.026811266	0.00054749567	-0.043567866	-0.0244749	-0.058191963	0.04525402	-0.039450128	0.015349557	0.008164822	-0.0279211	0.05422389	-0.026185537	-0.033790532	0.01219427	0.009925398	0.002958878	-0.0009924877	-0.015216956	0.0030791888	0.038731977	0.051069643	0.036394164	0.0026142597	0.021627812	0.023092305	-0.002150013	0.02706056	0.04451627	0.021114394	0.011093984	0.083679825	-0.012087965	0.072715394	-0.026812397	0.0076071625	0.03793699	0.0013163596	0.050685786	-0.056789357	-0.10122135	-0.04398289	-0.051321235	0.0016426174	0.027448446	-0.021202857	-0.009358443	-0.033549007	0.031621363	0.03242113	-0.0095703835	0.0619789	0.0008802794	-0.011760561	-0.015657248	-0.009393501	0.06369576	0.014332502	-0.033591483	-0.039360695	0.05460565	-0.045952503	-0.019132897	0.04821189	-0.007495142	-0.027059533	-0.0095371585	0.022611948	-0.028212411	0.04000481	0.012670917	-0.040430564	0.018935358	-0.00036227217	-0.0031838126	-0.020842027	-0.024789391	0.032701444	-0.033503875	-0.02641282	0.05885516	0.014808909	-0.068368815	0.022390755	-0.03580351	0.0035216515	0.033033293	0.036007717	-0.028629346	-0.06826996	-0.030627532	0.05515355	0.031305928	-0.04049898	0.021170586	0.03615965	-0.0608158	0.042697474	-0.004042786	0.0032684486	0.028928597	-0.019531282	-0.011356681	-0.022486946	-0.0062549594	-0.025157074	-0.004897592	0.0018015451	0.03184706	0.0047622556	-0.021650713	-0.010691993	0.035429407	-0.09154504	-0.014957438	-0.00030746465	0.023237241	0.007872319	0.02109034	-0.0630649	0.013690059	0.014063423	-0.005425133	-0.025166105	0.060592867	-0.041284684	-0.025663698	-0.027684927	0.0015251994	-0.036924962	0.0075309076	0.007610137	-0.017361306	-0.101026274	0.03658262	-0.019770555	-0.02499799	0.020981664	0.0062845275	-0.06050716	0.057562295	-0.046110082	0.028452598	-0.032626487	-0.0022490667	-0.048205312	-0.09290591	0.03291851	-0.010570926	-0.012395798	-0.025309464	-0.00022078858	0.034452327	0.013256379	-0.0007638525	0.0040068594	-0.0006166689	0.030613445	-0.0493478	-0.008147223	-0.018090827	-0.009020158	0.01806484	-0.0007582169	-0.009158904	0.030538587	0.04053743	-0.04256867	0.027960058	-0.054223105	-0.050121013	0.06717584	-0.012093275	0.044347137	0.022447977	0.007932782	-0.020117344	-0.018512992	-0.046943422	0.018184334	-0.07779602	-0.012463522	-0.007214513	-0.012618901	0.08450797	0.0014179278	0.01596676	0.03373848	-0.040277388	-0.045658424	-0.07171084	-0.074908145	-0.041695766	0.06761506	-0.019042997	0.044495624	0.013689026	-0.009055374	-0.023208862	-0.05216629	-0.04926875	0.053691577	-0.0033978373	0.023332048	0.031731922	0.013796493	-0.034257308	0.033065345	-0.05194767	-0.005099802	-0.03426471	0.033281203	0.011511215	0.013246465	0.015395649	-0.053181045	0.053532433	0.021758929	0.016281575	0.032097675	0.042178772	0.0016490794	0.018417459	-0.030718062	-0.046493955	0.008664997	0.00919971	-0.020595593	-0.030181818	-0.007631245	0.017488742	-0.01150593	-0.038026586	-0.024416406	0.007822038	0.021721497	-0.02555061	-0.007970383	0.017628027	-0.08223794	-0.0069811107	0.02179939	0.04746429	0.003264529	-0.034356397	-0.01042085	0.010569883	-0.012285968	0.030943109	-0.0015331047	0.02150402	0.006343687	0.021449802	-0.045656636	-0.038425047	-0.001244246	-0.01941574
Peaceful	-0.017600803	-0.003449019	0.005428479	0.003906387	0.02019039	0.036648363	0.02203986	0.07320118	0.034413397	0.025169786	0.0047621396	0.05058704	-0.019353863	0.068856336	0.031213101	-0.01830855	-0.014391966	0.029991418	-0.044935495	-0.016740818	0.09690948	-0.016327152	0.059477333	-0.077460684	-0.088155486	-0.037391964	-0.008119685	-0.045063328	0.008565832	0.02352422	-0.0075640143	0.005528602	0.06890222	-0.032998234	0.027567742	-0.005927073	-0.027695354	0.04229982	0.021799494	-0.05324858	-0.037540883	-0.012745317	0.038921475	-0.00071476534	-0.03601375	-0.019817859	-0.018385794	0.0057490463	-0.007873527	0.06350387	0.028223809	0.027541216	0.0069422503	0.029266315	-0.040303707	-0.0039898166	-0.045999605	-0.019528149	-0.004494856	0.0566392	-0.019619746	0.048077	-0.0108094355	-0.027273765	0.021273725	-0.032210603	-0.029626308	-0.005166407	-0.0008712068	0.017912751	0.016305057	0.036353905	-0.06521815	0.00066300086	-0.005734019	-0.0318108	0.010286679	-0.030089557	-0.037791166	0.003626841	-0.033764135	0.017389582	0.061329994	0.023423012	0.034535892	0.00391664	0.041508205	0.008559004	-0.06360631	0.014041833	0.005782805	0.008049948	0.008987688	0.03871064	0.013259442	0.011645328	-0.0017789076	0.0123351505	0.041882724	0.07927446	-0.012522564	0.0011669975	-0.0023883537	-0.08575628	0.044462897	-0.0031974062	-0.008006017	0.0008457649	-0.013867619	-0.02706419	-0.030664176	-0.054576524	0.013664259	-0.020066455	0.015094431	-0.00549843	0.0238699	0.042984277	0.02890738	-0.004476237	0.010230961	-0.014176359	-0.0597566	0.05920406	0.059685227	0.019569216	0.019632805	-0.010284961	0.026459817	-0.06363552	0.08068835	-0.05828565	0.04685039	0.016976357	0.025179056	0.016373308	0.07205744	0.0024875917	0.033199754	-0.061480526	0.007020978	0.06214473	0.045303755	0.06275077	-0.03390251	-0.011029034	-0.027127365	0.05627744	-0.04574307	0.057516553	0.03203635	0.014355492	-0.0034605218	-0.01202065	-0.015146488	0.041860804	0.030528128	-0.06627432	0.010853595	-0.025934566	0.039619677	-0.06501358	0.03601835	0.045197073	-0.036718845	0.012576571	0.020311315	-0.050576814	-0.008896832	-0.023443842	0.008536161	-0.06543165	-0.043878686	-0.075712256	-0.019770851	-0.01427936	-0.011743101	-0.022870293	-0.05944155	-0.03911913	0.031956725	-0.005803831	-0.009433858	-0.060520355	-0.04757944	0.02889035	0.03043023	0.014840675	-0.035590272	-0.009529896	-0.03750282	0.006208459	-0.009079392	0.0342228	0.007502612	0.047866613	0.038077462	-0.09552091	-0.018384837	-0.02203827	-0.012483376	-0.025938671	-0.040902544	0.04680541	-0.010714017	0.024265835	-0.042537548	-0.08415686	0.02644675	-0.051735085	0.008048838	0.030428538	-0.03529112	-0.013780392	-0.052165568	-0.003613936	0.10230441	-0.01836571	0.04683779	-0.065348685	0.0771653	-0.0063384403	0.03878	-0.0053819637	-0.038105436	-0.018986415	-0.041436765	0.013710475	-0.018124698	-0.004218053	-0.050372995	0.016315816	-0.013475252	-0.0077999006	0.0039249375	0.008429573	-0.0097946	0.01306527	0.03560489	-0.006997916	0.001422425	0.056168597	0.029911099	-0.05012927	0.018711787	-0.011338155	0.048326507	0.049349368	-0.019583011	-0.031820923	-0.012914088	-0.0046105767	0.026971633	-0.0005631933	-0.06459755	-0.0533315	0.03184326	0.0080462685	0.007206162	-0.022333411	-0.017620917	-0.021777343	-0.044933412	-0.081607476	-0.015247023	-0.07970857	-0.006581104	0.035439815	0.10289687	-0.012095978	0.03762834	0.0018317403	-0.048734535	-0.018173747	-0.029783942	-0.01841501	-0.0022226498	0.07381877	-0.030133354	-0.036217537	-0.008864993	0.017268715	-0.015195025	0.0027837364	-0.024206027	0.00793666	0.05367095	0.051655214	-0.020204114	0.010113857	-0.026182683	-0.013680808	0.021567507	0.0016949878	0.008926343	-0.012377847	0.0111158	0.015023812	-0.005787138	-0.0041066534	-0.024838204	0.037486393	-0.04738032	0.03642216	-0.041148525	-0.01721806	-0.04538999	0.016845273	-0.055185404	0.020628003	-0.004320345	0.009005546	-0.041228924	0.011172905	-0.04540802	0.0062369863	-0.07092113	0.003770335	0.0341931	-0.0072125522	-0.032133818	-0.004655444	0.011703719	0.03211477	0.03693854	0.00012600237	0.014369962	-0.0020721129	0.027135145	-0.030247865	-0.019721875	0.0029227526	0.044347003	-0.05021897	0.04654132	0.040670194	-0.054977283	0.07360857	0.03990839	0.046771005	0.05853937	-0.0011396682	0.07566716	0.02891182	-0.04158138	0.007287576	0.051753525	-0.011048154	-0.020313006	-0.05478376	0.052231304	0.05457369	0.039677083	0.0013551838	-0.053837117	0.01073712	0.013461985	-0.020249711	0.02311392	-0.063663535	-0.002934936	0.062176168	-0.0485328	-0.0022641027	-0.03548746	0.023911178	0.026107853	0.026355937	-0.029702114	0.0032696333	0.005906575	0.044208482	-0.013855772	-0.0077120084	-0.026351726	-0.042692207	-0.030790564	0.0010026088	0.0064977445	-0.046638023	-0.03510424	-0.03463885	-0.048174642	0.029772026	-0.0380749	0.021035392	-0.059116986	0.013187914	-0.0071281595	0.0715864	-0.044878665	0.02739161	0.008586728	0.054776497	0.039755274	0.050324958	0.03872117	0.05774849	-0.0141675845	-0.0072918106	-0.007865366	0.01126131	0.09368898	-0.034907896	-0.0017536773	0.0054299566	0.033938114	-0.029917873	0.032343116	-0.009563681	0.0033417558	0.020746615	-0.029303202	0.025254406	-0.039045118	-0.028049655	0.024196964	0.0006989704	0.016431762	-0.017891446	-0.03262405	0.035647586	0.043338563	-0.03901668	-0.057990264	-0.05984995	0.038473282	-0.04330831	0.018229432	0.04742843	0.014674507	0.033350673	-0.0068461183	-0.020827401	0.02543411	-0.018482057	0.015700402	0.024208367	-0.0042181555	-0.0024621028	-0.03487415	0.045135852	-0.02839012	-0.0066585676	-0.011749266	0.04692403	0.03932566	-0.019572709	-0.0017548853	-0.013989469	0.013166539	0.04594951	-0.04193359	0.014319903	-0.024093404	0.004208961	0.03282622	-0.042362034	-0.013025333	0.004518654	-0.0001110435	-0.030399581	0.025810476	0.072854616	0.01176878	0.0099045355	-0.0040150383	0.073083945	-0.058477275	0.021927767	0.018150922	0.039181933	-0.004198608	-0.00023417425	-0.0018710763	0.051940423	0.0034893304	0.040784124	-0.031584963	0.013597488	0.033845782	0.031559348	0.009224285	0.011353487	0.025940852	-0.004701969	-0.054278843	0.024845207	-0.0072765974	-0.0033968114	0.008392273	0.010424487	0.007430736	-0.06108597	-0.04703097	-0.013395069	0.014604615	0.011592816	0.038574252	0.026562653	0.025519388	0.0055962126	0.018103998	-0.015142354	0.042381376	0.0021647227	-0.017961806	-0.00069657725	0.07647872	0.029491905	0.09447794	0.015219	0.0040487344	0.037416972	-0.00025716226	-0.0037380015	-0.08266423	0.096322194	-0.026006626	0.024218852	-0.04507053	-0.08694602	0.08733585	0.0056790416	-0.03400318	-0.011395744	0.014154824	-0.02703394	0.030167338	-0.05565246	-0.048732806	-0.0044337837	0.031359505	0.015246506	0.0037557797	-7.205144e-05	0.004792731	0.043483824	0.049425624	0.032817528	0.042038154	0.024216533	0.033263218	-0.00022758092	0.035749737	-0.003068116	0.01597506	0.0045651053	0.0049352753	0.04757801	-0.029685266	-0.034060817	-0.049307022	-0.036621064	0.02345271	0.018904755	0.04836339	-0.044960506	-0.04740099	-0.00550773	0.01112966	-0.03386402	0.057066772	0.011647942	-0.014191886	-0.040768318	0.0173652	0.09120781	0.03341589	0.04728023	-0.01957733	0.03735359	-0.010973005	-0.0291936	0.04638866	-0.009655142	-0.036968023	-0.0043807686	0.0071392274	-0.0013954978	-0.011850965	0.016148347	0.0002744145	-0.02634859	-0.015598333	0.013760643	-0.0037546337	-0.044480704	0.06973808	0.026037188	-0.024341637	0.06308325	-0.013413004	-0.022739671	0.005639368	0.043638997	0.0015908793	0.043363187	0.016981244	0.0064853304	-0.05380185	-0.007457146	0.050229296	0.042338666	-0.04134128	-0.008606469	0.013107658	-0.10977721	0.028517285	-0.032440573	0.00862695	-0.0058053955	-0.009747971	-0.02747556	0.004136539	-0.0013315342	-0.004138533	0.0055232462	0.039791808	-0.033051018	-0.00012722085	-0.04683584	-0.0146865025	-0.03756464	-0.062382277	-0.05683244	-0.035908487	0.019774808	-0.05585783	0.059762545	-0.06594849	-0.00842133	0.007391632	-0.05348565	-0.024908897	0.071202084	-0.005131932	-0.028130589	-0.019696176	0.012318841	0.012768021	-0.02420994	0.059880476	0.013829609	-0.10433499	0.04596341	0.029462611	0.009628533	0.00096341834	0.05313076	-0.063835524	0.015092746	-0.06393721	0.057252724	-0.0050378754	0.0032094938	-0.034002207	-0.037393622	0.06821477	0.034891997	0.0032919433	-0.058660127	0.036530532	-0.010824776	-0.03294771	-0.023863748	0.016490841	0.03963112	0.040183213	-0.009304698	-0.05467185	-0.00021802833	-0.008159052	0.043056626	-0.05944425	-0.015544848	-0.014469819	-0.026009317	-0.023347534	0.02722152	-0.03537111	-0.00830454	0.059613608	-0.007119982	-0.04083835	-0.012138188	-0.0026004168	0.02239167	-0.032285187	-0.0313872	0.019609384	-0.05724564	0.0028514974	-0.008001121	0.045062806	0.047285832	-0.007276518	0.02983515	0.022108234	-0.041336257	-0.0047208043	-0.06483959	-0.055618647	-0.11073378	0.06829825	0.01482342	0.021241274	0.0072199167	0.028637724	-0.026246727	-0.051884346	-0.036023	0.028890805	-0.02306756	-0.053046558	0.015433211	0.012981534	-0.022383647	0.006882741	-0.02686489	0.0035966053	-0.04305744	0.014529507	0.024226252	0.07002718	-0.010280135	-0.07736277	-0.016368343	0.0053917323	0.024598325	-0.005203418	-0.01125715	0.025833389	0.021666477	-0.020720445	-0.055107053	-0.012746258	-0.040418584	-0.005344649	0.008249197	-0.03910322	-0.0060161687	-0.015939351	-0.010014483	-0.027181434	0.05591194	0.011406331	0.06597726	-0.026545247	-0.03554273	-0.04168734	-0.029092237	0.016784236	0.04665861	0.010309146	-0.01944708	0.051699303	0.014152304	-0.0060467697	-0.047456354	-0.027861034	0.046985652	-0.0033521014	0.06923241	-0.028932635	-0.02430473	-0.030821744	-0.00037489005
Content	-0.088036716	0.08995913	-0.026678769	-0.06950928	0.058289327	0.009895873	0.022173848	0.009633705	0.036746345	-0.03258577	-0.027390284	0.005129387	-0.00785949	-0.030257426	0.0006079822	-0.07891231	0.047460537	-0.0026018273	-0.08769818	0.006176482	0.024671381	-0.028531939	0.003680054	-0.035434227	-0.025615491	-0.005202727	0.067965806	-0.01105349	0.023234727	-0.007352483	-0.034839578	0.06785578	0.019680452	0.011330847	0.108763225	-0.037698764	-0.07187858	0.038437173	0.06822043	-0.047233906	-0.042567257	0.064142734	0.0062912307	0.011330611	-0.022100994	0.02706422	0.11794457	0.045403868	-0.030688947	0.070782736	0.012855737	-0.01899003	-0.018053249	-0.017192729	-0.04236755	-0.027422372	0.013509588	-0.025062686	0.014257625	-0.015189434	-0.01944462	0.006319112	0.010745753	0.0054693297	0.0123554105	0.011795893	0.015381363	0.0046881214	-0.08250826	-0.019140897	-0.010887976	0.031630844	-0.044005156	0.016046932	-0.010294769	-0.0064084656	-0.046734393	-0.044711143	-0.031351767	-0.016292857	-0.0197906	0.05014125	0.060559753	0.04891117	0.011984166	-0.008322365	0.073512144	-0.05085607	-0.10228459	-0.020297267	0.07746069	-0.0047325487	0.025398184	0.038298473	0.03801104	0.010889432	-0.08166487	-0.03302317	0.024557907	0.09666303	0.015448016	-0.027689392	0.039085973	-0.043798797	0.06698487	0.016122451	-0.0019361196	0.034041774	-0.046905875	0.030947495	0.059873406	-0.029815536	-0.021898845	-0.017515015	0.031405915	-0.008343428	-0.001298052	0.008884774	0.0022919462	0.011728968	-0.03224349	-0.029775811	-0.05711597	0.026812144	0.02174401	-0.041153524	-0.0045110565	0.0065730866	-0.01820866	-0.013445511	0.06993223	-0.08548359	0.04144807	0.006083069	-0.023741445	-0.03746872	0.014203236	-0.04035807	-0.03973244	-0.053321864	-0.050581023	-0.014420441	-0.029613983	0.047383282	0.0019116468	-0.068755575	0.03119592	0.0362221	-0.04793393	0.003070027	-0.054866247	0.0068011777	-0.06279887	-0.01112035	-0.05383826	0.009938339	0.033705186	-0.12358356	0.03589473	0.010505861	0.05672668	0.009906824	-0.00829109	0.016338166	-0.041329052	-0.020529814	-0.031727478	-0.029679433	0.006242666	-0.03514464	0.00949587	-0.04027011	-0.05086248	-0.081554346	-0.0051602987	-0.0146190785	-0.0010919533	0.030088836	-0.015565644	-0.009577387	0.08266931	0.024835538	-0.013796152	-0.005698223	-0.045234	-0.014721944	0.013773721	-0.017373782	0.028380869	0.014479092	-0.029580105	0.008400974	0.012463608	0.04280394	-0.032980178	0.058209773	0.021562776	-0.047827903	-0.009368771	0.036816325	0.026083656	-0.03808668	-0.046024237	0.0029497452	-0.010458334	-0.03132465	-0.058063008	-0.051430695	-0.032571387	-0.035963938	-0.0044249506	0.031151447	-0.058834385	-0.07183345	0.011168251	0.010194819	0.084718026	-0.0045552533	-0.010872654	-0.008945231	-0.010592174	0.0043271794	0.03733713	-0.01574134	-0.009487546	0.0938343	-0.0040334044	-0.031708308	-0.031224644	-0.0063356757	0.0010288144	0.008381706	-0.002400159	-0.03587888	0.027738871	-0.009578484	-0.0013400842	-0.01399437	0.030233521	0.040996257	-0.015853213	0.08294118	-0.016208062	-0.010868143	-0.009465521	0.01644571	0.04078844	0.06076324	-0.006563935	-0.05003105	-0.048520982	0.04884494	0.039953105	-0.016735837	-0.041719254	0.06166191	0.03979712	-0.025092779	0.013498524	-0.03212223	-0.0019080022	-0.023289448	-0.055671874	-0.022854332	-0.05812995	-0.037523083	0.024061779	0.016586162	0.027590001	-0.024095483	0.008965833	0.05664436	-0.06954135	-0.007519169	-0.036945198	0.013123312	-0.0045680734	0.023529591	-0.033465717	-0.028628152	0.08935724	0.012272728	-0.03745979	0.046664856	0.021214552	0.0071214456	-0.017222457	-0.017751992	-0.0061568897	-0.05261834	0.049572453	-0.019243414	-0.0049633454	-0.018987833	0.020549519	-0.03172601	0.030670365	-0.0022055956	0.03813719	0.019957542	0.021345256	-0.0058084694	0.0046795323	0.012536325	-0.002090798	-0.0052399104	-0.027267454	-0.056964237	0.0110993255	-0.021042375	0.04502885	0.036740888	-0.022923166	-0.03461054	0.0068500126	-0.025735002	-0.13661359	0.029857239	-0.058392487	-0.0506101	0.0047732955	0.0063212863	-0.030148698	0.024761323	0.04420692	-0.023298316	0.060576834	-0.02652086	0.011068163	-0.014613843	-0.015993854	-0.019524768	-0.010091169	-0.033764955	0.0251438	0.00828719	0.005493128	0.03598802	0.07853488	0.030250212	0.060371745	-0.016564164	0.036746446	0.026408894	-0.055147354	-0.05309669	0.03796313	0.02169524	-0.0003396822	-0.04174991	-0.0023182381	0.025357962	0.038332276	0.004675186	-0.0055204695	-0.024388501	0.019123195	0.0049921637	0.0464354	-0.0028367788	0.00484006	-0.04680161	-0.0020815085	0.0131499	0.008230796	-0.02498436	0.014686455	0.07033447	-0.0052306657	0.015351369	-0.0051705358	0.046899103	0.0016730814	0.036570646	0.041602254	0.016280307	0.006971252	0.024181483	-0.018813692	-0.070171624	-0.0019951665	-0.032188624	0.030557333	0.037086815	-0.033876866	0.025569882	-0.039928634	0.029086525	0.021344032	0.0013374154	-0.069479495	0.035035316	-0.01013022	0.06446262	-0.025628714	-0.03953542	-0.045079447	0.017887797	0.06963416	-0.003045423	-0.004265335	-0.026980707	0.05019409	-0.02171574	-0.01855671	-0.014873766	0.08089212	0.0015888466	0.0634858	-0.03901243	-0.0031309654	0.010248587	0.01863765	-0.023115437	-0.010557069	-0.007638524	-0.032775477	0.040073972	-0.00020663526	0.0054232846	-0.009742643	-0.027534716	0.003158693	0.00071633974	0.04366379	-0.055419646	-0.046216637	-0.04848949	0.046469178	0.0023732255	0.020304423	0.043249413	-0.026945876	-0.014255066	-0.026196685	0.028085614	-0.013133866	0.0010411317	-0.016579509	-0.008271976	0.010096589	-0.0062047252	0.049716566	0.03474562	-0.010970532	0.007233073	0.0460148	-0.0004904845	0.022672752	-0.024495106	0.017495371	-0.016796958	-0.006189548	-0.0216028	-0.048275538	-0.021146843	-0.010337883	0.022670357	-0.04128042	-0.008296178	-0.025314847	-0.026500301	0.04223436	0.0339238	0.026996177	0.014391358	-0.026971126	0.0133180125	-0.0071367575	0.042148	0.015090359	0.015329219	-0.025815425	0.04444241	-0.051691025	-0.03153265	0.000853505	-0.039617244	0.021257779	0.011454934	0.00426228	0.04650946	-0.005466864	0.040316243	0.105761945	-0.039186053	-0.025232017	0.009536651	0.039763086	-0.011066808	-0.00789618	0.049108803	-0.0011977375	0.021191103	-0.026209919	-0.026803907	-0.023279449	-0.006165338	-0.02488562	0.035868242	0.11994276	0.022218972	-0.010685423	-0.057352934	-0.017958004	-0.057960935	0.0034757648	-0.052600488	0.03112642	0.041896064	0.025235064	0.027542964	0.046207618	0.010509034	-0.024591513	0.0047989353	-0.05379494	-0.029322814	-0.054359965	0.048024796	0.014026492	0.003398584	-0.008419096	-0.036854286	-0.013125872	-0.03028422	0.0053295577	-0.08704297	0.0052502733	-0.02755892	-0.047083747	0.14111717	0.0472308	-0.0043694167	0.00150031	0.0005678105	0.013464945	-0.0132837435	0.0039026665	0.01901087	0.042918693	0.017252238	0.04620539	0.012468229	0.04076459	-0.018237976	0.06908467	-0.026165826	-0.0076106302	0.08703487	-0.008434039	-0.046318226	-0.000874878	0.012464753	-0.024725638	-0.023255233	-0.009340427	-0.03008375	0.01776325	-0.045865912	0.036587723	-0.011929952	-0.010968901	-0.038919825	-0.004186178	0.0076703774	-0.019209228	0.029208893	0.03248434	-0.001866077	0.019478235	-0.03819546	0.03878055	0.020410845	0.013730402	0.007906789	-0.0011040276	0.0028450273	-0.008179098	-0.035725195	0.015947122	0.0451568	0.096683085	0.010574512	-0.00347068	-0.024093289	-0.040466204	0.007279923	-0.013583669	0.032612756	0.046602514	-0.008978496	-0.013990355	0.02111701	-0.011545546	-0.035451006	-0.061140023	0.039576814	0.0015415938	0.04586797	0.0005424553	-0.010499953	0.015255506	0.0013246429	-0.003745284	0.039449945	0.0045884955	-0.011679237	0.0063500833	-0.014675946	-0.0055598184	0.05613329	-0.011011372	-0.06666171	-0.023954546	0.035849806	-0.034528367	-0.019507034	-0.03164894	0.04024621	-0.02450921	-0.008958379	-0.025064664	0.0057939515	-0.022812007	0.06666142	-0.019413514	0.03738828	-0.01775206	-0.0049328962	-0.033850588	-0.0048617753	-0.003432061	0.011984047	-0.060826622	0.025235811	-0.020033052	-0.03263798	-0.020250782	0.017428063	0.023568844	-0.0075926357	0.007171157	0.020931272	0.0029124282	0.041975196	-0.040503014	-0.011370403	0.035773546	0.041265804	-0.035707723	0.0688428	-0.0032166508	-0.043713298	0.0009439084	-0.045295577	0.013862026	0.014120261	0.03629001	0.0076089916	-0.053597156	-0.027785383	0.011359706	0.026524207	-0.0072402502	0.0046557407	-0.091145575	-0.010912307	0.023940517	0.012611078	-0.03466835	0.020096874	-0.04290505	0.04735158	-0.026564678	0.02413965	-0.0036691132	-0.037246764	-0.0024256925	0.0221084	0.005001266	-0.019516893	0.038731597	-0.044731688	0.016022101	0.047629334	0.062732495	0.02396679	-0.025991369	-0.0006042693	-0.053369552	-0.05978062	-0.071000166	-0.0069281263	-0.036200795	0.023124011	-0.017044332	0.022794407	-0.02445635	-0.01739452	-0.049772896	-0.018398793	-0.04178726	-0.007820821	0.026235785	-0.02013823	0.04919812	0.00077985553	-0.08948048	-0.01652903	-0.061665554	0.036712885	0.030965673	0.021644244	-0.001766866	0.04378557	0.026362685	-0.053491447	0.06883948	0.014903877	-0.066849485	-0.03614905	0.051451273	0.05982307	0.00078376353	0.015008875	-0.037740827	0.02519812	-0.009604117	0.032882728	0.009946665	0.004033897	-0.064830534	0.042227592	-0.003271302	-0.020476077	0.037067555	0.029852916	0.009392723	0.011724645	0.0060124462	-0.033848025	-0.0106309485	0.00539122	0.007574327	0.00080233254	-0.027970115	-0.0760173	-0.024520027	-0.0072663245	-0.031683583	-0.005155455	0.029129134	-0.013109728	0.05640507	-0.028389854	0.030724	0.011141426	-0.0019767336	0.04189012	0.012756611	0.033570975	-0.03620475	0.022726	0.00386593	0.0017436127	0.0020185793	0.026204329
Serene	-0.014565986	0.006315712	0.052581646	-0.03123859	-0.020620085	0.04114583	0.01213722	0.049872514	0.009471754	-0.013715814	-0.00652125	0.05005639	0.023736823	0.011297906	0.021657707	-0.048404034	0.00802214	0.03465769	-0.048310168	0.0067662443	0.07445989	0.031722493	0.049806744	-0.082698286	-0.06017383	-0.010795661	-0.011626646	-0.039761227	-0.009705044	-0.0019529035	-0.028048374	0.018785201	0.05082471	0.011804958	0.026836198	-0.011256271	-0.015856864	0.0039733844	0.040359545	-0.050432216	-0.030196076	0.03082368	0.047105547	0.011348804	-0.021326726	-0.019274693	-0.025071295	0.019969704	-0.030838337	0.021034474	0.022903504	0.013501038	-0.028642116	0.018229607	-0.009162772	-0.042810332	-0.030637097	0.012079365	0.005212522	0.08093688	-0.03649693	0.008195744	-0.004755461	2.4488438e-05	0.03297604	-0.06567348	-0.005903416	0.011997126	-0.00079101487	0.050444175	-0.006045991	0.065981835	-0.06062495	-0.009288767	-0.0013156381	0.020118069	0.004851649	-0.016934242	-0.04108527	0.057703294	-0.0028836827	0.03914293	0.06251188	0.029045276	0.004827788	0.012169558	0.008275478	-0.030631777	-0.08283983	0.015398543	-0.028231986	0.04723739	-0.02987624	0.062202998	0.00091760646	0.021162119	-0.039750326	-0.03630422	0.016176956	0.06498867	-0.012852879	-0.0016563273	-0.008049443	-0.040555697	0.059357073	0.0073077497	-0.032037206	-0.0063633616	-0.01581653	0.011933141	-0.023006938	-0.050310805	-0.008223512	-0.054290578	0.03974451	0.031737525	0.023846451	-0.0031038986	0.024783548	0.031498976	0.020333223	0.0017384059	-0.0926292	0.068272956	0.06379105	0.028242884	0.021710314	-0.021104908	0.032276597	-0.043358847	0.050087307	-0.049654413	0.037568223	0.03465302	0.041498844	0.01692879	0.078464344	-0.013748479	0.029956684	-0.028892778	0.009078537	0.036248624	0.016408438	0.056346074	-0.025995873	-0.0196304	-0.020608671	0.04266375	-0.055190478	0.0378217	0.02003001	0.010988798	-0.0057302616	0.013746639	0.04139419	0.06812695	0.040271677	-0.004543673	0.0009085531	-0.05441292	0.05178453	-0.07350394	-0.0023812933	0.09678124	0.0075679757	0.0216868	-0.026958749	-0.059187036	-0.020423187	-0.0012833017	-0.0067351316	-0.066640764	-0.019831356	-0.073658526	-0.062016543	0.021729214	0.01098253	-0.014377618	-0.055449124	-0.015360365	0.037107002	0.008898448	-0.018333698	-0.06504483	0.0036208392	0.01744595	-0.01731083	0.01831397	-0.011968087	-0.0036015578	-0.03535644	0.019262988	-0.0134731475	0.05771423	0.02615766	0.011620106	0.039621983	-0.056774847	0.010213053	-0.052425884	-0.0238424	-0.0016355491	-0.02246532	0.0787709	-0.0053972937	0.031838033	-0.04208522	-0.07377063	-0.0063508917	-0.05205126	0.032653533	-0.009282228	-0.032201733	-0.052648775	-0.016749995	0.008059557	0.07235167	-0.05749263	0.07208145	-0.06510327	0.05287083	-0.03601533	0.06197617	-0.009868483	0.018847235	0.009366461	-0.0642772	0.0111091295	-0.02415927	0.0002426158	-0.041920237	0.019922117	-0.025503777	-0.026535999	-0.0018939241	0.018505877	-0.007796687	0.028919514	0.06683732	-0.0029032875	0.005548556	0.018704088	0.045764018	0.00045526915	0.0034536426	0.035317995	0.044205155	0.046977587	-0.015543734	-0.017217798	-0.024432087	0.0022274551	-0.006862721	-0.01803936	-0.0655185	-0.090555884	0.037690382	-0.028926577	0.010313294	-0.010287036	-0.027323058	-0.0313038	-0.0039369063	-0.07691254	-0.03719297	-0.08481431	0.01507709	0.018217715	0.080935664	-0.02852382	0.044854663	0.010523361	-0.0042912806	-0.003209891	-0.017509546	-0.0025121418	-0.031849056	0.037510242	-0.048624873	-0.02304403	0.034358747	0.031685203	0.030287053	0.019528857	-0.023278037	0.011389092	0.017547294	0.10205531	0.0057781306	0.028450364	-0.012019376	-0.018903255	0.022873852	-0.0027154363	0.024828257	-0.044028446	0.008912917	0.04468491	-0.008605104	-0.0002840888	0.03096941	0.012837981	-0.0061990116	0.050271843	-0.07713114	0.009186039	-0.05773869	0.020794766	-0.067269884	0.011881454	-0.007786666	0.032353166	-0.026594073	0.005223796	-0.03938891	0.019467277	-0.10964734	-0.0030042315	0.004506133	-0.027325435	-0.039564583	-0.0007656022	-0.034972433	0.044289507	0.034990788	-0.024453815	0.020873532	0.0044326065	0.012169895	-0.026812717	-0.017071286	0.0058632707	0.056965485	-0.04435712	-0.003013925	0.05670753	-0.024202127	0.07982545	0.021830123	-0.0197082	0.041974876	-0.048814133	0.071027376	0.04739823	-0.024631005	0.001024939	0.024350636	-0.0026060652	0.005107686	-0.047890615	0.030070521	0.02092527	-0.007704428	-0.013734939	-0.046656586	-0.009096248	0.056877106	-0.03790977	0.036555987	-0.07320004	-0.015139547	0.06992761	-0.023411319	0.0019727608	-0.013137718	0.030130873	0.020261759	0.025139514	-0.028693773	0.0015014621	-0.0047519924	0.016082883	-0.030355036	-0.022537379	-0.056758683	-0.008727263	-0.014447805	0.024519775	0.0029687616	-0.052247785	-0.023613058	-0.044587433	-0.016838087	0.034175217	-0.06335412	0.027877629	-0.07164607	0.0450766	-0.0033222912	0.033038333	-0.03504674	0.0144009385	-0.00373286	0.08219054	0.041095987	0.07501934	0.024279514	0.06725909	-0.020309934	-0.00316388	-0.019452522	0.0056663207	0.09140037	-0.023241816	-0.0061274692	-0.000100367	0.048472397	-0.030463398	0.024908079	-0.011439461	-0.0010231858	0.020591129	-0.101421416	0.0415596	-0.06616753	-0.03726598	0.027209345	-0.03465998	0.029901272	-0.024516298	-0.02651951	0.02341298	-0.005712516	-0.0028615	-0.02701088	-0.09169924	0.008090352	-0.026007306	0.012317928	0.04780606	-0.005718686	0.023187079	-0.040917274	-0.0024904471	-7.3742003e-06	-0.005816303	0.03218894	0.0020511246	-0.0056077167	0.030747807	-0.0557104	0.018597187	-0.015384049	0.0057347286	-0.018831026	0.0061114104	0.038090162	0.01864082	-0.017975558	-0.01703289	0.0034833404	0.03953132	-0.016062962	-0.008207002	-0.042845786	0.017574595	0.027900873	-0.0034140144	0.027805446	-0.017064	0.0018679812	0.011601811	0.054451443	0.073573016	0.020680593	0.0056372196	0.004598049	0.08374927	-0.075885355	-0.0056488477	0.022904476	0.036670353	0.03791582	-0.025137825	-0.036755662	0.010787433	-0.043066002	0.013835707	-0.021650601	-0.010950703	0.010842457	0.041976362	-0.012900588	-0.0049051135	0.03235117	-0.0067046355	-0.022384701	0.027785756	-0.0030031933	-0.017114349	0.01382085	0.012710802	-0.041991144	-0.018282207	-0.019261412	-0.016299017	0.022285225	-0.012885645	0.028551769	0.04597047	-0.004393613	0.016069645	0.037865978	-0.03304172	0.03378791	0.025816336	-0.030193994	0.0041196244	0.06353518	0.034766138	0.08306695	-0.01512132	0.0134346895	-0.018125439	-0.0051122154	-0.03723618	-0.06521847	0.030909624	0.014262249	0.02530439	0.0066950186	-0.05466666	0.1114242	-0.004632474	-0.020092847	-0.024517734	0.01805703	-0.038286775	0.013544169	-0.057509884	-0.04362903	0.026812514	0.047182888	0.019848248	0.0172982	0.006801928	-0.03152046	0.041860897	0.006647316	0.037987176	0.034080036	0.054296013	0.044713534	0.029478503	0.023578329	-0.0036080747	0.0017854283	0.023733381	0.0033157803	0.06592623	-0.027684448	-0.059103556	-0.031716853	-0.032482807	-0.012240754	0.05332334	0.050747834	-0.024908928	-0.04412111	0.008546328	0.019367894	-0.048501164	0.023162212	0.010307792	0.022973971	-0.027169049	0.018602185	0.071902536	-0.010432051	0.0020550014	-0.02952889	0.028537909	-0.013633467	-0.045856882	0.01864702	-0.01523052	0.0008870589	0.030359343	0.007063279	-0.026464585	-0.046252888	0.0022729218	-0.01669661	-0.053177644	-0.026100494	0.008594251	-0.016951855	-0.037733506	0.025709778	-0.03468895	0.0014526722	0.03180351	-0.012760889	-0.028800983	0.018628823	0.04297963	0.024289956	0.020662807	0.027046058	-0.011570234	-0.036452502	-0.026581997	0.03330387	0.05591005	-0.022088435	0.043876223	0.018876918	-0.085315004	0.029417023	-0.028124154	0.056904208	-0.005851147	-0.0067904047	-0.015610086	0.022102967	-0.022199497	0.019201325	0.0057660835	0.008784553	-0.02500872	0.015770158	-0.003810716	-0.060413327	-0.031303834	-0.060026124	-0.027503265	-0.021641403	0.04390507	-0.031103222	0.053364106	-0.030245697	-0.018246716	-0.028181044	-0.05181034	-0.035346866	0.027056826	-0.0048972215	-0.01016606	0.00019391961	-0.02094282	0.036774524	-0.008159419	0.035004828	0.050329316	-0.079397686	0.019862976	-0.013285262	-0.00036419905	0.0559011	-0.00982017	-0.0733064	0.065319106	-0.065907076	0.08360778	-0.0022473226	0.008352354	-0.0042713266	-0.038861256	0.03798088	0.064874075	0.0113525875	-0.0548505	0.01821276	-0.0027914145	-0.018470727	0.0063065523	0.0031118111	0.023475805	0.05378276	-0.021043107	-0.030002331	-0.008710944	0.007979914	0.056946468	-0.05221689	0.014524045	-0.01333017	-0.0335236	0.007601331	0.008898677	-0.040887784	0.017144267	0.038723983	-0.009081794	0.017194415	0.0538529	0.010723305	0.0017692386	-0.0060057165	-0.017988397	-0.023738053	-0.018603522	0.0077012675	-0.0152652925	0.03650865	0.073882915	-0.0033138974	0.032415114	0.011377913	-0.04377196	0.0073998277	-0.07898457	-0.02862017	-0.104189575	0.086879104	-0.008760854	0.06461747	-0.010245963	-0.028005445	0.0040164827	-0.0775142	-0.0103453	0.042112138	0.011129175	-0.014736767	0.013658214	0.0073298984	-0.011992399	0.014247466	-0.04223451	-0.02302968	-0.042320948	0.02913174	-0.0035648232	0.049359426	-0.0016236848	-0.077676184	-0.042841624	-0.035882436	0.07003257	0.007876093	-0.007910494	0.014230241	0.019171907	-0.035235997	-0.06405405	-0.015944274	-0.061702468	-0.007768568	-0.0066833994	-0.034129225	-0.01905151	-0.041752227	-0.002049739	-0.0571027	0.04372798	0.05217048	0.032208756	-0.024351314	-0.00544303	-0.06460098	0.028849222	0.008453486	0.046468418	0.018916177	0.0048933644	0.018582148	-0.0052297423	-0.0057118023	0.0182231	-0.052843783	0.03313554	-0.027974585	0.03353877	-0.029101454	-0.025423523	0.018511841	-0.00905698
Calm	0.0062264865	-0.039565958	0.028956763	0.0006721081	0.04292082	0.07297279	0.06298002	0.09292367	0.040814705	0.0069969734	0.007912117	0.035269927	0.023518942	0.05041042	-0.014192247	-0.040774554	-0.0017814767	0.025737617	-0.038234606	0.008748301	0.093638256	0.007599333	0.020152962	-0.057768337	-0.07319884	0.0042464077	-0.022570774	0.0007625564	0.003179147	0.025966799	0.00720917	-0.016389582	0.050978616	0.02381138	0.030112326	-0.0038325004	-0.024509488	0.062712796	0.01296998	-0.03395375	-0.033927865	-0.017284716	0.046019334	-0.00036878255	-0.008936	0.014998631	0.023919206	0.015780939	-0.017566266	0.00052971835	0.045610514	0.058756612	-0.028514989	0.010032494	-0.029664975	0.017566975	-0.059819832	-0.0045979703	-0.0118477335	0.056169134	-0.028628249	-0.0025783193	0.016727742	-0.006376176	0.042678505	-0.10061221	-0.03340571	0.003754811	0.008777636	-0.00894757	-0.018909607	0.027692134	-0.07391331	-0.0456621	-0.011057049	-0.067463	0.01250775	-0.022857547	-0.026921447	0.044044238	-0.036567897	0.0052287006	0.08170545	0.05062989	0.04264236	0.03553898	0.0152942715	-0.018043268	-0.08573643	0.004851126	0.032652088	-0.0007694277	-0.028460817	0.017302273	-0.008655772	0.014422755	-0.05331935	-0.01780767	0.032097433	0.04210621	-0.01195083	-0.0067313835	-0.0021060447	-0.06524734	0.01655764	0.040749654	0.015512636	-0.049917124	0.0014238112	0.013512619	-0.01125675	-0.0132636605	-0.01740125	-0.033423286	-8.7198496e-05	0.036619484	0.02975397	0.036328074	0.046177186	0.0030297386	-0.018941576	0.004139762	-0.054525133	0.045503486	0.054650456	0.016424613	0.010051654	-0.012296399	-0.017139569	-0.018265534	0.052121647	-0.03813858	0.03538685	0.036487594	0.056096025	-0.0011218617	0.06427461	-0.019134792	0.029334102	-0.012590601	0.02679859	0.0037493922	-0.014842674	0.06790704	-0.0299918	-0.02992048	-0.015870327	0.04197342	-0.055716854	0.03388265	0.022236338	-0.0006275945	-0.011396312	-0.012694884	0.023214879	0.027169714	0.008273049	-0.037084173	0.039013244	0.004904767	0.0023336457	-0.078701034	0.02654885	0.04333499	-0.012848579	0.02885524	-0.023154918	-0.018366065	1.6001735e-05	-0.05086984	-0.016159406	-0.055149514	-0.02023119	-0.078132406	-0.046446245	0.020488145	-0.014823707	-0.047569282	-0.058421418	-0.02289587	0.017195938	0.014218138	-0.008885823	-0.10849113	-0.032205414	0.019977378	2.9700697e-05	0.016159102	0.010827834	-0.008944566	-0.06744091	0.008677961	-0.007886166	0.043586235	0.011136064	0.042682935	0.025318148	-0.06790412	0.008213295	0.008126906	-0.012359984	-0.024297789	-0.047137767	0.05321014	-0.04336183	0.008315093	-0.0254176	-0.07879982	0.07095475	-0.019245023	0.04235193	0.021326575	-0.010903177	-0.042260736	-0.011167281	-0.027030986	0.05443443	0.0029956931	0.0482983	-0.082795784	0.066263475	-6.6203625e-06	0.096511975	-0.046906516	-0.011423392	0.04855995	-0.081883356	0.03315298	-0.016563628	-0.012944163	-0.041577686	0.042630255	-0.01244493	-0.02379233	0.030522328	-0.04170134	0.010620207	-0.010764971	0.06283941	0.033557862	0.016509727	0.06950262	0.008029691	0.012427966	0.020755466	0.00754206	0.054548543	0.006457539	-0.03270292	-0.031468704	-0.013825219	-0.03394679	0.02438492	-0.017879607	-0.05933933	-0.08371155	0.05487727	-0.0105335815	0.016734716	-0.02234353	-0.0047222516	-0.025236903	-0.034262896	-0.06879175	-0.021807503	-0.076882884	-0.0216897	0.009101021	0.081448585	-0.02338352	0.024808738	0.02110593	-0.047132134	0.00086146913	-0.043846425	-0.02365366	-0.030026883	0.04942112	-0.06224867	-0.016346663	0.022305332	0.003698581	0.029386226	0.008550858	-0.032496285	-0.016754277	0.020862186	0.08781656	-0.048816547	0.03702045	-0.0133228265	-0.047833275	0.0030372215	-0.005708332	0.027348476	-0.03073008	0.022126753	0.027637258	0.012467444	0.00050097494	0.02915105	0.02093885	-0.05359884	0.048602775	-0.013091304	0.039213207	-0.0023632613	-0.003533443	-0.010713011	0.021017155	0.014758555	0.012275592	-0.04873616	0.013954857	-0.051655788	0.019776559	-0.04667056	-0.016591737	0.037376374	-0.06800255	-0.005927728	0.0035695434	-0.0029328705	0.03603434	0.022903947	-0.023892626	0.03250294	-0.007220488	-0.014409106	-0.0223992	-0.01651627	-0.027924603	0.02126518	-0.017316768	0.011504728	0.032189775	-0.017239992	0.06801299	0.027899068	0.036262564	0.031168817	-0.028038265	0.059619773	0.018671189	-0.014177425	-0.01854947	0.023735777	-0.016581962	0.03714677	-0.00895249	0.056405246	0.047257796	0.0021414398	-0.0022537885	-0.030271193	0.025051558	0.022108935	-0.016564732	0.010895091	-0.02997855	-0.027487483	0.055968247	-0.045023244	0.017793724	-0.000534724	0.036113977	0.02751641	0.046710584	-0.039637722	-0.014240591	0.024111891	0.048264563	-0.022113623	0.007892278	0.023628753	-0.008345916	-0.017038172	0.061444923	0.0010789686	-0.08247916	-0.05756877	-0.021648953	-0.03843701	0.04391991	-0.009251659	0.044231985	-0.04517524	0.037020676	-0.007320092	0.016961921	-0.026896209	0.028057553	0.0140801305	0.07086303	0.027079174	0.06497574	-0.003693261	0.045680467	0.01408343	-0.025033873	0.0013061083	0.017313324	0.11954514	-0.040789623	0.005418726	0.029426448	0.04032745	0.014606399	0.039063577	0.012105608	-0.010415269	0.001278798	-0.051629107	0.04907025	-0.013156201	-0.01749424	0.006947671	-0.031517386	0.027894063	-0.050261766	0.0055190055	0.028654546	0.0040962338	-0.008872331	-0.015857337	-0.06785985	0.04621501	-0.027883993	0.026252292	0.052808225	-0.010704071	0.0468075	-0.031667523	0.025683265	0.018400218	0.012186561	-0.03412155	0.0114054205	0.018146116	0.0012701378	-0.019729642	0.023051327	-0.021940388	-0.011374995	-0.022532014	0.008838378	0.0020180508	0.009822373	0.0038546824	-0.04791592	-0.012498817	0.012484672	0.027238341	-0.017808061	-0.0059171505	0.01718537	0.027758636	0.0028048963	0.005718859	-0.00595693	0.017625319	0.0022571853	0.021357821	0.07386493	0.048994083	-0.03633055	0.01094049	0.04496638	-0.031953838	0.006756698	0.022184078	0.029860651	-0.0062285643	-0.025808202	-0.046123166	0.018451078	-0.0076373336	0.053003684	0.0063841026	-0.013873454	0.030625908	0.014907847	0.005004848	0.00608596	0.05229617	0.02489879	-0.036861382	0.0314966	-0.014178197	0.015345444	0.00947281	0.058134362	0.02285118	-0.060216513	-0.037116796	-0.0043560704	0.041688375	-0.014320019	-0.006754372	0.036041822	0.06565044	0.0114412075	0.026835948	-0.031197118	0.027152024	0.011388612	-0.002823627	-0.0012092347	0.034179345	0.05909032	0.12876369	-0.00092878536	0.015481485	-0.005743852	-0.003157586	-0.0037403128	-0.062311772	0.08280711	-0.032012105	-0.001966326	-0.034529883	-0.019495288	0.08034954	0.0059207855	-0.022966001	-0.060533933	0.008931662	-0.020306882	0.03392675	-0.047603555	-0.05564876	0.062361177	0.041265618	0.010119663	0.010126105	-0.0023509986	0.0025408634	0.008499845	0.051231164	0.013685604	0.029417193	0.037133962	0.025507635	-0.015663026	0.04628275	0.011952168	0.006142135	0.031270128	0.01054816	0.07322374	-0.074455015	-0.028366102	-0.050923232	-0.0020148226	-0.021633541	0.02191162	0.07568866	-0.013236528	-0.029409932	0.003184774	0.041210216	-0.07173182	0.045754183	0.009450154	0.00018802774	-0.0131865125	0.014137566	0.039389424	0.0052403146	0.047553845	0.02636942	0.0055226437	-0.010984828	-0.006189431	0.024914363	-0.024218757	-0.05096484	0.003094136	0.0062238765	-0.026070148	-0.03820451	0.018173069	-0.0027483378	-0.03540007	-0.041817006	-0.016753277	0.0052748634	-0.05146794	0.043408655	-0.03379711	0.018341964	0.07060026	0.0044307904	-0.03004966	0.0048160623	0.039168004	0.002685773	0.035660464	0.026961397	-0.009480164	-0.050060228	-0.02925843	-0.024113886	0.024460094	-0.067999914	0.036026426	0.026523277	-0.099822596	0.02141064	-0.040485382	0.048625514	-0.008809417	-0.026100086	-0.046863094	-0.03519481	-0.012858361	-0.03002381	0.010769422	0.03527584	-0.034429345	0.0034789809	-0.015011741	0.01051592	-0.047941495	-0.072026215	-0.044969726	-0.053076472	0.014257067	-0.096296616	-0.010993962	-0.038725723	-0.00825946	0.0002498944	-0.026326941	-0.03205468	0.050007183	0.043578196	-0.060111493	-0.02735233	-0.015284047	0.009787271	-0.030508528	0.026063073	0.037055373	-0.075774886	0.043638542	0.005681652	-0.011941336	0.01917264	0.004161177	-0.0567861	0.05420985	-0.08438514	0.02362116	0.0047216187	0.014720432	-0.07116283	-0.036599528	0.056833956	0.008552547	-0.026617367	-0.052492216	0.02524195	0.006904332	-0.042017512	0.012999448	-0.036634363	0.045603994	0.016233984	-0.037479304	-0.03410683	-0.007350732	-0.013044389	0.03167026	-0.04482416	0.010173317	-0.0044946647	-0.015826749	-0.017015327	0.0063700564	-0.027071716	-0.036441457	0.07091555	0.005783828	-0.007439696	0.0009938095	0.03556757	0.0058847675	-0.0030807736	-0.00044579976	0.004012998	-0.06688969	-0.0050724666	0.034973565	0.059130043	0.06507534	-0.023399388	0.052429907	0.024156485	-0.0009855871	0.003730733	-0.032419942	-0.020358197	-0.09635056	0.08418415	-0.017727653	0.08109499	0.043659315	-0.017859517	0.016792577	-0.08559371	-0.011574137	0.029872	0.010504351	-0.045862094	0.027674837	0.006104149	-0.036059793	-0.013006938	-0.014152762	0.0020516738	-0.05740678	0.02565217	0.04849822	0.0742851	-0.017887022	-0.023274919	-0.026845451	-0.033385117	0.072937205	-0.007246406	-0.020046758	-0.0065600355	0.023924649	-0.031945936	-0.004189141	-0.009419606	-0.07404244	0.040546767	0.035878412	-0.034092203	-0.0363206	0.012752909	0.005839569	-0.046808597	0.04122232	0.00229735	0.042289075	-0.023211652	-0.018162284	-0.025349064	0.018424135	0.011696686	0.015199449	0.03997048	-0.013919973	0.009345456	-0.00871732	0.0310239	0.0011210326	-0.039462365	0.030503757	0.010299101	0.06302491	-0.008833593	-0.024480352	-0.0045738737	-0.013307159
Relaxed	-0.03441345	-0.02048887	0.005236987	-0.025029847	0.01994146	0.011379652	0.06066829	0.04796604	0.010405181	-0.015338368	0.0011763708	0.059261654	0.036617365	0.07257763	-0.004093039	-0.026770784	-0.0045386874	0.03462043	-0.035712752	-0.035800766	0.042658996	0.02647835	0.059758816	-0.03170552	-0.065789595	-0.008407861	0.013995517	0.0007753741	0.026424306	0.015687741	0.005610465	-0.008272637	0.07095114	0.022776045	0.052076515	0.0073347106	0.013595487	0.023836516	0.035305258	-0.08391891	-0.0549421	0.01848082	0.040074125	-0.0030024522	-0.035875756	0.017068865	0.01198429	0.018070059	0.004933884	0.019326735	0.048794642	0.03998412	-0.024322245	0.012663621	0.002600811	0.029865386	-0.055064242	0.036312357	0.051746722	0.05412843	-0.014031235	0.011143151	0.0230293	-0.035359662	0.02950167	-0.03193403	-0.025719695	0.05095635	0.004501236	0.015455719	-0.01492563	0.04953668	-0.026275665	-0.027949642	-0.03217687	-0.02524192	0.04389391	-0.0059805415	-0.022149371	0.05177563	-0.018132806	0.015508737	0.08037427	0.03509609	0.02562413	0.030274412	0.009022774	0.026733365	-0.09434273	0.015311595	0.038299944	0.040647067	-0.016881743	0.0181218	0.0056108143	-0.0071270694	-0.044076007	-0.011779609	-0.0137947425	0.079001985	0.008218304	0.02502479	0.05234303	-0.0682757	0.05225501	0.008600105	-0.010058044	-0.016504824	-0.040366065	0.005985391	-0.007098915	-0.06933934	0.0074968003	-0.042184204	-0.0036647285	-0.00085539714	0.005676883	0.027655127	0.031678803	-0.01710972	-0.022051321	-0.0021570032	-0.07366623	0.06161924	0.056399174	0.0006459968	0.03286148	-0.034762517	0.030678708	-0.05948577	0.059118796	-0.05658569	0.05055191	0.015322236	0.038970586	0.03158932	0.011755388	-0.008689635	0.059482455	-0.0004615229	0.015498109	0.039753724	0.020360265	0.05940647	-0.023895416	-0.021358488	0.0069005615	0.08403259	-0.09785048	0.016824529	-0.011600091	-0.015089737	-0.0015823888	-0.007968011	0.010402013	0.073802665	-0.018464006	-0.019681314	0.05635124	-0.010560353	0.037543193	-0.09476201	0.039168615	0.07325373	0.0008401049	0.022744417	0.011137318	-0.011885006	0.010759116	0.0007180972	0.019469326	-0.009522549	-0.036057986	-0.09754974	-0.042837515	0.0010247361	-0.03785479	-0.06340343	-0.048264593	-0.062667415	0.044025324	-0.00027040506	0.009540353	-0.05089728	-0.03009313	0.015873875	-0.026745334	0.028015925	0.0009494921	0.03824988	0.0023284908	-0.019757902	-0.040307377	0.013783818	0.03154236	0.03919146	0.08476837	-0.07027866	0.0006484215	0.020033956	-0.018038535	0.004212281	-0.004954263	0.037990514	0.0072798664	0.012517949	-0.035585076	-0.05729288	-0.01752308	-0.059642628	0.054635897	-0.032835286	-0.04787574	-0.03534384	-0.0286457	-0.017909555	0.035406597	-0.047093023	0.016534166	-0.084319875	0.07253729	-0.035953853	0.089473344	0.048492778	-0.0049756877	0.03819383	-0.09413946	0.0061902124	0.0039830133	-0.0291547	-0.01583215	0.063731164	-0.023127379	0.01845942	0.041486114	0.03486469	0.02876626	0.015090936	0.027454581	0.0028618718	0.0065876674	0.0600274	0.060004175	-0.031808097	0.0054615885	0.019656003	0.035476387	0.004434463	0.00712623	-0.05245167	-0.020920457	0.040168688	0.044400334	-0.021187846	-0.05387196	-0.08301222	0.053700604	-0.0027129531	-0.01969926	-0.0062126233	0.02061918	-0.019589154	-0.0062574674	-0.062412217	-0.032094423	-0.014431603	-0.011395727	0.049812157	0.056187045	-0.042972177	0.02570581	0.003479778	-0.019932274	0.0040196166	-0.00097433734	0.026919998	-0.0067009907	0.04648604	-0.007871428	-0.028091634	0.027465042	0.011159657	0.057882544	-0.007427986	-0.0069527286	-0.015262882	0.03816707	0.051395383	-0.04109063	0.02675289	-0.041489746	-0.03835218	-0.013508563	0.005694599	0.012525386	-0.051679064	-0.0038783513	0.0645364	0.028937308	0.03718599	0.0077135107	0.03380297	-0.050212573	0.1020867	-0.07155393	0.017376652	-0.026981369	-0.009601443	-0.023862734	0.04349076	-0.010906464	-0.0051043495	-0.03827839	-0.013683705	-0.04557048	0.024513396	-0.0778646	-0.031161884	0.018366512	-0.036528353	-0.034434374	0.011655982	-0.03999167	0.024331138	0.009378969	-0.042443555	-0.0014634395	0.005264003	0.004445191	-0.020877933	0.008687354	-0.014940789	0.00095824455	-0.048838627	-0.020142628	-0.029424272	-0.043798205	0.06274863	0.07194378	0.006168892	0.033904336	-0.0028298583	0.06680323	-0.0013843669	-0.019948361	0.0011407123	-0.03328278	-0.008063283	-0.0030591357	-0.01488041	0.025677016	0.011424881	0.033854637	-0.017387228	-0.05918445	-0.010245532	0.022255022	-0.04450559	0.0034006785	-0.0570654	-0.0054643764	0.0038628594	-0.0539911	0.040541105	-0.0036766264	0.05585571	0.03433859	0.045129124	-0.010944019	-0.014480229	0.046966903	0.04976074	-0.008047169	-0.021740317	-0.00466459	-0.026936376	-0.06709966	0.042219706	0.0022986303	-0.043662507	-0.040448308	-0.024708427	-0.0443006	0.029404704	-0.045033492	0.0013098159	-0.05745724	0.021719506	0.026663212	0.045046333	-0.03595642	-0.012234785	-0.0034284831	0.061428975	0.008718302	0.061081417	-0.00636043	0.056151416	-0.021961864	-0.0040761093	-0.020842962	-0.01585416	0.08280498	-0.0603686	0.0010893538	0.008385979	0.036072634	-0.037830837	0.032711003	0.014616901	0.016241228	0.0054246415	-0.07594916	0.01801879	-0.06899462	-0.020368421	0.023191463	-0.011500832	0.030631881	0.0048492	-0.030048551	0.025462525	0.018949728	-0.029147483	-0.015600166	-0.052953344	0.045857426	0.0017809949	0.022578673	0.042376887	-0.007410828	0.046274144	-0.028735178	0.021460727	-0.0031619722	6.3407526e-05	0.029746369	0.026520558	-0.008912783	0.027839515	-0.0068309684	0.01646533	-0.04452638	0.0010556725	-0.00059711456	0.05878356	0.019960564	0.008130994	0.00010109373	-0.03782516	-0.01420572	-0.008438682	-0.037041537	-0.00063709525	-0.019796407	0.0029203184	0.046570938	-9.263119e-05	0.0065242904	0.03695117	-0.04431871	-0.0083600655	0.0338708	0.045976523	0.01545621	-0.017237185	-0.01036733	0.034107413	0.001147939	-0.03826778	0.0031264378	0.014187939	0.010302423	0.019751035	0.0001695717	-0.008685728	-0.007991115	0.015489537	0.0067052785	-0.03277854	0.047386747	-0.0121995555	-0.030358562	-0.0058360053	0.043597214	-0.0019053422	-0.08113856	0.05319946	-0.035653047	-0.018823594	0.026388753	0.057560593	0.01948334	-0.04250226	-0.0143678645	-0.017500347	0.01537	-0.028736264	0.05188553	0.02120146	0.032181565	0.021026693	0.026242148	-0.067367	0.0506395	0.031328365	-0.027899535	-0.021542288	0.009550995	-0.0067026853	0.112305745	0.00550482	0.0023414372	0.008992621	0.019044997	-0.028747356	-0.06700137	0.05078138	-0.021425188	0.018455913	0.0045630443	-0.02156855	0.054426644	-0.049028687	-0.03405146	-0.018507661	-0.0068457304	-0.047261726	0.015256352	-0.06436724	-0.024142094	0.061944608	0.013949673	0.018776793	0.028425382	0.031201528	0.035289858	-0.010750936	0.029384358	-0.0029038452	-0.012808515	0.006396618	0.039163157	0.028635524	0.011209561	0.025944132	-0.022296213	0.03853172	0.014649624	0.09580104	-0.034235496	-0.019036412	-0.043914337	-0.018024966	-0.0064514508	-0.00080543355	0.06833006	-0.014319042	-0.03978273	0.00802821	0.04638962	-0.068939745	0.045827176	0.0022528402	0.0058997986	0.007389172	0.032546	0.057172496	0.0025426412	0.037870675	0.0032451127	0.03372463	-0.0024427965	-0.02989393	0.021073522	0.0045275413	-0.058786504	0.014920834	0.0049600494	-0.023788715	0.0109950565	0.019241909	-0.016321529	-0.030565571	0.007614691	0.008899921	0.03384144	-0.021917759	0.071073666	-0.07745995	-0.013081327	0.040804368	-0.014467459	-0.027803067	0.012636153	0.012734959	8.992814e-05	0.03725628	0.02648635	0.004549841	-0.049425043	-0.03016709	0.025096487	0.022486167	-0.014380158	-0.010777178	0.014633832	-0.08611572	0.037785776	-0.019417893	0.026139231	0.012288377	2.5331017e-05	-0.016759722	-0.025561545	0.008214768	-0.027650662	0.017100126	0.004404078	-0.044802807	-0.011254072	0.015981307	-0.04341582	-0.03842613	-0.06300914	-0.040343408	-0.032778643	0.06326014	-0.059948098	0.014030968	-0.010328512	0.015094979	-0.00092415593	-0.029168377	-0.04022031	0.054715306	0.0004309728	-0.031272635	-0.019803539	-0.007458133	-0.017012501	0.020169793	0.058406387	0.015329242	-0.09841447	0.043687522	0.023055552	-0.007047925	-0.028038342	0.016697798	-0.06386731	0.05431711	-0.07055766	0.021601284	-0.021763945	-0.020349896	-0.031564247	-0.03785577	0.031040646	0.021660965	-0.044327226	-0.06093468	0.027877335	0.011252113	-0.05215875	0.0034105165	-0.0015312363	0.015128985	0.041742694	-0.055552885	-0.029618686	-0.02692973	-0.0060328953	0.07703312	-0.07129682	0.02204147	-0.033680778	-0.016938165	-0.023237154	0.019107632	-0.06698428	0.014350182	0.015838481	0.01388337	-0.0143496385	-0.01472661	0.025548762	0.004127964	-0.00039833586	-0.016794588	0.049640235	-0.049410447	0.057812963	0.031039929	0.064338714	0.055970892	0.001462465	0.00026659656	-0.018998034	-0.053819623	-0.020501202	-0.04479122	-0.042463005	-0.100347355	0.12467278	-0.017950257	0.03529458	0.014412464	0.0018779897	-0.038421303	-0.058107737	-0.010640654	0.03332331	-0.0075710504	-0.006385224	0.013109867	0.030330762	-0.0015571034	0.033698812	0.024414992	-0.066436924	-0.02562136	0.018439572	-0.014748215	0.05908651	-0.002613771	-0.053008024	0.009588698	-0.004370763	0.02480722	0.02995891	-0.0029800232	0.015509879	0.023305612	-0.038119722	-0.022851672	-0.06583761	-0.035485722	0.0586096	0.034828838	-0.022329628	-0.0012727058	-0.0084535405	-0.05213195	-0.012430777	0.021904612	0.004318728	0.042330362	-0.011817411	-0.0061251945	-0.068287805	0.040735602	0.020606954	-0.010393449	-0.005903633	-2.8388931e-05	0.022547571	0.0035547903	0.017317621	0.042229075	-0.03593048	0.043216772	-0.012779632	0.044544052	0.007684623	-0.028886486	-0.011798121	-0.03235411
Resilient	-0.008344353	0.004196574	-0.011687191	0.0344641	0.041183002	0.0863858	0.038351268	-0.021295857	-0.0005122526	0.049631115	-0.008483092	0.057933427	0.038815547	0.036943078	0.09831404	-0.0551054	0.048481923	-0.050592262	-0.059407398	-0.0029961911	0.028265163	-0.02333858	0.04786801	-0.056577593	-0.06006762	-0.053395517	0.022629611	-0.06453401	0.0053195995	0.006819966	-0.013616282	0.0074764313	0.054683402	-0.016167523	-0.021256603	0.0053398185	-0.0073827193	0.039973695	-0.0286646	-0.025928233	-0.035323475	0.032284647	0.0028309529	-0.0015742626	-0.0020869984	-0.0043201265	0.010402989	0.028544635	-0.05684666	0.026161969	-0.03176761	0.025397055	-0.0809391	0.0068018064	0.0031357724	-0.023431076	-0.055082805	-0.042808168	0.025511025	0.059377432	-0.021993225	0.029402163	0.025488805	0.022516586	0.0841808	-0.025111986	-0.032982025	-0.003214283	-0.028054887	0.007725118	-0.031066505	0.0127746435	-0.051961806	0.045859724	-0.0303498	0.011101922	0.026478617	-0.07916316	0.0026290067	0.06495118	-0.02988599	0.0198937	0.08170214	0.018588468	0.067911714	-0.04639358	0.023762789	-0.0712817	-0.051154774	-0.028909903	0.04388552	0.027755959	0.011648313	-0.003138141	-0.035716742	-0.022623455	-0.06174278	0.019251594	-0.0076814997	0.07898208	-0.0037418318	-0.033905674	0.02148191	-0.03801885	0.025916766	0.02718227	-0.025469715	-0.018441167	0.013200312	-0.04524326	0.0037195217	-0.026043588	-0.045594215	0.036268163	0.026727883	0.004276498	0.0725795	0.01068464	-0.039158914	0.0035210715	0.02167156	-0.022555294	-0.012081408	0.080506414	0.019051222	-0.010785307	-0.029510656	-0.0108157415	-0.04521167	-0.004025389	0.026480049	-0.050671365	0.01642571	0.018665383	0.021296754	-0.026171945	0.083817616	0.0164177	0.051001403	-0.041844066	0.040472653	0.009244732	-0.043038297	0.04931849	-0.024190813	0.00062305015	0.03291555	0.031593766	0.00029917312	-0.011800638	-0.013816736	-0.037617885	0.026652932	-0.0451425	-0.014528715	0.028533677	-0.012934038	-0.0032560118	0.07701385	-0.04522535	0.027480768	-0.037419524	0.028399246	0.07365808	-0.0019830456	0.0031304776	-0.028115544	-0.05208726	-0.0011361917	0.048836656	-0.025383208	0.03534332	-0.058866926	-0.0592123	-0.05927824	-0.05068254	0.05040341	-0.057365227	0.0051214886	-0.016137995	0.032078244	0.032969646	0.0029227983	-0.07336618	0.0032697215	-0.0058297897	0.0387044	-0.0028569805	0.029753357	0.041246045	-0.022566607	-0.04180244	-0.062814824	0.044556946	-0.029006306	-0.006052661	-0.006210474	-0.047154266	-0.009231517	-0.00028008423	-0.05375243	-0.028550321	0.0077175796	0.031574514	-0.023085136	-0.044340853	-0.024865689	-0.047850005	0.025995966	0.022881849	-0.018710446	0.05661451	0.013783931	-0.017614475	0.014342149	-0.0047053215	0.012267466	0.009844794	0.043057688	-0.08300127	0.062332436	0.01595982	-0.0071711745	0.007996862	-0.017032854	0.07579209	-0.030494483	-0.069434494	-0.008090128	-0.02255996	-0.0019127122	0.09365341	0.0051901266	-0.0005497009	0.04569405	0.015455707	0.03455492	-0.012069116	0.038738817	-0.09280485	0.017991288	0.01497632	0.044480577	0.0028252832	-0.0025677565	0.08276602	0.049264856	0.013500642	-0.013398228	-0.071247034	-0.00064164435	-0.01156877	0.02584661	-0.0109503865	-0.09084679	-0.029242324	0.020785248	-0.016429748	-0.0066000554	-0.0041670552	0.06105021	-0.03571755	0.020362288	-0.03154471	-0.0029091148	-0.031093327	0.004881883	0.012652773	0.054930624	-0.057367425	0.016426347	0.019886767	-0.042803247	0.017278485	-0.047009703	-0.008240376	-0.047329858	0.048420183	-0.015850963	0.024745516	0.054662656	-0.016101254	-0.0039768987	0.00819426	0.018143084	-0.050675776	-0.019897046	0.043694887	0.025916344	-0.025962362	0.09354606	-0.023361867	0.015306876	0.033275347	-0.0042297184	0.020538336	0.01709419	0.034989625	0.0076830904	0.0022301	-0.008689839	0.047516026	-0.05576136	0.017244829	0.009116438	0.035885014	-0.047660265	-0.033697497	-0.056678962	0.020224622	0.0102920495	-0.009908019	0.038055606	-0.06981946	-0.03507025	0.019045742	-0.15951014	-0.026652968	-0.026841568	0.029799609	0.032257315	-0.0016678872	-0.011925652	0.017378861	0.026460242	-0.0012435219	-0.025554447	0.041186288	0.043071043	-0.018488456	0.05856355	0.030968009	-0.04161326	-0.0024868432	0.000271252	8.087784e-05	-0.03678175	0.027625004	0.027385749	0.020973044	-0.008067319	-0.024302946	0.07600043	-0.03139839	-0.0054572877	-0.012128048	0.060592543	0.004848297	0.007238377	-0.017625188	-0.05584019	0.044791505	-0.025698775	-0.012056086	0.019180939	0.016514523	0.04428112	-0.02897368	-0.007465096	-0.004567114	-0.0113214	-0.0036241265	-0.018428952	-0.015711853	0.028190915	0.06024232	0.00590438	0.070957795	-0.027450781	-0.03090594	-0.0025254928	0.019793421	0.06605888	-0.009396277	-0.0039688847	-0.025618108	-0.05631346	0.043631103	-0.008820087	-0.037174143	-0.029823622	-0.03760662	-0.0360988	0.021920241	-0.0044900496	0.040756907	-0.08223216	-0.021226265	-0.012378379	0.069716185	0.01382077	-0.0076175206	0.018083734	0.054268286	0.0004453653	0.035947073	-0.027101832	0.03671587	-0.0064127585	-0.04093982	-0.027380364	-0.0130463205	0.07039652	-0.016281074	-0.01531202	-0.029327469	0.012069019	-0.013545328	0.007689258	-0.04912978	0.02345412	-0.028896948	-0.022131922	0.030227777	-0.019172508	-0.03650014	0.0019434082	0.023620209	-0.0042064325	0.026906502	0.03127261	-0.0025278747	0.0007999803	0.025786709	-0.018218366	-0.08707312	0.03805068	0.02315619	-0.040456373	0.028893536	-0.034880817	-0.030919984	0.0036653776	-0.045698646	0.029911038	0.0042075817	-0.018585011	-0.010252669	-0.010575689	0.03690449	-0.027132584	-0.071423374	-0.029326702	-0.00183556	-0.026011694	0.044608712	-0.02000068	0.033782836	0.033081975	-0.04575583	0.019641554	0.013657577	0.035989694	-0.022836382	-0.056184907	0.019265601	0.003911104	0.011581775	0.004507146	-0.0514389	0.011832718	-0.008461971	0.01934126	0.038315106	-0.018059447	-0.030194884	-0.0042817406	0.06757532	-0.04971452	0.00959904	0.058567837	0.059811175	-0.0041727647	0.038664266	-0.051914837	-0.018800894	-0.064917386	0.0090463925	0.024755651	0.0015688967	-0.008028025	0.046341576	-0.015793769	0.008250374	0.016947417	-0.019898534	-0.02364188	0.013629239	-0.016075384	-0.00604648	0.03096446	0.02656258	0.021212256	0.017424297	-0.041779477	-0.008687262	-0.015220981	0.043964032	0.020012101	0.01655754	0.04670762	0.0022694278	-0.020497806	-0.055185687	-0.0042338753	-0.005187065	-0.0023109224	0.04431784	0.02760279	-0.012029383	-0.006820578	-0.019953527	0.027482063	0.0070938226	-0.07267396	-0.023157531	-0.048560396	0.024268469	-0.047345974	0.0136564905	0.0023048918	-0.030452158	0.03294102	-0.022738127	-0.05053636	-0.02219698	0.038479958	0.003376602	0.005070931	-0.04448158	-0.07339815	0.042893734	0.006808868	0.038275428	0.042292856	0.03994959	-0.029721078	0.04683174	0.040608983	0.023681518	0.045612123	-0.026286889	0.027742617	0.013927206	0.009993396	-0.008803094	0.027360482	0.010025578	0.0498606	0.08262553	-0.0067839613	-0.021421451	0.011565879	-0.0677295	0.012518548	-0.016731786	0.041704297	-0.014532624	-0.027252411	0.017389903	-0.004077147	-0.087319694	0.050035488	0.029802997	-0.008465964	-0.00026944088	0.031704318	0.052035715	0.02400842	0.017129451	0.046546333	0.040412225	0.09621727	0.029777233	-0.015854662	-0.031739924	0.0067293555	-0.002956473	0.05083966	-0.033331983	-0.0361341	0.022799224	0.050560974	-0.045206252	-0.03076234	0.029973371	0.0013359381	0.005562008	0.017987013	-0.051673047	-0.009953469	0.027433058	-0.00856687	-0.027683135	0.049974468	0.009434977	-0.015952028	0.048605047	0.017347615	0.04596922	-0.028280748	-0.010940388	0.054682795	0.0265552	-0.01760024	-0.009088989	0.013351023	-0.014338598	0.0042732474	-0.02391304	-0.009298849	0.032656442	-0.005930085	-0.03699319	-0.008130603	-0.0064637074	-0.06749856	-0.02270976	-0.018831262	-0.011237802	-0.011021682	0.012470404	-0.018786686	-0.0153071955	-0.043120302	0.032195687	0.028214058	0.018145753	-0.0028759814	-0.00060396816	-0.055573314	-0.034492087	0.024620023	0.01322533	-0.0466162	0.057561167	0.015936475	-0.0125045115	-0.0070228726	-0.018420225	0.0045123342	0.003379093	0.01789692	0.018903902	-0.056615546	0.024289936	-0.037675664	-0.04247062	-0.007535597	0.01996435	-0.023925297	0.012188368	-0.10499131	0.01002754	-0.05637668	-0.040230196	-0.02654589	-0.03475093	0.03682717	0.028504096	-0.060690004	0.020716954	-0.007123125	0.030196946	-0.03118238	0.0358586	-0.019061692	-0.017947435	0.02530899	0.013029363	-0.08706104	-0.04461586	0.08028403	0.054890946	-0.049454134	0.06347201	-0.024644082	-0.04797867	-0.041441824	-0.0025674745	-0.035033494	-0.07132267	0.06476499	0.0016060695	0.017647691	-0.018840423	0.042531002	-0.028879711	-0.00465598	-0.02919044	-0.010542375	-0.09485458	-0.0038559537	-0.016718552	0.071788445	0.03109589	0.06822223	0.060698792	0.030154375	-0.026631318	-0.035928484	-0.020547101	0.0023739259	-0.08296635	0.031242779	-0.024609394	0.027713282	-0.010448881	-0.012328261	-0.014837283	-0.039153755	-0.0061930143	0.035753906	-0.002151794	-0.020545803	0.024357235	0.033369936	-0.011329799	0.074327685	0.03902104	0.013749408	-0.055186115	0.009722707	0.028197652	0.0036630104	-0.00074583094	-0.029487655	-0.0022982352	-0.047924433	0.019515678	0.03943432	0.039455287	0.054438412	0.030902838	-0.022613605	-0.03886311	0.038378574	-0.019159596	0.033966005	0.008318992	-0.009486614	-0.033560213	0.01922453	0.011560483	-0.024767531	0.00897475	-0.03868163	0.035982616	-0.011531456	0.022074627	-0.056005076	0.018905617	-0.0011414279	0.04984022	0.0009863441	-0.01745258	0.020448592	-0.007308301	0.042865075	-0.0025650146	-0.05186018	0.035314947	-0.010041195	-0.00013711087	-0.026332047	-0.065114886	-0.016498415	-0.06325876
Flourishing	-0.022205338	0.039313234	-0.011400781	0.026595218	0.032662556	0.014713681	0.0071407324	0.009804598	0.038527418	0.014364644	0.01842134	0.045419544	0.005923082	0.04594587	0.030675754	-0.07206749	-0.040962864	-0.017273773	-0.039603036	-0.011566219	0.052685454	-0.041848525	-0.006663976	-0.062139675	-0.0005755371	-0.037279923	-0.010068948	0.021939863	-0.0007644354	-0.013945168	0.022642821	0.021782696	0.06357049	-0.01823284	-0.008605445	-0.021554356	-0.04750515	0.037412364	0.0065414105	-0.015021123	-0.024666952	-0.017053427	-0.04692569	-0.00903249	-0.0028256932	-0.0027051324	0.00084926916	0.019231424	0.0023241679	0.05161291	0.0072739655	8.873026e-05	-0.0045622545	0.015969763	-0.064635865	-0.013779548	-0.017937085	0.002072544	0.08783639	0.05209459	0.060541328	0.020268599	0.022030048	-0.03419184	0.046851635	0.020800658	-0.017660586	-0.033314105	-0.05564188	-0.03425252	0.0024066148	0.028652003	0.024590591	0.03158729	-0.034593966	0.03302889	0.03222104	-0.06625838	-0.030411119	0.028586864	-0.04454164	0.012454068	0.043393984	0.024966039	0.05900104	-0.038282998	-0.07277402	-0.06541089	-0.061541673	0.0071481788	0.019020822	0.021707721	-0.0544859	0.032022916	0.059032157	-0.006253431	-0.073197305	-0.004541521	0.019947058	0.12505233	-0.006965492	0.008528011	0.017749159	-0.054621257	0.09764718	-0.038604192	0.027637549	0.018030906	-0.00023376179	-0.010002702	-0.015505852	-0.02086746	0.0052597066	0.008578588	-0.03230489	-0.012126518	0.0073666195	0.04727124	-0.03420858	0.023534298	0.05277478	-0.02959583	-0.021978572	0.08626013	0.012694655	0.034551788	-0.031491794	-0.07329517	-0.024670936	-0.04912239	0.0842564	-0.045102347	0.06456167	0.047468435	0.002010421	0.009474907	0.018252302	-0.038525455	0.0029270898	-0.024511356	0.017513407	0.0048668124	0.03280569	0.048689857	0.0022204167	0.00813402	-0.052154414	0.045052134	0.010263558	-0.028425576	0.019098746	0.003844175	0.004439908	-0.03388154	0.009693319	0.004554652	-0.0061365454	-0.0145994825	0.058122095	-0.02215505	-0.0048604156	-0.026797883	-0.01887894	-0.016005082	-0.021876523	-0.07452196	0.0054059555	-0.015764397	-0.010638479	-0.026648719	-0.05248511	-0.015905613	-0.05437205	-0.07150478	-0.040318366	0.019784538	0.019981096	-0.0724142	-0.032988284	-0.048503973	0.067490995	-0.028052425	-0.03421956	-0.018778685	-0.03870545	0.045604493	0.009207163	-0.002044104	0.026825942	0.02024456	-0.017353578	0.019739667	-0.027847102	0.02689983	-0.0093617	-0.025183862	0.050494693	-0.046229016	-0.046984635	-0.031023009	-0.039102893	-0.020328077	-0.0029565992	0.0722114	0.030300379	-0.034884028	-0.06847718	-0.034349125	-0.04724743	0.007462355	0.0012066812	0.0030190581	-0.055003494	-0.02354884	-0.0048243934	-0.050984424	0.0847844	-0.01763444	0.06550838	-0.029061018	0.06627051	-0.008780722	-0.0014448578	-0.010539534	-0.02990285	-0.0055026654	-0.02866175	-0.01814632	-0.03693962	-0.0132404165	-0.028172258	0.051178437	-0.023966528	0.041533377	0.00816231	0.00044589402	0.019225648	0.03900892	0.0023634995	-0.025425045	0.015390236	0.033693157	0.08232571	0.0034663118	0.027811348	0.017900974	0.037218526	0.07261192	0.0832816	-0.012084092	-0.06429895	-0.027597472	-0.018752452	0.00031103197	-0.021752527	0.026671568	-0.0017279346	0.0044515515	-0.035064496	-0.036986347	0.05840484	-0.06025179	-0.008062896	-0.11397975	-0.0035887903	-0.03809276	-0.045645427	-0.026809784	0.03773271	-0.038213395	0.08099898	-0.011708448	-0.04907927	-0.014106475	-0.017811624	-0.012427163	0.02862477	0.007929863	-0.013435445	0.0023713307	0.042853594	0.0066777505	0.031603392	-0.07654781	0.034960918	-0.020487674	0.02785758	0.014809569	0.020644674	-0.0034542324	0.033419956	-0.009526879	0.058709428	0.032302544	0.044461425	-0.04948201	0.008652941	0.014763811	-0.012125716	0.017354872	-0.018533643	0.07117255	-0.0032721024	0.0402292	-0.02404765	0.021528801	-0.03213624	-0.023066139	-0.04958076	0.024111215	-0.036926717	0.014051353	-0.010482375	-0.060455926	-0.02924716	-0.007867045	-0.13477537	-0.009560646	0.002309267	-0.054793842	0.0046496703	0.01846185	-0.080108725	0.032053772	0.053720538	0.0039181653	0.004795029	-0.015403597	0.04689835	-0.024218945	0.045672603	-0.014811373	-0.0061899815	-0.0057081617	-0.008521405	-0.026087554	-0.07831754	0.014792623	0.024291895	0.033616494	0.028757494	0.021249406	0.08906753	-0.0138530005	-0.038040582	-0.013933629	0.040253934	-0.025213372	-0.0035865668	-0.027613524	-0.054922618	0.023665734	-0.009238419	-0.050206214	0.009329121	-0.018100962	0.04805102	-0.03227008	0.014931976	0.02349791	-0.0062314146	-0.011735842	-0.003715381	0.020457735	0.01931337	0.032116555	-0.060420994	0.08260647	-0.0013969006	-0.021493914	0.037261374	-0.020207178	-0.02248278	0.025454722	-0.015716763	-0.016867002	0.0068908692	0.012698149	0.00014629253	-0.041983597	-0.030842368	0.010637249	-0.011352714	0.05915644	-0.049949456	0.024835683	-0.057379257	0.020024912	0.015246438	0.0618306	0.013348349	0.0011370156	0.020217465	0.043613702	0.0072902576	0.015230524	-0.05435566	0.07175016	-0.012098534	-0.025353638	-0.005417305	-0.019052738	0.06933782	-0.035239004	-0.02757532	-0.00722264	0.04545028	-0.023956321	0.015300792	-0.045390476	0.023384638	-0.001300504	-0.023661278	-0.021843987	-0.046667915	-0.0111398725	0.028608942	0.00363579	-0.0014955823	0.016457792	0.014168111	0.012004962	0.028346634	0.031199396	-0.023831034	-0.0828304	0.06801548	0.024876723	0.03635214	0.0591054	-0.024587773	0.00048961723	-0.04358163	-0.04671297	0.037455775	0.05989697	0.0056864643	0.008174971	0.033897687	0.010765849	-0.044860832	-0.023127208	-0.02131095	0.016065268	0.005216421	0.034030076	0.07003441	-0.009659434	-0.053087384	-0.032645825	-0.008189275	0.020569772	0.009132602	-0.040970124	-0.063996315	-0.026252862	-0.02049398	-0.004974523	-0.0050750384	0.022138964	-0.05287915	0.020960862	0.028336732	0.04267874	0.017994583	0.010843283	0.019947607	0.057359196	-0.008781409	-0.042767208	0.06850926	-0.03198047	0.060010012	-0.017689804	-0.0147982985	0.06806786	-0.006973335	-0.00666312	0.02557686	-0.025418714	0.016999677	0.023864383	0.04642691	0.05482878	0.0391973	0.004887257	-0.053686675	0.033914663	-0.036688212	-0.0058736177	0.043481864	0.009133561	-0.0122281825	-0.01675074	-0.036781326	-0.048149753	-0.027362078	0.017771238	0.0037970236	0.005229713	0.020969752	0.063361205	0.021028986	-0.060966656	-0.023554662	-0.024347115	-0.04491831	0.01977249	0.046724446	0.032034166	-0.061666697	-0.011938102	-0.025729796	0.015864013	-0.005356151	-0.052706018	-0.10024121	0.052120276	-0.023721807	0.051727045	-0.0032938842	-0.05208552	0.04898606	-0.047324844	-0.07181885	-0.033856966	-0.048613396	0.0013272729	0.01924463	-0.023286365	-0.016846782	0.0064499774	0.048177525	0.020894816	0.016521668	0.09730137	-0.01816	0.0010787738	-0.005576759	-0.019091522	0.03810623	-0.02868862	0.04885881	0.025051579	0.017899027	-0.049800918	-0.013160796	0.011605258	-0.0062403423	0.05875759	-0.023630619	-0.07935027	-0.016127367	-0.018902054	9.015749e-06	0.012827901	0.04079024	-0.03848498	-0.014486002	0.0056529017	0.020776175	0.011873694	0.108586565	0.002472387	0.053241692	0.0040040854	0.008332938	0.034336697	-0.033884257	-0.026951643	0.035888344	0.008741425	-0.007762784	0.01851967	0.054046966	0.0043723234	0.030878725	-0.015412942	-0.013339375	0.004983609	-0.0049616685	0.038959168	0.02409185	0.04982432	0.029572353	-0.03186254	-0.0131582515	-0.054725643	0.029217964	0.019205293	-0.02008157	0.026206518	0.00797641	-0.028704524	0.021668434	-0.010923147	0.0034742155	0.0074253627	0.031424582	-0.015604423	-0.02631944	-0.036943633	0.06950461	0.021579958	0.016311495	-0.0026758397	0.01251478	-0.05624504	0.013695322	-0.029603306	-0.055572968	0.04411678	-0.032249477	0.0110357655	-0.047141433	-0.001007236	0.015589439	-0.009700602	-0.014900866	0.022984218	0.012737159	-0.054046534	0.057065945	0.0067778197	-0.06748278	-0.0104324175	-0.009358852	0.019033339	-0.0075306897	-0.019749725	-0.08353346	0.013851393	0.031953022	-0.0062621925	-0.01687401	0.06546762	0.0140334265	-0.028879255	0.019584728	-0.0042915717	-0.023212835	0.010513824	0.030084033	-0.007224842	-0.044381496	0.01384725	-0.030563377	-0.080993384	0.037631992	0.061273187	-0.062237907	0.034885712	-0.018794768	0.05250109	0.008813549	0.005134559	0.0009860259	-0.038035817	0.00795235	-0.035580814	-0.018607147	-0.016711153	0.047572896	0.024432063	-0.014144544	-0.014972746	-0.009362022	-0.00014390585	-0.011190444	0.012713023	-0.024746226	-0.0360705	-0.015149535	-0.002102251	-0.04047845	-0.028975831	0.0053509558	0.010959542	-0.0075165485	0.008830868	-0.030623302	-0.05008789	0.009739386	-0.020124255	0.03090967	0.00498873	0.0054960186	-0.05631478	0.010060832	0.017285245	0.021294812	-0.048442997	-0.047140803	-0.0038407329	0.00619067	0.09250795	-0.006386779	-0.0018240935	-0.012112845	-0.07244153	-0.07285462	-0.01748376	-0.0683377	-0.073443525	-0.00064562843	-0.020361196	0.046860546	-0.014583442	0.018513808	-0.014125247	-0.0594501	-0.022933083	0.029656986	0.03883099	0.015418496	0.036202107	0.015299207	0.003053996	0.023750741	0.017568279	-0.04586039	-0.07985603	0.07087783	0.02765801	0.017455105	-0.006793378	-0.030331185	0.04741939	0.004000748	-0.022776976	0.018616438	0.060612187	0.022636022	0.015599726	-0.00080601464	-0.026392944	0.032188307	0.023219608	0.019944021	-0.021682736	-0.0030414518	-0.012521385	-0.014650569	-0.017408593	0.0031121224	-0.031343155	0.027319986	-0.050286215	-0.030926667	0.0016759922	-0.040355273	0.0060252114	0.010346107	0.006182161	0.04087847	-0.048638623	-0.04247027	-0.0030057111	0.016988581	-0.058130253	-0.017089188	0.03770811	0.03593814	0.065640524	-0.056205135	-0.01741229	0.009939713	-0.06267385
Thriving	0.012252158	-0.008571947	-0.013684148	0.009719821	0.016088627	0.06755449	0.012170348	-0.011471452	0.038256567	0.014351158	0.025739102	0.07748574	0.022390854	0.016735408	0.02859926	-0.06776284	-0.02284138	-0.020832453	-0.06045425	0.008720688	0.040318143	-0.021415234	0.0032122498	-0.052653566	-0.0053109764	-0.033140887	0.0017451606	-0.028470306	-0.03463865	0.0021035925	0.010194205	0.019137666	0.056068562	0.02046184	-0.02291648	0.0020430882	-0.026454967	0.039035805	-0.000225761	-0.04778551	-0.016346192	-0.03730317	-0.023874644	-0.024964001	0.028943008	0.0077531934	-0.0017148899	-0.0084548155	0.00031618794	0.070682906	0.001782036	0.0647451	-0.04840765	-0.0039375084	-0.07368358	-0.030222103	-0.005864446	-0.046108417	0.05489356	0.022031834	0.026070504	0.0068785497	0.010072225	-0.032642223	0.025186397	-0.022875043	-0.039877478	-0.008191605	-0.005061091	-0.035663035	-0.023497423	0.01630944	0.029555257	0.03806952	-0.011622166	0.060854826	0.018163595	-0.07072697	-0.036429342	0.045449294	-0.021775141	0.016839901	0.07962301	0.028888885	0.04734494	-0.06177873	-0.057540223	-0.042580865	-0.036424108	0.015092093	0.046076786	0.037091136	-0.03373282	0.0044408184	0.058648102	0.002442399	-0.06551037	-0.0005020099	0.006323842	0.13064644	0.0012665135	-0.014863523	0.0054042754	-0.07734933	0.058687054	-0.00017674107	-0.020217724	0.012388007	0.002227441	-0.061959323	-0.029305084	-0.04660208	-0.024940448	0.028144956	-0.0020618755	-0.035184726	0.02788075	0.045303106	-0.030642409	0.023595158	0.032496132	-0.0029065702	-0.04291293	0.09501563	0.044842605	0.04709386	-0.022689227	-0.062145397	-0.05644967	-0.01161013	0.04409428	-0.008462724	0.00210475	0.06084332	0.020671643	-0.033182636	0.07196272	-0.00023055323	0.00440507	-0.022255339	0.029305326	0.032296978	-0.0077426517	0.061119385	-0.023489678	-0.012772482	0.009409322	0.020040609	-0.019149203	-0.040650766	0.004353371	0.0007739202	0.0042729136	-0.028130967	0.022139868	-0.0109310765	-0.009064434	0.0065460163	0.06254228	-0.019580493	0.0030163697	-0.018540964	-0.051222578	0.017897012	-0.041769553	-0.08001009	-0.017077517	-0.018125055	-0.0038825357	-0.009361719	-0.06414926	-0.0227706	-0.05627895	-0.035136815	-0.018870596	-0.024550073	-0.0003788907	-0.06212089	-0.004088863	-0.048397392	0.050787926	0.0048072785	-0.028041402	-0.058871623	-0.007183001	0.005598054	0.019103598	0.015318348	0.009065004	0.08711499	-0.01649679	0.03601957	-0.022237562	0.00088599307	-0.027969277	-0.0040617352	0.020955259	-0.02485726	-0.030527618	-0.030081922	-0.062411457	-0.020141756	0.050750654	0.02480891	0.01058972	-0.076999	-0.08587963	-0.04425189	-0.040018316	0.02014451	0.018637497	0.0199384	-0.023278372	-0.011366678	0.02003182	-0.01762975	0.053924847	-0.022994565	0.05222528	-0.060883872	0.031648725	-0.026250115	0.009359648	0.011360629	-0.011520352	0.017844172	-0.05279667	-0.004947924	-0.020370582	-0.010291567	-0.041813154	0.051500518	-0.003269542	0.02741102	0.044914402	0.040543664	0.009282283	0.03717982	0.055130657	-0.024704952	0.043308392	0.0030185566	0.070347145	0.011238929	-0.00449611	0.026982903	0.04499651	0.033711493	0.06858454	-0.0070589897	-0.037660453	-0.050961845	0.03290225	-0.051827393	-0.040397197	0.01837172	0.041419376	0.024580058	-0.028824553	-0.024296932	0.083719395	-0.03642695	-0.0060441694	-0.09103217	-0.0024106945	-0.019481614	-0.055684824	0.0021862048	0.051767126	-0.04769555	0.043880634	-0.0033251438	-0.0281049	0.002411837	-0.019814892	0.0009961625	0.055948988	-0.0007327827	-0.025862172	0.022897843	0.071567595	0.0042164843	0.004669787	-0.045547985	0.030055923	-0.0018163468	-0.013457194	0.005027465	0.048848096	-0.04765065	0.031434774	-0.039325405	0.017581344	0.040703773	0.02183977	0.00092414994	0.02916726	0.056371275	-0.03448444	0.0011732342	-0.044908304	0.054344952	0.0044909534	0.025602126	0.016852425	0.024272399	-0.03223872	0.011900942	-0.044417754	0.006623237	-0.03772862	0.0050507	-0.0006168111	-0.03617874	-0.04330683	-0.006303075	-0.12523527	-0.026328458	0.02000401	-0.049561474	0.061205707	-0.005074453	-0.04047646	0.0052829115	0.060600735	0.036762793	0.0334318	-0.01789515	0.04052317	0.0024937622	0.02132714	-0.03236512	-0.010223832	0.02265999	-0.010371258	0.03487458	-0.0260184	0.010325973	0.062611096	0.082062654	0.023123384	0.012079932	0.076678276	0.03433541	-0.027051965	-0.00069500355	0.016440585	-0.022730187	0.029675428	-0.041504055	-0.02840381	0.030211592	-0.03778663	-0.041986875	0.0043313503	-0.009260168	0.03039979	-0.045502122	-0.010774586	0.014431876	-0.010644374	-0.009555115	-0.011407005	0.026088694	0.040471744	0.009593158	-0.010233121	0.098001905	0.03461505	-0.062038835	0.03779877	-0.03708802	0.006351715	0.000103471386	-0.06279283	-0.016677825	-0.028645594	0.045397986	0.021141905	-0.07101326	0.0053440616	-0.025698429	-0.037418988	0.051559616	-0.013035789	0.02368449	-0.050763704	0.006051262	-0.0068051983	0.089915745	0.007822587	0.008805843	0.024265163	0.063070826	0.010166434	0.027378602	-0.05761832	0.030434374	0.018057879	-0.012551182	-0.021620499	-0.0490558	0.04609719	-0.030546706	-0.005399695	-0.021314722	0.03924084	-0.035731368	-0.019914513	-0.035852727	-0.0030766686	0.045761958	-0.017227313	-0.012184045	-0.07715055	-0.011570257	0.02859364	0.00040637754	0.0042430786	0.0019701007	0.001167404	0.0045274803	-0.016660882	0.003477758	0.020150634	-0.09489832	0.040902533	0.01323343	0.024191821	0.05966709	0.0018344739	-0.008903206	-0.04155846	-0.05835631	0.051091637	0.04341612	-0.0010834972	0.0057407343	0.04183513	0.041816108	-0.052426457	-0.07085259	0.0029231263	0.012637255	0.03295928	0.011501801	0.06904037	0.01852209	-0.034428064	-0.0043214457	0.005993029	0.0066823578	0.029788809	0.006976313	-0.030763859	-0.037458237	0.0023551267	-0.0008355043	-0.008976803	0.013259983	-0.052335788	0.014130523	-0.012991519	0.046557467	-0.018721038	0.013760066	-0.010355885	0.07314239	-0.015255296	0.0019245624	0.092314355	0.006816801	0.037306614	-0.00024038575	-0.017263819	0.020796452	-0.02386453	0.025224004	0.021584667	-0.013552446	-0.020855198	0.017954895	0.050562743	0.019616097	0.044378504	-0.004968825	-0.037471898	0.021993969	0.0014178121	0.007950268	0.048592817	0.011235483	-0.0033367209	0.010206531	-0.048660632	-0.0020877433	-0.01895254	0.030635865	-0.0056663337	0.00079502055	0.065948635	0.04226264	-0.011806457	-0.0375594	-0.031347737	-0.061104096	-0.048554	0.020345708	0.05167386	0.009183503	-0.034489516	-0.006856605	0.011186841	-0.0156025635	-0.018602552	-0.036531955	-0.08451166	0.037772767	-0.019832546	0.092453375	0.0016559507	-0.013937454	0.0738376	-0.06445706	-0.055099223	-0.027651757	0.035960313	-0.007508612	0.009290849	-0.037538916	-0.0067900945	0.013642677	0.04132683	0.045439772	0.006910811	0.07285398	-0.042121567	-0.01212227	0.0048133144	-0.0027519036	0.03512717	-0.03488352	0.0520818	0.05292448	0.009759776	-0.041317597	0.006778492	0.022842593	0.010042279	0.019956332	-0.007207244	-0.037767977	0.017920388	-0.060399618	-0.009803929	-0.01822294	0.045345422	-0.039968558	-0.04703994	-0.00080078177	0.024144879	-0.044262607	0.0777329	0.0030365859	0.04590854	0.0035818615	0.026489077	0.007428378	0.008211174	-0.026531316	0.04305724	0.019592617	0.073608086	0.03570425	0.03198235	0.01873019	-0.000857825	-0.0045922776	0.057144232	0.008311318	0.014501008	0.042194583	0.065412626	0.009891001	0.016808521	0.011962477	0.006831706	-0.014365639	0.007550233	8.548947e-05	-0.003354405	0.011446795	0.030224346	-0.048275977	0.03516672	0.040640935	-0.0076852296	-0.008489009	0.073583305	0.03259955	-0.0213002	0.014262959	0.067817286	0.0184528	-0.0012593744	-0.006930739	-0.0006880873	-0.0055296663	0.061995365	-0.06484172	-0.021332046	0.04881652	-0.04786182	-0.0053135273	-0.040963497	0.017949188	0.022890395	-0.017521469	-0.030529546	0.022200834	9.327141e-05	-0.01920158	0.03797065	-0.0025175544	-0.08331252	-0.0074682	0.0334098	0.017779721	-0.029578255	0.0027301335	-0.06334133	0.019543944	0.032570243	0.019050352	-0.010076006	0.047052782	0.01660368	-0.017828511	-0.00555096	-0.0036241	-0.037543286	0.010713993	0.036771223	-0.00040508542	-0.058320034	-0.0055375756	-0.03296609	-0.08326643	0.016639017	0.043392133	-0.064845055	0.081549205	-0.03896995	0.057175033	-0.0029585897	-0.016155832	0.029693557	-0.03767098	0.008453402	-0.10609264	0.014406709	0.010657085	0.027552452	0.020156607	-0.013326	-0.0018876309	-0.026865374	-0.013063288	0.006139101	0.011844384	-0.032371823	-0.00064644904	0.021734169	-0.013157472	-0.031605896	0.052824765	0.0017111007	-0.02744474	-0.012129077	-0.00014890636	0.009411882	-0.04423018	-0.006217924	-0.020685047	0.038565263	0.0022063872	0.023346247	-0.05512585	-0.011774437	0.018846216	0.0027992318	-0.09101785	-0.05107591	-0.015540927	0.044752225	0.10151855	-0.03477161	0.010024078	-0.0016650025	-0.032097958	-0.060922313	0.010340618	-0.030962173	-0.082603626	0.033607777	-0.048134357	0.0077567464	-0.018192815	-0.021600466	0.0037619867	-0.06482462	-0.014251353	0.05675561	0.050179336	-0.023084411	0.02111142	-0.013353261	0.0030822556	0.017872758	-0.0090955105	-0.031669978	-0.09826241	0.042486075	0.04548414	0.021424707	-0.014091738	-0.012004568	0.019581344	-0.00679805	-0.0031239316	0.02255402	0.05155276	-0.007997889	0.008407293	-0.0108174905	-0.03554332	0.019743236	-0.003886917	-0.00078175415	-0.036827814	-0.0046646236	-0.018920552	-0.045874316	-0.0016174539	-0.0018553962	-0.029736614	0.011634378	-0.029364502	-0.020272445	-0.004196868	-0.051184665	0.025680749	0.025512056	0.03710652	0.05672274	-0.0603198	0.004459237	0.003784326	0.02739402	-0.023135485	-0.027198423	0.0167415	0.0056811203	0.045705304	-0.06481911	-0.016413217	0.029065164	-0.025946843
